{"learner":{"attributes":{"scikit_learn":"{\"_estimator_type\": \"regressor\"}"},"feature_names":["media_4w","media_12w","vol_4w","vol_12w","retorno_4w","retorno_12w","volume_medio_4w","ema_12","rsi_14"],"feature_types":["float","float","float","float","float","float","float","float","float"],"gradient_booster":{"model":{"gbtree_model_param":{"num_parallel_tree":"1","num_trees":"65"},"iteration_indptr":[0,1,2,3,4,5,6,7,8,9,10,11,12,13,14,15,16,17,18,19,20,21,22,23,24,25,26,27,28,29,30,31,32,33,34,35,36,37,38,39,40,41,42,43,44,45,46,47,48,49,50,51,52,53,54,55,56,57,58,59,60,61,62,63,64,65],"tree_info":[0,0,0,0,0,0,0,0,0,0,0,0,0,0,0,0,0,0,0,0,0,0,0,0,0,0,0,0,0,0,0,0,0,0,0,0,0,0,0,0,0,0,0,0,0,0,0,0,0,0,0,0,0,0,0,0,0,0,0,0,0,0,0,0,0],"trees":[{"base_weights":[3.92853E-5,-1.1093994E-1,1.6752402E-1,-3.6420253E-1,-5.7855383E-2,1.5319481E-1,9.303952E-1,-5.813732E-1,-3.0159178E-1,-1.4667192E-1,4.021203E-2,9.7677015E-2,2.8035372E-1,4.587116E-1,1.320149E0,-7.285629E-1,-5.073206E-1,-3.4129182E-1,-1.0896773E-1,-2.9158765E-1,-1.13586865E-1,-7.066673E-3,7.050878E-2,-5.2207116E-2,1.3940398E-1,2.4732967E-1,3.8987824E-1,1.262439E-1,6.962907E-1,1.4303274E0,2.9187632E-1,-3.6806643E-2,-5.8215904E-1,-5.9053993E-1,-4.2049333E-1,-4.6746576E-1,-2.996509E-1,-2.1449512E-1,-7.8932784E-2,4.592657E-2,-3.0405766E-1,-1.76657E-1,-6.325228E-2,-2.1154977E-2,9.958021E-2,6.1186556E-2,1.3606004E-1,-5.839527E-2,6.4020944E-1,1.0520534E-1,1.9685434E-1,2.0795386E-1,3.5255903E-1,1.3303008E0,3.6215425E-1,-1.1409454E-1,3.0012956E-1,1.6549865E0,5.849336E-1,1.0960834E0,1.6682479E0,-4.4519016E-1,7.3425674E-1,-3.4426995E-2,-1.5600957E-2,-3.094469E-2,-1.9109996E-2,-2.2964446E-2,-1.6657105E-3,-2.4805522E-2,-1.5054139E-2,-1.8619124E-2,-1.2811685E-2,-1.2048243E-2,1.6685453E-3,-4.139434E-3,1.16955135E-2,-6.7460263E-4,5.2143753E-2,-1.1952779E-2,-1.7034076E-2,-1.1478121E-2,-7.0761875E-3,-6.921348E-3,-2.216917E-3,-4.021727E-3,-1.2453337E-4,8.352215E-3,2.6929525E-3,2.355962E-3,5.061871E-3,7.903445E-3,1.7477364E-3,-6.017206E-3,-9.376725E-4,1.4058559E-2,4.212796E-2,3.9580427E-3,6.8962537E-3,4.0938053E-2,9.599878E-3,8.473905E-3,1.3202466E-2,4.616376E-2,1.6928686E-2,1.1922512E-2,7.4101076E-2,2.7708674E-2,1.7451933E-2,-3.012219E-2,-2.0565616E-4,3.0913392E-2,1.2734843E-3,2.6928175E-2,9.911236E-2,5.037988E-2,2.17358E-2,4.7543373E-2,7.305271E-2,3.209151E-2,8.814139E-2,-1.2417414E-3,-2.390751E-2,1.7648213E-2,5.2439928E-2],"categories":[],"categories_nodes":[],"categories_segments":[],"categories_sizes":[],"default_left":[0,0,0,0,0,0,0,0,0,0,0,0,0,0,0,0,0,0,0,0,0,0,0,0,0,0,0,0,0,0,0,0,0,0,0,0,0,0,0,0,0,0,0,0,0,0,0,0,0,0,0,0,0,0,0,0,0,0,0,0,0,0,0,0,0,0,0,0,0,0,0,0,0,0,0,0,0,0,0,0,0,0,0,0,0,0,0,0,0,0,0,0,0,0,0,0,0,0,0,0,0,0,0,0,0,0,0,0,0,0,0,0,0,0,0,0,0,0,0,0,0,0,0,0,0],"id":0,"left_children":[1,3,5,7,9,11,13,15,17,19,21,23,25,27,29,31,33,35,37,39,41,43,45,47,49,51,53,55,57,59,61,-1,63,65,67,69,71,73,75,77,79,81,83,85,87,89,91,93,95,97,99,101,103,105,107,109,111,113,115,117,119,121,123,-1,-1,-1,-1,-1,-1,-1,-1,-1,-1,-1,-1,-1,-1,-1,-1,-1,-1,-1,-1,-1,-1,-1,-1,-1,-1,-1,-1,-1,-1,-1,-1,-1,-1,-1,-1,-1,-1,-1,-1,-1,-1,-1,-1,-1,-1,-1,-1,-1,-1,-1,-1,-1,-1,-1,-1,-1,-1,-1,-1,-1,-1],"loss_changes":[1.5182687E3,6.604856E2,3.5571655E2,1.1557764E2,3.5378027E2,2.2556152E2,1.0969873E2,2.0383606E1,5.051068E1,1.0215784E2,2.765137E1,1.3913216E2,3.502777E1,2.147565E1,3.6742798E1,2.7523804E-1,8.928345E0,2.8651794E1,3.5677834E0,1.6685028E1,5.5080994E1,1.1330759E1,7.181076E0,2.0797146E1,3.416745E1,3.0853699E1,5.8128662E1,4.8402553E0,1.6006401E1,2.1710388E1,1.10869875E1,0E0,8.197193E-1,3.5795593E0,9.372726E0,6.3228455E0,1.2924255E1,1.6482773E0,1.083313E0,8.425768E0,9.012543E0,1.4283524E1,1.3718975E1,7.3696113E0,2.7053947E0,5.7994537E0,3.2521877E0,1.179278E1,2.8871021E0,9.28624E0,1.9451645E1,1.16835785E1,1.5898178E1,1.0248604E1,5.309387E0,2.6292796E0,5.8387003E0,4.7782135E0,8.7047615E0,5.288681E0,1.5468964E1,1.6823936E-1,2.1483936E0,0E0,0E0,0E0,0E0,0E0,0E0,0E0,0E0,0E0,0E0,0E0,0E0,0E0,0E0,0E0,0E0,0E0,0E0,0E0,0E0,0E0,0E0,0E0,0E0,0E0,0E0,0E0,0E0,0E0,0E0,0E0,0E0,0E0,0E0,0E0,0E0,0E0,0E0,0E0,0E0,0E0,0E0,0E0,0E0,0E0,0E0,0E0,0E0,0E0,0E0,0E0,0E0,0E0,0E0,0E0,0E0,0E0,0E0,0E0,0E0,0E0,0E0],"parents":[2147483647,0,0,1,1,2,2,3,3,4,4,5,5,6,6,7,7,8,8,9,9,10,10,11,11,12,12,13,13,14,14,15,15,16,16,17,17,18,18,19,19,20,20,21,21,22,22,23,23,24,24,25,25,26,26,27,27,28,28,29,29,30,30,32,32,33,33,34,34,35,35,36,36,37,37,38,38,39,39,40,40,41,41,42,42,43,43,44,44,45,45,46,46,47,47,48,48,49,49,50,50,51,51,52,52,53,53,54,54,55,55,56,56,57,57,58,58,59,59,60,60,61,61,62,62],"right_children":[2,4,6,8,10,12,14,16,18,20,22,24,26,28,30,32,34,36,38,40,42,44,46,48,50,52,54,56,58,60,62,-1,64,66,68,70,72,74,76,78,80,82,84,86,88,90,92,94,96,98,100,102,104,106,108,110,112,114,116,118,120,122,124,-1,-1,-1,-1,-1,-1,-1,-1,-1,-1,-1,-1,-1,-1,-1,-1,-1,-1,-1,-1,-1,-1,-1,-1,-1,-1,-1,-1,-1,-1,-1,-1,-1,-1,-1,-1,-1,-1,-1,-1,-1,-1,-1,-1,-1,-1,-1,-1,-1,-1,-1,-1,-1,-1,-1,-1,-1,-1,-1,-1,-1,-1],"split_conditions":[4.9390244E1,-2.543959E-1,7.76E-1,-4.7016585E-1,2.8118334E1,6.3258034E1,1.6705596E0,-7.6722187E-1,4.8421665E1,3.5675E0,-9.606987E-2,8.598333E0,2.396016E0,6.948052E1,1.0627218E1,4.361702E1,4.43E0,3.2608333E0,-3.612732E-1,2.348436E-2,3.882353E1,3.6032916E2,2.3774583E2,1.48297E0,1.7698282E0,7.395427E1,2.15325E1,5.9948895E1,2.456E3,1.3232758E0,3.3700879E0,-3.6806643E-2,3.5675E0,4.152047E1,3.677686E1,3.9503956E1,-3.39381E-1,3.619632E1,4.376658E1,6.575E-1,1.244503E-1,-1.5566751E-1,-1.2903225E-1,-1.9432624E-1,3.948212E1,4.819311E6,7.5544916E2,3.8508334E0,8.2965E3,2.70375E1,-2.423756E-1,8.472455E-1,8.9747116E-2,2.0085232E0,3.337E1,4.2426407E-2,4.17395E4,1.3232758E0,3.5185184E-2,3.6536067E0,1.907779E0,1.4856667E1,1.3232758E0,-3.4426995E-2,-1.5600957E-2,-3.094469E-2,-1.9109996E-2,-2.2964446E-2,-1.6657105E-3,-2.4805522E-2,-1.5054139E-2,-1.8619124E-2,-1.2811685E-2,-1.2048243E-2,1.6685453E-3,-4.139434E-3,1.16955135E-2,-6.7460263E-4,5.2143753E-2,-1.1952779E-2,-1.7034076E-2,-1.1478121E-2,-7.0761875E-3,-6.921348E-3,-2.216917E-3,-4.021727E-3,-1.2453337E-4,8.352215E-3,2.6929525E-3,2.355962E-3,5.061871E-3,7.903445E-3,1.7477364E-3,-6.017206E-3,-9.376725E-4,1.4058559E-2,4.212796E-2,3.9580427E-3,6.8962537E-3,4.0938053E-2,9.599878E-3,8.473905E-3,1.3202466E-2,4.616376E-2,1.6928686E-2,1.1922512E-2,7.4101076E-2,2.7708674E-2,1.7451933E-2,-3.012219E-2,-2.0565616E-4,3.0913392E-2,1.2734843E-3,2.6928175E-2,9.911236E-2,5.037988E-2,2.17358E-2,4.7543373E-2,7.305271E-2,3.209151E-2,8.814139E-2,-1.2417414E-3,-2.390751E-2,1.7648213E-2,5.2439928E-2],"split_indices":[8,5,5,5,1,8,3,5,1,1,5,1,2,8,3,8,1,1,5,3,8,1,1,2,2,8,1,8,6,5,2,0,1,8,8,8,5,8,8,1,3,5,5,5,3,6,1,1,6,1,4,2,3,3,1,2,6,5,4,3,3,1,5,0,0,0,0,0,0,0,0,0,0,0,0,0,0,0,0,0,0,0,0,0,0,0,0,0,0,0,0,0,0,0,0,0,0,0,0,0,0,0,0,0,0,0,0,0,0,0,0,0,0,0,0,0,0,0,0,0,0,0,0,0,0],"split_type":[0,0,0,0,0,0,0,0,0,0,0,0,0,0,0,0,0,0,0,0,0,0,0,0,0,0,0,0,0,0,0,0,0,0,0,0,0,0,0,0,0,0,0,0,0,0,0,0,0,0,0,0,0,0,0,0,0,0,0,0,0,0,0,0,0,0,0,0,0,0,0,0,0,0,0,0,0,0,0,0,0,0,0,0,0,0,0,0,0,0,0,0,0,0,0,0,0,0,0,0,0,0,0,0,0,0,0,0,0,0,0,0,0,0,0,0,0,0,0,0,0,0,0,0,0],"sum_hessian":[8.1681E4,4.9128E4,3.2553E4,8.512E3,4.0616E4,3.1954E4,5.99E2,1.903E3,6.609E3,2.1313E4,1.9303E4,2.2244E4,9.71E3,2.72E2,3.27E2,6.34E2,1.269E3,5.479E3,1.13E3,3.96E3,1.7353E4,7.539E3,1.1764E4,4.844E3,1.74E4,7.463E3,2.247E3,1.14E2,1.58E2,2.95E2,3.2E1,5.99E2,3.5E1,6.45E2,6.24E2,1.357E3,4.122E3,2.49E2,8.81E2,1.41E2,3.819E3,7.701E3,9.652E3,6.66E3,8.79E2,1.0301E4,1.463E3,4.802E3,4.2E1,1.0909E4,6.491E3,5.433E3,2.03E3,6.3E1,2.184E3,4.8E1,6.6E1,1.5E1,1.43E2,1.25E2,1.7E2,1.2E1,2E1,2.4E1,1.1E1,5.66E2,7.9E1,5.67E2,5.7E1,1.156E3,2.01E2,1.538E3,2.584E3,2.25E2,2.4E1,8.71E2,1E1,1.34E2,7E0,1.379E3,2.44E3,3.071E3,4.63E3,1.939E3,7.713E3,1.594E3,5.066E3,3.54E2,5.25E2,7.625E3,2.676E3,1.201E3,2.62E2,1.873E3,2.929E3,1.6E1,2.6E1,6.076E3,4.833E3,4.9E1,6.442E3,3.225E3,2.208E3,4.7E1,1.983E3,8E0,5.5E1,1.37E2,2.047E3,8E0,4E1,3E1,3.6E1,4E0,1.1E1,3.6E1,1.07E2,9.2E1,3.3E1,1.5E1,1.55E2,1E0,1.1E1,1E1,1E1],"tree_param":{"num_deleted":"0","num_feature":"9","num_nodes":"125","size_leaf_vector":"1"}},{"base_weights":[5.830958E-4,-1.0929762E-1,1.5372282E-1,-3.4735808E-1,-5.794953E-2,1.4072792E-1,8.607251E-1,-5.579487E-1,-2.8800878E-1,-1.4435026E-1,3.6203653E-2,8.621625E-2,2.5779378E-1,3.8242197E-1,1.2020663E0,-6.880451E-1,-4.9192128E-1,-3.322256E-1,-1.22417964E-1,-2.7619675E-1,-1.1273517E-1,-6.993853E-3,6.455442E-2,-6.1314475E-2,1.2545775E-1,2.1828073E-1,3.4059393E-1,4.6347592E-2,5.715648E-1,1.5554217E0,9.4394547E-1,-3.6187556E-2,-6.473082E-1,-5.717948E-1,-4.195126E-1,-4.4299713E-1,-2.929075E-1,-2.3222485E-1,-9.015813E-2,2.7412683E-2,-2.8761724E-1,-1.7719042E-1,-7.5442635E-2,-2.1334277E-2,1.1378033E-1,5.638069E-2,1.2760688E-1,-6.586535E-2,7.467993E-1,1.0192772E-1,1.9792724E-1,1.8061608E-1,3.4328505E-1,8.0873215E-1,3.157E-1,-3.1330887E-2,5.7976145E-1,9.2185396E-1,3.7815428E-1,1.0297185E0,1.8944491E0,1.0083472E0,-2.9702378E-2,-3.4273144E-2,-2.079328E-2,-3.037518E-2,-1.97507E-2,-2.1685308E-2,6.766747E-3,5.4437645E-2,-2.224627E-2,-1.5548997E-3,-1.5409881E-2,-1.2538557E-2,-3.3069656E-3,-8.456942E-3,-3.0401237E-3,-5.771521E-4,4.626591E-2,-1.5866002E-2,-1.1401589E-2,-1.0224935E-2,-6.975966E-3,-6.0397973E-3,-2.1972633E-3,-3.4788183E-3,1.4826243E-7,9.592761E-3,3.230403E-3,2.906323E-3,-1.1709112E-2,7.67789E-3,8.3337765E-4,-6.491035E-3,-1.1149308E-3,4.329444E-2,-7.721877E-3,3.5262245E-3,6.6694864E-3,7.712484E-2,9.741987E-3,3.850333E-2,8.836604E-3,4.3805882E-2,1.6022682E-2,2.6830763E-2,6.8383984E-2,1.4510155E-2,2.0742003E-2,-1.1743125E-2,8.647335E-3,7.32653E-3,4.341396E-2,4.0798755E-3,5.4760374E-2,5.0064664E-2,1.556956E-2,3.534966E-4,6.2727995E-2,4.6355324E-3,9.5682584E-2,3.238207E-2,6.1966687E-2,-2.205546E-2,2.2236E-2],"categories":[],"categories_nodes":[],"categories_segments":[],"categories_sizes":[],"default_left":[0,0,0,0,0,0,0,0,0,0,0,0,0,0,0,0,0,0,0,0,0,0,0,0,0,0,0,0,0,0,0,0,0,0,0,0,0,0,0,0,0,0,0,0,0,0,0,0,0,0,0,0,0,0,0,0,0,0,0,0,0,0,0,0,0,0,0,0,0,0,0,0,0,0,0,0,0,0,0,0,0,0,0,0,0,0,0,0,0,0,0,0,0,0,0,0,0,0,0,0,0,0,0,0,0,0,0,0,0,0,0,0,0,0,0,0,0,0,0,0,0,0,0,0,0],"id":1,"left_children":[1,3,5,7,9,11,13,15,17,19,21,23,25,27,29,31,33,35,37,39,41,43,45,47,49,51,53,55,57,59,61,-1,63,65,67,69,71,73,75,77,79,81,83,85,87,89,91,93,95,97,99,101,103,105,107,109,111,113,115,117,119,121,123,-1,-1,-1,-1,-1,-1,-1,-1,-1,-1,-1,-1,-1,-1,-1,-1,-1,-1,-1,-1,-1,-1,-1,-1,-1,-1,-1,-1,-1,-1,-1,-1,-1,-1,-1,-1,-1,-1,-1,-1,-1,-1,-1,-1,-1,-1,-1,-1,-1,-1,-1,-1,-1,-1,-1,-1,-1,-1,-1,-1,-1,-1],"loss_changes":[1.3751614E3,5.816198E2,3.1354688E2,1.0535095E2,3.184135E2,2.1392242E2,1.001113E2,1.5595825E1,4.8195984E1,8.504886E1,2.2939981E1,1.3244434E2,3.47724E1,1.637355E1,3.1275574E1,4.3621826E-1,6.897003E0,2.251361E1,4.902935E0,1.36936035E1,3.9563522E1,1.2858715E1,5.821171E0,1.772755E1,3.0792969E1,3.389856E1,3.9822113E1,3.9130335E0,1.0830086E1,2.4783447E1,1.3197891E1,0E0,2.364128E0,3.4466095E0,5.185486E0,4.5013123E0,1.5362305E1,9.536972E-1,2.4844542E0,5.0475936E0,6.6601562E0,6.178833E0,1.4896908E1,6.8307877E0,3.0128307E0,5.092766E0,3.731474E0,1.3318531E1,3.031578E0,1.3470001E1,1.8081635E1,1.2558762E1,2.0023148E1,2.5579216E1,8.137817E0,3.4915051E0,1.3727074E0,8.35899E0,4.1812944E0,1.401709E1,2.9363708E0,1.5611038E1,2.9286983E0,0E0,0E0,0E0,0E0,0E0,0E0,0E0,0E0,0E0,0E0,0E0,0E0,0E0,0E0,0E0,0E0,0E0,0E0,0E0,0E0,0E0,0E0,0E0,0E0,0E0,0E0,0E0,0E0,0E0,0E0,0E0,0E0,0E0,0E0,0E0,0E0,0E0,0E0,0E0,0E0,0E0,0E0,0E0,0E0,0E0,0E0,0E0,0E0,0E0,0E0,0E0,0E0,0E0,0E0,0E0,0E0,0E0,0E0,0E0,0E0,0E0,0E0],"parents":[2147483647,0,0,1,1,2,2,3,3,4,4,5,5,6,6,7,7,8,8,9,9,10,10,11,11,12,12,13,13,14,14,15,15,16,16,17,17,18,18,19,19,20,20,21,21,22,22,23,23,24,24,25,25,26,26,27,27,28,28,29,29,30,30,32,32,33,33,34,34,35,35,36,36,37,37,38,38,39,39,40,40,41,41,42,42,43,43,44,44,45,45,46,46,47,47,48,48,49,49,50,50,51,51,52,52,53,53,54,54,55,55,56,56,57,57,58,58,59,59,60,60,61,61,62,62],"right_children":[2,4,6,8,10,12,14,16,18,20,22,24,26,28,30,32,34,36,38,40,42,44,46,48,50,52,54,56,58,60,62,-1,64,66,68,70,72,74,76,78,80,82,84,86,88,90,92,94,96,98,100,102,104,106,108,110,112,114,116,118,120,122,124,-1,-1,-1,-1,-1,-1,-1,-1,-1,-1,-1,-1,-1,-1,-1,-1,-1,-1,-1,-1,-1,-1,-1,-1,-1,-1,-1,-1,-1,-1,-1,-1,-1,-1,-1,-1,-1,-1,-1,-1,-1,-1,-1,-1,-1,-1,-1,-1,-1,-1,-1,-1,-1,-1,-1,-1,-1,-1,-1,-1,-1,-1],"split_conditions":[4.8660236E1,-2.543959E-1,7.76E-1,-4.7016585E-1,2.67125E1,6.2398556E1,1.472496E0,-7.6722187E-1,3.26625E1,3.5725E0,-9.606987E-2,8.2225E0,1.6191639E0,6.6666664E1,7.8756814E0,2.2700955E-1,1.1080313E0,2.82E0,-3.612732E-1,2.348436E-2,-1.2698413E-1,3.495725E2,2.4904317E2,1.8417622E0,2.7955978E0,7.4745705E1,2.1295572E1,8.3456075E-1,5.4945055E-2,2.1612349E0,1.4315091E1,-3.6187556E-2,3.4446564E1,3.9336494E1,4.273696E1,-6.666667E-1,1.7136705E-1,3.619632E1,4.99575E1,7.65E-1,4.1666668E1,3.6577183E1,4.030612E1,4.2725E1,3.948212E1,1.983897E-1,7.494733E2,3.815E0,3.285331E0,2.7095E1,1.2634589E1,-8.0465116E-2,1.244503E-1,2.498306E0,2.7502635E-1,5.9187622E1,1.3232758E0,6.892602E1,8.489411E-1,4.09E0,2.7325E0,2.954136E0,4.331E1,-3.4273144E-2,-2.079328E-2,-3.037518E-2,-1.97507E-2,-2.1685308E-2,6.766747E-3,5.4437645E-2,-2.224627E-2,-1.5548997E-3,-1.5409881E-2,-1.2538557E-2,-3.3069656E-3,-8.456942E-3,-3.0401237E-3,-5.771521E-4,4.626591E-2,-1.5866002E-2,-1.1401589E-2,-1.0224935E-2,-6.975966E-3,-6.0397973E-3,-2.1972633E-3,-3.4788183E-3,1.4826243E-7,9.592761E-3,3.230403E-3,2.906323E-3,-1.1709112E-2,7.67789E-3,8.3337765E-4,-6.491035E-3,-1.1149308E-3,4.329444E-2,-7.721877E-3,3.5262245E-3,6.6694864E-3,7.712484E-2,9.741987E-3,3.850333E-2,8.836604E-3,4.3805882E-2,1.6022682E-2,2.6830763E-2,6.8383984E-2,1.4510155E-2,2.0742003E-2,-1.1743125E-2,8.647335E-3,7.32653E-3,4.341396E-2,4.0798755E-3,5.4760374E-2,5.0064664E-2,1.556956E-2,3.534966E-4,6.2727995E-2,4.6355324E-3,9.5682584E-2,3.238207E-2,6.1966687E-2,-2.205546E-2,2.2236E-2],"split_indices":[8,5,5,5,0,8,3,5,0,0,5,0,2,8,7,2,3,0,5,3,5,0,7,3,2,8,7,2,4,3,3,0,8,8,8,4,2,8,0,0,8,8,8,0,3,5,7,0,2,0,7,5,3,2,5,8,5,8,7,0,0,3,0,0,0,0,0,0,0,0,0,0,0,0,0,0,0,0,0,0,0,0,0,0,0,0,0,0,0,0,0,0,0,0,0,0,0,0,0,0,0,0,0,0,0,0,0,0,0,0,0,0,0,0,0,0,0,0,0,0,0,0,0,0,0],"split_type":[0,0,0,0,0,0,0,0,0,0,0,0,0,0,0,0,0,0,0,0,0,0,0,0,0,0,0,0,0,0,0,0,0,0,0,0,0,0,0,0,0,0,0,0,0,0,0,0,0,0,0,0,0,0,0,0,0,0,0,0,0,0,0,0,0,0,0,0,0,0,0,0,0,0,0,0,0,0,0,0,0,0,0,0,0,0,0,0,0,0,0,0,0,0,0,0,0,0,0,0,0,0,0,0,0,0,0,0,0,0,0,0,0,0,0,0,0,0,0,0,0,0,0,0,0],"sum_hessian":[8.1721E4,4.7581E4,3.414E4,8.441E3,3.914E4,3.3525E4,6.15E2,1.854E3,6.587E3,2.041E4,1.873E4,2.2875E4,1.065E4,2.57E2,3.58E2,6.21E2,1.233E3,5.198E3,1.389E3,3.946E3,1.6464E4,7.422E3,1.1308E4,4.806E3,1.8069E4,7.212E3,3.438E3,9.3E1,1.64E2,1.49E2,2.09E2,3.22E2,2.99E2,5.83E2,6.5E2,1.359E3,3.839E3,3.14E2,1.075E3,1.43E2,3.803E3,6.033E3,1.0431E4,6.635E3,7.87E2,1.0012E4,1.296E3,4.78E3,2.6E1,1.3642E4,4.427E3,5.544E3,1.668E3,1.72E2,3.266E3,8.2E1,1.1E1,5.7E1,1.07E2,6E1,8.9E1,1.96E2,1.3E1,2.55E2,4.4E1,4.83E2,1E2,6.34E2,1.6E1,1E0,1.358E3,2.12E2,3.627E3,2.82E2,3.2E1,2.9E2,7.85E2,1.38E2,5E0,2.535E3,1.268E3,3.495E3,2.538E3,4.274E3,6.157E3,2.034E3,4.601E3,3.03E2,4.84E2,9.953E3,5.9E1,1.05E3,2.46E2,1.936E3,2.844E3,2.3E1,3E0,6.829E3,6.813E3,9E0,4.418E3,3.5E1,5.509E3,6.7E1,1.601E3,1.17E2,5.5E1,2.601E3,6.65E2,4.1E1,4.1E1,5E0,6E0,1E1,4.7E1,9E0,9.8E1,1.1E1,4.9E1,1E0,8.8E1,7.8E1,1.18E2,7E0,6E0],"tree_param":{"num_deleted":"0","num_feature":"9","num_nodes":"125","size_leaf_vector":"1"}},{"base_weights":[-1.18032964E-4,-9.983168E-2,1.5025018E-1,-2.9460534E-1,-4.3718137E-2,1.3729557E-1,8.174208E-1,-4.4209242E-1,-2.1666525E-1,-1.2444337E-1,4.291855E-2,9.146756E-2,2.583334E-1,3.6344835E-1,1.1552778E0,-6.6017944E-1,-3.9906424E-1,-2.654686E-1,-6.500309E-2,-2.486575E-1,-9.574518E-2,7.4348217E-3,7.2720736E-2,-4.827015E-2,1.282116E-1,2.272642E-1,3.60229E-1,-1.3367097E-1,4.73519E-1,1.2385309E0,2.1208555E-1,-3.4686744E-2,-6.216271E-1,-5.0014496E-1,-3.3831662E-1,-3.8378143E-1,-2.3222724E-1,-9.267562E-2,3.276953E-2,6.006901E-3,-2.5836885E-1,-1.6264036E-1,-6.3221864E-2,-4.889812E-2,2.5878787E-2,6.379469E-2,1.2972893E-1,-5.4155607E-2,6.232607E-1,1.0543902E-1,1.9768792E-1,1.9365966E-1,3.1738394E-1,1.110287E0,3.3115414E-1,-2.2356598E-1,4.3763703E-1,1.3037562E0,3.8769856E-1,9.514011E-1,1.4932309E0,-4.390568E-1,6.1217093E-1,-3.272831E-2,-1.9879146E-2,-2.6408035E-2,-1.690275E-2,5.2029565E-3,-1.7478343E-2,-1.959329E-2,-5.278545E-3,-7.6782815E-3,-1.28553705E-2,-6.9521475E-3,-2.2674769E-3,5.385248E-2,1.3636929E-3,-2.237551E-3,4.7752347E-2,-1.4410013E-2,-1.0044349E-2,-2.5327245E-2,-7.968296E-3,-6.15723E-3,-2.3920645E-3,-5.1385537E-3,-1.1644021E-3,-1.8091258E-3,1.9956226E-3,1.0365563E-3,3.94374E-3,8.775162E-3,5.150025E-3,-2.9727364E-2,-2.5252989E-3,8.259135E-3,4.4940084E-2,3.7922964E-3,6.843794E-3,4.8909854E-2,9.630702E-3,6.9148266E-3,1.1747264E-2,5.25028E-2,1.5227688E-2,1.3370727E-2,6.9327645E-2,1.4556515E-2,1.9492269E-2,-2.9205441E-2,-5.547425E-3,4.749329E-2,2.1386168E-3,2.1196667E-2,8.724484E-2,3.821575E-2,1.55477915E-2,3.8880676E-2,5.824336E-2,2.7041873E-2,8.04361E-2,-2.759865E-3,-2.344676E-2,7.0076943E-3,4.0962197E-2],"categories":[],"categories_nodes":[],"categories_segments":[],"categories_sizes":[],"default_left":[0,0,0,0,0,0,0,0,0,0,0,0,0,0,0,0,0,0,0,0,0,0,0,0,0,0,0,0,0,0,0,0,0,0,0,0,0,0,0,0,0,0,0,0,0,0,0,0,0,0,0,0,0,0,0,0,0,0,0,0,0,0,0,0,0,0,0,0,0,0,0,0,0,0,0,0,0,0,0,0,0,0,0,0,0,0,0,0,0,0,0,0,0,0,0,0,0,0,0,0,0,0,0,0,0,0,0,0,0,0,0,0,0,0,0,0,0,0,0,0,0,0,0,0,0],"id":2,"left_children":[1,3,5,7,9,11,13,15,17,19,21,23,25,27,29,31,33,35,37,39,41,43,45,47,49,51,53,55,57,59,61,-1,63,65,67,69,71,73,75,77,79,81,83,85,87,89,91,93,95,97,99,101,103,105,107,109,111,113,115,117,119,121,123,-1,-1,-1,-1,-1,-1,-1,-1,-1,-1,-1,-1,-1,-1,-1,-1,-1,-1,-1,-1,-1,-1,-1,-1,-1,-1,-1,-1,-1,-1,-1,-1,-1,-1,-1,-1,-1,-1,-1,-1,-1,-1,-1,-1,-1,-1,-1,-1,-1,-1,-1,-1,-1,-1,-1,-1,-1,-1,-1,-1,-1,-1],"loss_changes":[1.2244358E3,5.366444E2,2.8131024E2,1.2614398E2,2.6661472E2,1.7715619E2,9.467432E1,3.5357788E1,5.3178192E1,7.032236E1,1.9444633E1,1.1897835E2,2.768866E1,1.4618351E1,2.761322E1,3.7597656E-1,1.9314362E1,2.1293915E1,4.74057E0,9.159576E0,3.4869797E1,8.723695E0,5.077244E0,1.9103434E1,2.9006958E1,2.0304718E1,4.429471E1,2.6143696E0,1.5027321E1,2.2420288E1,8.084155E0,0E0,1.9536896E0,5.220764E0,9.91539E0,2.6373596E0,8.2724E0,2.98903E0,2.191626E0,6.642207E0,6.05867E0,5.8245087E0,9.937748E0,2.8549452E0,5.5101857E0,5.6111603E0,1.6360607E0,9.405117E0,5.1527424E0,1.2846573E1,1.7743408E1,1.1169739E1,1.6835815E1,1.7326355E1,4.521179E0,1.6811411E0,1.3751997E0,7.022793E0,5.5139484E0,4.881424E0,1.7938751E1,1.1174512E-1,1.7422776E0,0E0,0E0,0E0,0E0,0E0,0E0,0E0,0E0,0E0,0E0,0E0,0E0,0E0,0E0,0E0,0E0,0E0,0E0,0E0,0E0,0E0,0E0,0E0,0E0,0E0,0E0,0E0,0E0,0E0,0E0,0E0,0E0,0E0,0E0,0E0,0E0,0E0,0E0,0E0,0E0,0E0,0E0,0E0,0E0,0E0,0E0,0E0,0E0,0E0,0E0,0E0,0E0,0E0,0E0,0E0,0E0,0E0,0E0,0E0,0E0,0E0,0E0],"parents":[2147483647,0,0,1,1,2,2,3,3,4,4,5,5,6,6,7,7,8,8,9,9,10,10,11,11,12,12,13,13,14,14,15,15,16,16,17,17,18,18,19,19,20,20,21,21,22,22,23,23,24,24,25,25,26,26,27,27,28,28,29,29,30,30,32,32,33,33,34,34,35,35,36,36,37,37,38,38,39,39,40,40,41,41,42,42,43,43,44,44,45,45,46,46,47,47,48,48,49,49,50,50,51,51,52,52,53,53,54,54,55,55,56,56,57,57,58,58,59,59,60,60,61,61,62,62],"right_children":[2,4,6,8,10,12,14,16,18,20,22,24,26,28,30,32,34,36,38,40,42,44,46,48,50,52,54,56,58,60,62,-1,64,66,68,70,72,74,76,78,80,82,84,86,88,90,92,94,96,98,100,102,104,106,108,110,112,114,116,118,120,122,124,-1,-1,-1,-1,-1,-1,-1,-1,-1,-1,-1,-1,-1,-1,-1,-1,-1,-1,-1,-1,-1,-1,-1,-1,-1,-1,-1,-1,-1,-1,-1,-1,-1,-1,-1,-1,-1,-1,-1,-1,-1,-1,-1,-1,-1,-1,-1,-1,-1,-1,-1,-1,-1,-1,-1,-1,-1,-1,-1,-1,-1,-1],"split_conditions":[4.9390244E1,-2.2137405E-1,7.76E-1,-3.612732E-1,2.7095E1,6.4225586E1,1.472496E0,-7.6722187E-1,3.33E1,3.5725E0,3.799628E1,8.2225E0,2.3541806E0,6.0215054E1,1.1158535E1,2.2700955E-1,3.035E0,2.82E0,3.153825E2,2.348436E-2,3.6577183E1,4.51925E1,2.417475E2,1.4420595E0,2.7955978E0,7.4745705E1,2.5775E1,8.3456075E-1,2.456E3,1.3232758E0,3.3700879E0,-3.4686744E-2,3.4446564E1,3.9336494E1,1.6640814E-1,4.6330276E1,5.441575E4,5.07646E5,2.6896965E1,7.65E-1,4.2592594E1,7.272213E0,-1.2698413E-1,2.7209946E1,6.4733E4,1.01956E5,1.1723931E1,1.025E-1,1.78105E4,5.5588234E1,-2.3E-1,5.6606096E-1,6.653206E-2,2.1064935E0,1.983897E-1,4.2426407E-2,-3.5261193E-1,3.6749357E-1,9.128709E-2,1.4224012E0,1.907779E0,1.3225E1,6.0215054E1,-3.272831E-2,-1.9879146E-2,-2.6408035E-2,-1.690275E-2,5.2029565E-3,-1.7478343E-2,-1.959329E-2,-5.278545E-3,-7.6782815E-3,-1.28553705E-2,-6.9521475E-3,-2.2674769E-3,5.385248E-2,1.3636929E-3,-2.237551E-3,4.7752347E-2,-1.4410013E-2,-1.0044349E-2,-2.5327245E-2,-7.968296E-3,-6.15723E-3,-2.3920645E-3,-5.1385537E-3,-1.1644021E-3,-1.8091258E-3,1.9956226E-3,1.0365563E-3,3.94374E-3,8.775162E-3,5.150025E-3,-2.9727364E-2,-2.5252989E-3,8.259135E-3,4.4940084E-2,3.7922964E-3,6.843794E-3,4.8909854E-2,9.630702E-3,6.9148266E-3,1.1747264E-2,5.25028E-2,1.5227688E-2,1.3370727E-2,6.9327645E-2,1.4556515E-2,1.9492269E-2,-2.9205441E-2,-5.547425E-3,4.749329E-2,2.1386168E-3,2.1196667E-2,8.724484E-2,3.821575E-2,1.55477915E-2,3.8880676E-2,5.824336E-2,2.7041873E-2,8.04361E-2,-2.759865E-3,-2.344676E-2,7.0076943E-3,4.0962197E-2],"split_indices":[8,5,5,5,0,8,3,5,0,0,8,0,2,8,3,2,0,0,0,3,8,0,0,3,2,8,0,2,6,5,2,0,8,8,2,8,6,6,3,0,8,8,5,8,6,6,2,0,6,8,4,2,3,3,5,2,4,3,2,2,3,0,8,0,0,0,0,0,0,0,0,0,0,0,0,0,0,0,0,0,0,0,0,0,0,0,0,0,0,0,0,0,0,0,0,0,0,0,0,0,0,0,0,0,0,0,0,0,0,0,0,0,0,0,0,0,0,0,0,0,0,0,0,0,0],"split_type":[0,0,0,0,0,0,0,0,0,0,0,0,0,0,0,0,0,0,0,0,0,0,0,0,0,0,0,0,0,0,0,0,0,0,0,0,0,0,0,0,0,0,0,0,0,0,0,0,0,0,0,0,0,0,0,0,0,0,0,0,0,0,0,0,0,0,0,0,0,0,0,0,0,0,0,0,0,0,0,0,0,0,0,0,0,0,0,0,0,0,0,0,0,0,0,0,0,0,0,0,0,0,0,0,0,0,0,0,0,0,0,0,0,0,0,0,0,0,0,0,0,0,0,0,0],"sum_hessian":[8.1661E4,4.9101E4,3.256E4,1.0981E4,3.812E4,3.1941E4,6.19E2,3.795E3,7.186E3,1.9733E4,1.8387E4,2.317E4,8.771E3,2.65E2,3.54E2,6.23E2,3.172E3,5.436E3,1.75E3,3.702E3,1.6031E4,8.394E3,9.993E3,4.824E3,1.8346E4,6.724E3,2.047E3,4.8E1,2.17E2,3.25E2,2.9E1,3.24E2,2.99E2,1.188E3,1.984E3,1.19E3,4.246E3,1.364E3,3.86E2,1.36E2,3.566E3,5.243E3,1.0788E4,2.07E3,6.324E3,8.642E3,1.351E3,4.783E3,4.1E1,1.3819E4,4.527E3,4.9E3,1.824E3,7.5E1,1.972E3,4.2E1,6E0,1.9E1,1.98E2,1.55E2,1.7E2,1.1E1,1.8E1,2.59E2,4E1,1.011E3,1.77E2,4.9E1,1.935E3,1.156E3,3.4E1,1.022E3,3.224E3,6.88E2,6.76E2,1E0,3.85E2,1.3E2,6E0,2.345E3,1.221E3,4.8E1,5.195E3,2.202E3,8.586E3,6.66E2,1.404E3,1.166E3,5.158E3,2.242E3,6.4E3,4.96E2,8.55E2,3.1E1,4.752E3,1.6E1,2.5E1,7.12E3,6.699E3,2.8E1,4.499E3,2.095E3,2.805E3,3E1,1.794E3,1.9E1,5.6E1,1.176E3,7.96E2,9E0,3.3E1,2E0,4E0,7E0,1.2E1,3.2E1,1.66E2,8.8E1,6.7E1,1.9E1,1.51E2,1E0,1E1,6E0,1.2E1],"tree_param":{"num_deleted":"0","num_feature":"9","num_nodes":"125","size_leaf_vector":"1"}},{"base_weights":[-7.33675E-4,-1.9116613E-1,7.0974186E-2,-4.0100762E-1,-1.3836592E-1,6.204549E-2,6.231731E-1,-5.483431E-1,-3.4087694E-1,-2.0428234E-1,-2.549696E-2,-6.956296E-2,9.5026605E-2,2.3140757E-1,9.5186615E-1,-6.2560236E-1,-4.6891618E-1,-4.4836393E-1,-2.9977098E-1,-3.1165504E-1,-1.7178886E-1,-8.517264E-2,4.414723E-3,-1.361411E-1,-2.6538203E-2,6.498319E-2,1.9158867E-1,-3.7649828E-1,2.7286425E-1,1.0559465E0,3.100678E-1,-3.2786306E-2,-5.898651E-1,-6.1529833E-1,-4.267432E-1,-5.270508E-1,-4.1958898E-1,1.34774E-2,-3.1100455E-1,-2.073411E-1,-3.30549E-1,-2.2923216E-1,-1.5146147E-1,-1.0729877E-1,3.8195375E-2,-8.313469E-3,1.0680851E-1,-2.0834002E-1,-9.754937E-2,1.13337345E-1,-4.419293E-2,6.6830916E-3,9.406426E-2,1.7810419E-1,3.7574193E-1,-5.7793903E-1,1.9934602E-1,1.5166715E-1,6.0059524E-1,7.763436E-1,1.3185052E0,-1.8199891E-1,6.576027E-1,-2.2747302E-2,-3.1899948E-2,-3.161655E-2,-1.8904204E-2,5.6254487E-2,-2.1603256E-2,-3.297882E-2,-2.512744E-2,5.9952904E-3,-2.162609E-2,1.2818101E-2,-1.9327087E-2,-1.6975043E-2,-8.880957E-3,-1.4913118E-2,-6.684129E-3,-1.7610185E-2,-1.36384955E-2,-6.5221437E-3,-1.2366391E-2,2.2519916E-2,-7.68049E-3,-7.765914E-3,-3.7737645E-3,5.2506167E-2,1.6010784E-3,-2.76406E-3,5.049016E-4,9.429335E-3,2.7875006E-3,2.4118174E-3,-1.1256199E-2,-5.0074053E-3,2.5313148E-2,-2.0496465E-2,7.3709213E-3,-6.094665E-3,-6.5612076E-5,-1.6698585E-3,2.0859102E-3,2.8710756E-3,6.3047516E-3,7.2397576E-3,1.27453795E-2,2.6092982E-2,1.4713031E-2,-3.2107458E-2,1.7656589E-2,7.038169E-2,-2.190111E-2,3.3772606E-3,3.532171E-2,8.543429E-2,2.2294827E-2,5.2933026E-2,2.9955575E-2,8.931863E-2,5.6735475E-2,5.5933893E-3,-2.1529362E-2,5.449587E-2,2.0565784E-2],"categories":[],"categories_nodes":[],"categories_segments":[],"categories_sizes":[],"default_left":[0,0,0,0,0,0,0,0,0,0,0,0,0,0,0,0,0,0,0,0,0,0,0,0,0,0,0,0,0,0,0,0,0,0,0,0,0,0,0,0,0,0,0,0,0,0,0,0,0,0,0,0,0,0,0,0,0,0,0,0,0,0,0,0,0,0,0,0,0,0,0,0,0,0,0,0,0,0,0,0,0,0,0,0,0,0,0,0,0,0,0,0,0,0,0,0,0,0,0,0,0,0,0,0,0,0,0,0,0,0,0,0,0,0,0,0,0,0,0,0,0,0,0,0,0],"id":3,"left_children":[1,3,5,7,9,11,13,15,17,19,21,23,25,27,29,31,33,35,37,39,41,43,45,47,49,51,53,55,57,59,61,-1,63,65,67,69,71,73,75,77,79,81,83,85,87,89,91,93,95,97,99,101,103,105,107,109,111,113,115,117,119,121,123,-1,-1,-1,-1,-1,-1,-1,-1,-1,-1,-1,-1,-1,-1,-1,-1,-1,-1,-1,-1,-1,-1,-1,-1,-1,-1,-1,-1,-1,-1,-1,-1,-1,-1,-1,-1,-1,-1,-1,-1,-1,-1,-1,-1,-1,-1,-1,-1,-1,-1,-1,-1,-1,-1,-1,-1,-1,-1,-1,-1,-1,-1],"loss_changes":[1.1153134E3,2.4748657E2,2.9249783E2,3.9600586E1,1.3281223E2,2.5345384E2,1.213392E2,7.6840515E0,1.3968964E1,3.926651E1,1.175103E1,3.3513996E1,1.3543777E2,1.0989891E1,3.3940247E1,3.194275E-1,3.7192383E0,1.7736359E0,8.139877E0,5.0893097E0,1.00703125E1,6.0038853E0,5.7171082E0,1.2777061E1,1.7560429E1,6.0376984E1,2.744458E1,3.3631678E0,1.5995527E1,3.1351166E1,1.2603437E1,0E0,1.7229385E0,3.3465958E-1,4.648514E0,4.2186737E-1,4.587036E0,7.9689326E0,8.423523E0,2.6657677E0,2.674057E0,4.007843E0,8.337891E0,2.8367462E0,2.059268E0,3.3747983E0,2.0145903E0,6.896744E0,4.750292E0,1.42737255E1,2.1033777E1,1.6645569E1,2.787976E1,2.6376984E1,8.835365E0,1.4822307E0,6.7775683E0,1.3812701E1,1.7922897E1,1.0173431E1,1.7407227E1,2.3127756E0,4.13006E0,0E0,0E0,0E0,0E0,0E0,0E0,0E0,0E0,0E0,0E0,0E0,0E0,0E0,0E0,0E0,0E0,0E0,0E0,0E0,0E0,0E0,0E0,0E0,0E0,0E0,0E0,0E0,0E0,0E0,0E0,0E0,0E0,0E0,0E0,0E0,0E0,0E0,0E0,0E0,0E0,0E0,0E0,0E0,0E0,0E0,0E0,0E0,0E0,0E0,0E0,0E0,0E0,0E0,0E0,0E0,0E0,0E0,0E0,0E0,0E0,0E0,0E0],"parents":[2147483647,0,0,1,1,2,2,3,3,4,4,5,5,6,6,7,7,8,8,9,9,10,10,11,11,12,12,13,13,14,14,15,15,16,16,17,17,18,18,19,19,20,20,21,21,22,22,23,23,24,24,25,25,26,26,27,27,28,28,29,29,30,30,32,32,33,33,34,34,35,35,36,36,37,37,38,38,39,39,40,40,41,41,42,42,43,43,44,44,45,45,46,46,47,47,48,48,49,49,50,50,51,51,52,52,53,53,54,54,55,55,56,56,57,57,58,58,59,59,60,60,61,61,62,62],"right_children":[2,4,6,8,10,12,14,16,18,20,22,24,26,28,30,32,34,36,38,40,42,44,46,48,50,52,54,56,58,60,62,-1,64,66,68,70,72,74,76,78,80,82,84,86,88,90,92,94,96,98,100,102,104,106,108,110,112,114,116,118,120,122,124,-1,-1,-1,-1,-1,-1,-1,-1,-1,-1,-1,-1,-1,-1,-1,-1,-1,-1,-1,-1,-1,-1,-1,-1,-1,-1,-1,-1,-1,-1,-1,-1,-1,-1,-1,-1,-1,-1,-1,-1,-1,-1,-1,-1,-1,-1,-1,-1,-1,-1,-1,-1,-1,-1,-1,-1,-1,-1,-1,-1,-1,-1],"split_conditions":[-1.2698413E-1,-3.39381E-1,6.053459E-1,-5.524957E-1,2.8695E1,8.37E0,1.4880483E0,-7.6722187E-1,3.2608333E0,3.5675E0,-2.1783182E-1,-1.7857144E-2,9.744409E-2,2.325E-1,2.97375E1,2.3230727E-1,1.6478406E-1,-4.7016585E-1,1.7136705E-1,5.184E3,-2.5E-1,3.325075E2,3.495725E2,3.2775E0,8.9747116E-2,2.7095E1,3.8356164E-1,1.1117E4,1.3232758E0,2.7550097E0,4.1231055E0,-3.2786306E-2,8.431666E0,4.1666666E-1,2.2173557E-2,1.7833333E-1,-4.5454547E-1,1.4586575E5,3.9065E1,-6.550218E-2,-1.7333333E-1,2.331175E4,-3.5261193E-1,4.21225E1,2.6896965E1,9.171575E4,3.948212E1,2.348436E-2,1.4420595E0,1.7833333E-1,3.95E0,-2.8442759E-2,-1.9280074E-2,2.4441683E0,1.268325E5,8.301606E-2,2.6457513E-2,6.4383335E0,2.456E3,8.37E0,7.0416665E0,1.3232758E0,4.21225E1,-2.2747302E-2,-3.1899948E-2,-3.161655E-2,-1.8904204E-2,5.6254487E-2,-2.1603256E-2,-3.297882E-2,-2.512744E-2,5.9952904E-3,-2.162609E-2,1.2818101E-2,-1.9327087E-2,-1.6975043E-2,-8.880957E-3,-1.4913118E-2,-6.684129E-3,-1.7610185E-2,-1.36384955E-2,-6.5221437E-3,-1.2366391E-2,2.2519916E-2,-7.68049E-3,-7.765914E-3,-3.7737645E-3,5.2506167E-2,1.6010784E-3,-2.76406E-3,5.049016E-4,9.429335E-3,2.7875006E-3,2.4118174E-3,-1.1256199E-2,-5.0074053E-3,2.5313148E-2,-2.0496465E-2,7.3709213E-3,-6.094665E-3,-6.5612076E-5,-1.6698585E-3,2.0859102E-3,2.8710756E-3,6.3047516E-3,7.2397576E-3,1.27453795E-2,2.6092982E-2,1.4713031E-2,-3.2107458E-2,1.7656589E-2,7.038169E-2,-2.190111E-2,3.3772606E-3,3.532171E-2,8.543429E-2,2.2294827E-2,5.2933026E-2,2.9955575E-2,8.931863E-2,5.6735475E-2,5.5933893E-3,-2.1529362E-2,5.449587E-2,2.0565784E-2],"split_indices":[5,5,5,5,1,0,3,5,1,1,5,5,5,0,0,2,3,5,2,6,5,0,0,0,3,0,5,6,5,3,2,0,1,4,2,1,4,6,0,4,5,6,4,0,3,6,3,3,3,1,0,5,5,2,6,2,2,1,6,0,1,5,0,0,0,0,0,0,0,0,0,0,0,0,0,0,0,0,0,0,0,0,0,0,0,0,0,0,0,0,0,0,0,0,0,0,0,0,0,0,0,0,0,0,0,0,0,0,0,0,0,0,0,0,0,0,0,0,0,0,0,0,0,0,0],"split_type":[0,0,0,0,0,0,0,0,0,0,0,0,0,0,0,0,0,0,0,0,0,0,0,0,0,0,0,0,0,0,0,0,0,0,0,0,0,0,0,0,0,0,0,0,0,0,0,0,0,0,0,0,0,0,0,0,0,0,0,0,0,0,0,0,0,0,0,0,0,0,0,0,0,0,0,0,0,0,0,0,0,0,0,0,0,0,0,0,0,0,0,0,0,0,0,0,0,0,0,0,0,0,0,0,0,0,0,0,0,0,0,0,0,0,0,0,0,0,0,0,0,0,0,0,0],"sum_hessian":[8.1673E4,2.2341E4,5.9332E4,4.49E3,1.7851E4,5.8389E4,9.43E2,1.299E3,3.191E3,1.1269E4,6.582E3,1.17E4,4.6689E4,4.31E2,5.12E2,6.55E2,6.44E2,8.8E2,2.311E3,2.616E3,8.653E3,2.197E3,4.385E3,4.592E3,7.108E3,3.5611E4,1.1078E4,2.7E1,4.04E2,4.4E2,7.2E1,3.46E2,3.09E2,1.41E2,5.03E2,2.31E2,6.49E2,8E1,2.231E3,4.03E2,2.213E3,2.259E3,6.394E3,1.863E3,3.34E2,3.901E3,4.84E2,1.598E3,2.994E3,7.96E2,6.312E3,1.1852E4,2.3759E4,1.0324E4,7.54E2,2E1,7E0,2.96E2,1.08E2,2.15E2,2.25E2,3E1,4.2E1,8.4E1,2.25E2,1.3E2,1.1E1,1E0,5.02E2,3.2E1,1.99E2,1.5E1,6.34E2,5E1,3E1,1.837E3,3.94E2,1.79E2,2.24E2,1.606E3,6.07E2,3.51E2,1.908E3,2.2E1,6.372E3,7.41E2,1.122E3,1E0,3.33E2,1.098E3,2.803E3,1.85E2,2.99E2,9.8E1,1.5E3,2.982E3,1.2E1,4.8E1,7.48E2,2.244E3,4.068E3,5.528E3,6.324E3,1.1083E4,1.2676E4,7.203E3,3.121E3,2.68E2,4.86E2,1.9E1,1E0,2E0,5E0,2.58E2,3.8E1,1.2E1,9.6E1,8.1E1,1.34E2,6.1E1,1.64E2,1.4E1,1.6E1,1.4E1,2.8E1],"tree_param":{"num_deleted":"0","num_feature":"9","num_nodes":"125","size_leaf_vector":"1"}},{"base_weights":[-2.7842632E-5,-9.132569E-2,1.3735957E-1,-2.331911E-1,-3.4258526E-2,8.519412E-2,2.69219E-1,-3.1407574E-1,-1.7026049E-1,-1.0246357E-1,1.5509141E-2,-3.8322702E-2,1.17905974E-1,2.5975242E-1,9.064642E-1,-4.5334777E-1,-2.7480578E-1,-2.2669807E-1,-1.0787317E-1,-1.9058648E-1,-4.940483E-2,-5.071811E-1,2.0985933E-2,-4.5279846E-2,4.0957886E-1,6.2208736E-1,1.1460587E-1,1.4985667E0,2.559075E-1,3.5678396E-1,1.3414513E0,-6.064009E-1,-4.19997E-1,-3.1219628E-1,-1.7854609E-1,-1.3047968E-1,-2.636371E-1,-5.533891E-2,-1.3382648E-1,-1.4239669E-1,-2.3889878E-1,-9.5948935E-2,-2.8267307E-2,-2.9041583E-2,-3.261103E-1,-5.5631295E-2,4.449184E-2,-5.7549393E-1,-4.061354E-2,6.1443424E-1,2.1496952E-1,7.541611E-1,6.2369153E-2,8.604572E-2,1.6519696E-1,6.02243E-1,1.6228606E0,3.2385087E-1,2.1204102E-1,6.679074E-2,6.5421724E-1,3.9224173E-3,1.3749795E0,-3.1525444E-2,-1.8692628E-2,-2.355103E-2,-1.3307762E-2,-1.8216208E-2,-1.379796E-2,-2.3076255E-3,-1.0652826E-2,-1.2178204E-2,-4.2020087E-3,-1.048497E-2,-1.6556729E-2,-1.7299446E-3,-9.5566735E-3,-6.9892253E-3,8.796186E-3,-2.7530704E-2,-6.629097E-3,-1.397679E-2,-9.802061E-3,-1.27995685E-2,-4.293884E-3,3.6304887E-2,-1.5264279E-3,-1.7479522E-2,-6.049271E-3,-7.0018372E-3,-1.6622179E-3,1.1259557E-3,3.6081218E-3,-3.3756193E-2,2.6988566E-2,-4.569533E-3,-1.9597216E-4,-2.2163966E-3,4.1783173E-2,5.1158643E-3,4.1813966E-2,-4.8577725E-3,4.1072708E-2,-2.971681E-3,2.685532E-2,2.8726645E-3,5.8117597E-3,4.350015E-2,8.050009E-3,5.048672E-2,1.239683E-2,8.642245E-2,4.379674E-2,1.4090167E-2,2.2088865E-2,8.698384E-3,1.4116408E-2,3.38648E-2,-3.5675415E-3,4.592341E-2,-3.22102E-3,6.991126E-2,-7.467528E-3],"categories":[],"categories_nodes":[],"categories_segments":[],"categories_sizes":[],"default_left":[0,0,0,0,0,0,0,0,0,0,0,0,0,0,0,0,0,0,0,0,0,0,0,0,0,0,0,0,0,0,0,0,0,0,0,0,0,0,0,0,0,0,0,0,0,0,0,0,0,0,0,0,0,0,0,0,0,0,0,0,0,0,0,0,0,0,0,0,0,0,0,0,0,0,0,0,0,0,0,0,0,0,0,0,0,0,0,0,0,0,0,0,0,0,0,0,0,0,0,0,0,0,0,0,0,0,0,0,0,0,0,0,0,0,0,0,0,0,0,0,0,0,0],"id":4,"left_children":[1,3,5,7,9,11,13,15,17,19,21,23,25,27,29,31,33,35,37,39,41,43,45,47,49,51,53,55,57,59,61,63,65,67,69,71,73,75,77,79,81,83,85,-1,87,89,91,93,95,97,99,101,103,105,107,109,111,113,115,117,119,-1,121,-1,-1,-1,-1,-1,-1,-1,-1,-1,-1,-1,-1,-1,-1,-1,-1,-1,-1,-1,-1,-1,-1,-1,-1,-1,-1,-1,-1,-1,-1,-1,-1,-1,-1,-1,-1,-1,-1,-1,-1,-1,-1,-1,-1,-1,-1,-1,-1,-1,-1,-1,-1,-1,-1,-1,-1,-1,-1,-1,-1],"loss_changes":[1.0252792E3,3.9755536E2,2.2444336E2,7.1651E1,1.18877075E2,9.448671E1,5.556549E1,3.3582153E1,2.787938E1,6.9069244E1,5.79739E1,1.5278158E1,3.0690002E1,4.3037354E1,3.1800415E1,6.656708E0,1.725644E1,1.4751129E1,5.1273003E0,1.2891937E1,9.071125E0,2.6111374E0,3.6091858E1,1.1909408E1,2.8579235E0,8.823849E0,2.6526947E1,2.1420517E0,2.7020569E1,5.2177763E0,3.0681E0,1.1097794E0,8.626877E0,6.440918E0,6.149124E0,6.0503616E0,1.0870728E1,3.505415E0,4.6752434E0,1.1073242E1,4.771179E0,4.620079E0,1.0843814E1,0E0,2.6113558E-1,8.885816E0,9.322033E0,5.031193E0,8.909562E0,5.2835903E0,2.714111E0,5.6367073E0,1.4197056E0,1.0129768E1,1.9462082E1,4.7153378E-1,3.78788E-1,1.7547638E1,1.47388E1,2.747082E0,5.7561884E0,0E0,2.7955017E0,0E0,0E0,0E0,0E0,0E0,0E0,0E0,0E0,0E0,0E0,0E0,0E0,0E0,0E0,0E0,0E0,0E0,0E0,0E0,0E0,0E0,0E0,0E0,0E0,0E0,0E0,0E0,0E0,0E0,0E0,0E0,0E0,0E0,0E0,0E0,0E0,0E0,0E0,0E0,0E0,0E0,0E0,0E0,0E0,0E0,0E0,0E0,0E0,0E0,0E0,0E0,0E0,0E0,0E0,0E0,0E0,0E0,0E0,0E0,0E0],"parents":[2147483647,0,0,1,1,2,2,3,3,4,4,5,5,6,6,7,7,8,8,9,9,10,10,11,11,12,12,13,13,14,14,15,15,16,16,17,17,18,18,19,19,20,20,21,21,22,22,23,23,24,24,25,25,26,26,27,27,28,28,29,29,30,30,31,31,32,32,33,33,34,34,35,35,36,36,37,37,38,38,39,39,40,40,41,41,42,42,44,44,45,45,46,46,47,47,48,48,49,49,50,50,51,51,52,52,53,53,54,54,55,55,56,56,57,57,58,58,59,59,60,60,62,62],"right_children":[2,4,6,8,10,12,14,16,18,20,22,24,26,28,30,32,34,36,38,40,42,44,46,48,50,52,54,56,58,60,62,64,66,68,70,72,74,76,78,80,82,84,86,-1,88,90,92,94,96,98,100,102,104,106,108,110,112,114,116,118,120,-1,122,-1,-1,-1,-1,-1,-1,-1,-1,-1,-1,-1,-1,-1,-1,-1,-1,-1,-1,-1,-1,-1,-1,-1,-1,-1,-1,-1,-1,-1,-1,-1,-1,-1,-1,-1,-1,-1,-1,-1,-1,-1,-1,-1,-1,-1,-1,-1,-1,-1,-1,-1,-1,-1,-1,-1,-1,-1,-1,-1,-1],"split_conditions":[4.9390244E1,8.37E0,6.4225586E1,3.14E0,3.0255E1,8.2225E0,6E-1,-1.7258383E-1,3.799628E1,3.5227272E1,-3.5261193E-1,1.2325685E0,-2.1034482E-1,-2.1034482E-1,2.311384E0,3.1E-1,4.1666668E1,4.7569E4,1.9687136E-1,7.1909666E-1,4.030612E1,-6.666667E-1,2.9219988E1,1.025E-1,5.9748125E0,4.280392E6,1.7982769E0,3.6975E0,4.6448725E5,5.4310834E-1,1.0785948E0,-2.423756E-1,3.9336494E1,1.4625E0,4.2426407E-2,4.39575E3,3.260368E-1,7.308948E0,1.5028279E0,7.272213E0,2.8409779E1,-1.9512194E-1,-3.5261193E-1,-2.9041583E-2,4.0144073E1,4.331E1,4.1823055E1,5.8954376E1,3.8508334E0,5.2487644E1,7.7816668E0,3.397E3,5.6173912E1,5.5588234E1,1.3545686E1,2.2775E0,1.49425E1,7.4745705E1,1.3836546E0,3.975E-1,1.969865E5,3.9224173E-3,3.401E1,-3.1525444E-2,-1.8692628E-2,-2.355103E-2,-1.3307762E-2,-1.8216208E-2,-1.379796E-2,-2.3076255E-3,-1.0652826E-2,-1.2178204E-2,-4.2020087E-3,-1.048497E-2,-1.6556729E-2,-1.7299446E-3,-9.5566735E-3,-6.9892253E-3,8.796186E-3,-2.7530704E-2,-6.629097E-3,-1.397679E-2,-9.802061E-3,-1.27995685E-2,-4.293884E-3,3.6304887E-2,-1.5264279E-3,-1.7479522E-2,-6.049271E-3,-7.0018372E-3,-1.6622179E-3,1.1259557E-3,3.6081218E-3,-3.3756193E-2,2.6988566E-2,-4.569533E-3,-1.9597216E-4,-2.2163966E-3,4.1783173E-2,5.1158643E-3,4.1813966E-2,-4.8577725E-3,4.1072708E-2,-2.971681E-3,2.685532E-2,2.8726645E-3,5.8117597E-3,4.350015E-2,8.050009E-3,5.048672E-2,1.239683E-2,8.642245E-2,4.379674E-2,1.4090167E-2,2.2088865E-2,8.698384E-3,1.4116408E-2,3.38648E-2,-3.5675415E-3,4.592341E-2,-3.22102E-3,6.991126E-2,-7.467528E-3],"split_indices":[8,0,8,0,0,0,4,4,8,8,4,2,4,4,7,1,8,6,2,2,8,4,8,0,7,6,2,0,6,2,2,4,8,0,2,6,2,7,2,8,8,4,4,0,8,0,8,8,1,8,1,6,8,8,7,0,0,8,2,0,6,0,0,0,0,0,0,0,0,0,0,0,0,0,0,0,0,0,0,0,0,0,0,0,0,0,0,0,0,0,0,0,0,0,0,0,0,0,0,0,0,0,0,0,0,0,0,0,0,0,0,0,0,0,0,0,0,0,0,0,0,0,0],"split_type":[0,0,0,0,0,0,0,0,0,0,0,0,0,0,0,0,0,0,0,0,0,0,0,0,0,0,0,0,0,0,0,0,0,0,0,0,0,0,0,0,0,0,0,0,0,0,0,0,0,0,0,0,0,0,0,0,0,0,0,0,0,0,0,0,0,0,0,0,0,0,0,0,0,0,0,0,0,0,0,0,0,0,0,0,0,0,0,0,0,0,0,0,0,0,0,0,0,0,0,0,0,0,0,0,0,0,0,0,0,0,0,0,0,0,0,0,0,0,0,0,0,0,0],"sum_hessian":[8.1738E4,4.9106E4,3.2632E4,1.4086E4,3.502E4,2.3383E4,9.249E3,6.162E3,7.924E3,1.4773E4,2.0247E4,4.896E3,1.8487E4,9.115E3,1.34E2,1.353E3,4.809E3,4.159E3,3.765E3,5.551E3,9.222E3,2.09E2,2.0038E4,4.822E3,7.4E1,1.19E2,1.8368E4,2.7E1,9.088E3,6E1,7.4E1,2.39E2,1.114E3,3.462E3,1.347E3,1.155E3,3.004E3,1.246E3,2.519E3,2.781E3,2.77E3,2.879E3,6.343E3,1.47E2,6.2E1,4.704E3,1.5334E4,4.1E1,4.781E3,3.5E1,3.9E1,9.6E1,2.3E1,1.1742E4,6.626E3,4E0,2.3E1,3.563E3,5.525E3,3.1E1,2.9E1,2E0,7.2E1,2.15E2,2.4E1,8.35E2,2.79E2,1.416E3,2.046E3,2.79E2,1.068E3,3.35E2,8.2E2,1.672E3,1.332E3,1.082E3,1.64E2,2.472E3,4.7E1,6.4E1,2.717E3,1.419E3,1.351E3,1.69E2,2.71E3,1.8E1,6.325E3,5.5E1,7E0,9.85E2,3.719E3,8.548E3,6.786E3,3.8E1,3E0,2.005E3,2.776E3,9E0,2.6E1,3.4E1,5E0,7E0,8.9E1,1.9E1,4E0,6.032E3,5.71E3,3.8E1,6.588E3,1E0,3E0,1.9E1,4E0,2.629E3,9.34E2,3.586E3,1.939E3,5E0,2.6E1,2.1E1,8E0,7.1E1,1E0],"tree_param":{"num_deleted":"0","num_feature":"9","num_nodes":"123","size_leaf_vector":"1"}},{"base_weights":[4.5685476E-4,-1.7166308E-1,6.540952E-2,-3.6439532E-1,-1.2318757E-1,5.6938164E-2,5.7813096E-1,-4.776513E-1,-3.0121428E-1,-1.8270105E-1,-2.1918751E-2,-6.1390467E-2,8.648172E-2,1.9281478E-1,8.8415927E-1,-5.7166916E-1,-4.1528767E-1,-4.1423607E-1,-2.5996852E-1,-2.8145596E-1,-1.5324695E-1,-3.7046626E-2,7.618935E-2,-1.2165267E-1,-2.2942364E-2,6.463687E-2,1.9288792E-1,-3.757155E-1,2.3661283E-1,1.0158843E0,3.6946785E-1,-3.0033216E-2,-5.4051167E-1,-5.971542E-1,-3.9784086E-1,-3.553744E-1,-4.5097306E-1,5.1386658E-2,-2.725213E-1,-1.7596863E-1,-3.0044135E-1,-1.9566856E-1,-1.3358308E-1,-9.822595E-2,-9.7985575E-3,1.7970106E-1,3.0936776E-2,-1.8678263E-1,-8.254102E-2,1.20913275E-1,-4.0560666E-2,1.2622594E-2,9.05912E-2,1.7276968E-1,3.3635992E-1,-5.466291E-1,1.02809794E-1,1.0051929E0,1.8019274E-1,8.3283633E-1,1.5692996E0,5.084844E-1,-2.8848165E-1,-2.9206282E-2,-2.3689726E-2,-2.073649E-2,-3.1407867E-2,3.0592237E-2,-2.0040363E-2,-1.9993074E-2,-1.0547544E-2,-2.4129992E-2,-2.051994E-2,1.31779285E-2,-1.7639017E-2,-1.4986283E-2,-7.157316E-3,-3.918979E-3,-1.1560179E-2,-1.6170708E-2,-1.20656155E-2,-3.6898353E-3,-1.0953468E-2,-6.7907325E-3,8.7651005E-3,-6.7844526E-3,-3.7088988E-3,-3.0231148E-3,4.418674E-4,2.4879263E-3,1.3261007E-2,1.2721793E-3,1.9960264E-2,2.0332083E-3,-1.0004783E-2,-2.6744853E-3,-7.743562E-3,-1.9882426E-3,1.0729341E-2,-5.741323E-3,-1.2397974E-4,-1.374287E-3,2.1274376E-3,2.7079731E-3,6.038102E-3,6.1117955E-3,1.13364E-2,2.4511402E-2,1.3486594E-2,-3.0149192E-2,1.7329413E-2,6.754737E-2,-2.2339676E-2,1.5256599E-2,8.167271E-2,2.9308716E-2,6.6801608E-3,5.7505425E-2,2.9797135E-2,8.413973E-2,2.2322614E-2,7.4610144E-2,1.919189E-2,1.5921772E-2,-2.3005657E-2],"categories":[],"categories_nodes":[],"categories_segments":[],"categories_sizes":[],"default_left":[0,0,0,0,0,0,0,0,0,0,0,0,0,0,0,0,0,0,0,0,0,0,0,0,0,0,0,0,0,0,0,0,0,0,0,0,0,0,0,0,0,0,0,0,0,0,0,0,0,0,0,0,0,0,0,0,0,0,0,0,0,0,0,0,0,0,0,0,0,0,0,0,0,0,0,0,0,0,0,0,0,0,0,0,0,0,0,0,0,0,0,0,0,0,0,0,0,0,0,0,0,0,0,0,0,0,0,0,0,0,0,0,0,0,0,0,0,0,0,0,0,0,0,0,0],"id":5,"left_children":[1,3,5,7,9,11,13,15,17,19,21,23,25,27,29,31,33,35,37,39,41,43,45,47,49,51,53,55,57,59,61,-1,63,65,67,69,71,73,75,77,79,81,83,85,87,89,91,93,95,97,99,101,103,105,107,109,111,113,115,117,119,121,123,-1,-1,-1,-1,-1,-1,-1,-1,-1,-1,-1,-1,-1,-1,-1,-1,-1,-1,-1,-1,-1,-1,-1,-1,-1,-1,-1,-1,-1,-1,-1,-1,-1,-1,-1,-1,-1,-1,-1,-1,-1,-1,-1,-1,-1,-1,-1,-1,-1,-1,-1,-1,-1,-1,-1,-1,-1,-1,-1,-1,-1,-1],"loss_changes":[9.1337726E2,2.090841E2,2.5760284E2,3.2042114E1,1.0779846E2,2.039986E2,1.1350214E2,9.196655E0,1.3364532E1,3.2726715E1,9.830978E0,2.7010735E1,1.0852664E2,1.0746319E1,3.6032043E1,2.5260925E-1,2.843399E0,1.5069427E0,8.299744E0,5.128174E0,7.214493E0,9.564388E0,4.1399317E0,1.1552048E1,1.8047953E1,5.2301727E1,2.289746E1,2.591579E0,1.7077484E1,4.194879E1,1.0299397E1,0E0,6.485596E-1,2.0890999E-1,2.9079285E0,1.8495674E0,4.0634155E-1,7.210468E0,7.129959E0,2.1218395E0,2.8981476E0,7.8180084E0,4.114128E0,1.5827465E0,3.749812E0,2.9760828E0,1.2380147E0,5.1648293E0,5.9572716E0,1.1703385E1,1.7938484E1,1.5482485E1,2.8402786E1,1.8996613E1,9.883911E0,1.3667407E0,6.7774205E0,1.1376757E1,6.957876E0,2.3591217E1,1.2629639E1,1.0708023E1,2.2298381E0,0E0,0E0,0E0,0E0,0E0,0E0,0E0,0E0,0E0,0E0,0E0,0E0,0E0,0E0,0E0,0E0,0E0,0E0,0E0,0E0,0E0,0E0,0E0,0E0,0E0,0E0,0E0,0E0,0E0,0E0,0E0,0E0,0E0,0E0,0E0,0E0,0E0,0E0,0E0,0E0,0E0,0E0,0E0,0E0,0E0,0E0,0E0,0E0,0E0,0E0,0E0,0E0,0E0,0E0,0E0,0E0,0E0,0E0,0E0,0E0,0E0,0E0],"parents":[2147483647,0,0,1,1,2,2,3,3,4,4,5,5,6,6,7,7,8,8,9,9,10,10,11,11,12,12,13,13,14,14,15,15,16,16,17,17,18,18,19,19,20,20,21,21,22,22,23,23,24,24,25,25,26,26,27,27,28,28,29,29,30,30,32,32,33,33,34,34,35,35,36,36,37,37,38,38,39,39,40,40,41,41,42,42,43,43,44,44,45,45,46,46,47,47,48,48,49,49,50,50,51,51,52,52,53,53,54,54,55,55,56,56,57,57,58,58,59,59,60,60,61,61,62,62],"right_children":[2,4,6,8,10,12,14,16,18,20,22,24,26,28,30,32,34,36,38,40,42,44,46,48,50,52,54,56,58,60,62,-1,64,66,68,70,72,74,76,78,80,82,84,86,88,90,92,94,96,98,100,102,104,106,108,110,112,114,116,118,120,122,124,-1,-1,-1,-1,-1,-1,-1,-1,-1,-1,-1,-1,-1,-1,-1,-1,-1,-1,-1,-1,-1,-1,-1,-1,-1,-1,-1,-1,-1,-1,-1,-1,-1,-1,-1,-1,-1,-1,-1,-1,-1,-1,-1,-1,-1,-1,-1,-1,-1,-1,-1,-1,-1,-1,-1,-1,-1,-1,-1,-1,-1,-1],"split_conditions":[-1.2698413E-1,-3.39381E-1,6.053459E-1,-5.0091743E-1,2.8695E1,8.37E0,1.4880483E0,-7.6722187E-1,2.7325E0,3.5675E0,3.325075E2,-1.7857144E-2,1.337386E-1,2.325E-1,6.2010455E0,-8.901099E-1,1.7833333E-1,2.5572E4,1.7136705E-1,5.184E3,-2.3682846E-1,-2.2137405E-1,3.948212E1,3.5725E0,8.9747116E-2,2.7095E1,3.548387E-1,1.1117E4,2.456E3,3.519207E0,8.416237E6,-3.0033216E-2,1.6824442E0,2.348436E-2,1.8669751E-1,1.6114175E-1,1.9916667E0,1.4586575E5,4.914356E1,1.2682002E0,-1.7333333E-1,2.331175E4,3.0251985E0,4.21225E1,7.888075E4,2.1071E5,1.3000092E7,2.348436E-2,7.185395E0,1.276125E4,3.815E0,-2.8442759E-2,-1.5384615E-2,1.3661747E0,9.48715E4,8.301606E-2,2.348436E-2,1.3232758E0,7.852813E-2,7.8756814E0,4.431441E0,1.2338333E1,7.76E-1,-2.9206282E-2,-2.3689726E-2,-2.073649E-2,-3.1407867E-2,3.0592237E-2,-2.0040363E-2,-1.9993074E-2,-1.0547544E-2,-2.4129992E-2,-2.051994E-2,1.31779285E-2,-1.7639017E-2,-1.4986283E-2,-7.157316E-3,-3.918979E-3,-1.1560179E-2,-1.6170708E-2,-1.20656155E-2,-3.6898353E-3,-1.0953468E-2,-6.7907325E-3,8.7651005E-3,-6.7844526E-3,-3.7088988E-3,-3.0231148E-3,4.418674E-4,2.4879263E-3,1.3261007E-2,1.2721793E-3,1.9960264E-2,2.0332083E-3,-1.0004783E-2,-2.6744853E-3,-7.743562E-3,-1.9882426E-3,1.0729341E-2,-5.741323E-3,-1.2397974E-4,-1.374287E-3,2.1274376E-3,2.7079731E-3,6.038102E-3,6.1117955E-3,1.13364E-2,2.4511402E-2,1.3486594E-2,-3.0149192E-2,1.7329413E-2,6.754737E-2,-2.2339676E-2,1.5256599E-2,8.167271E-2,2.9308716E-2,6.6801608E-3,5.7505425E-2,2.9797135E-2,8.413973E-2,2.2322614E-2,7.4610144E-2,1.919189E-2,1.5921772E-2,-2.3005657E-2],"split_indices":[5,5,5,5,1,0,3,5,0,1,0,5,5,0,3,5,1,6,2,6,5,5,3,0,3,0,5,6,6,3,6,0,7,3,7,2,1,6,7,7,5,6,2,0,6,6,6,3,7,6,0,5,5,2,6,2,3,5,2,7,2,1,5,0,0,0,0,0,0,0,0,0,0,0,0,0,0,0,0,0,0,0,0,0,0,0,0,0,0,0,0,0,0,0,0,0,0,0,0,0,0,0,0,0,0,0,0,0,0,0,0,0,0,0,0,0,0,0,0,0,0,0,0,0,0],"split_type":[0,0,0,0,0,0,0,0,0,0,0,0,0,0,0,0,0,0,0,0,0,0,0,0,0,0,0,0,0,0,0,0,0,0,0,0,0,0,0,0,0,0,0,0,0,0,0,0,0,0,0,0,0,0,0,0,0,0,0,0,0,0,0,0,0,0,0,0,0,0,0,0,0,0,0,0,0,0,0,0,0,0,0,0,0,0,0,0,0,0,0,0,0,0,0,0,0,0,0,0,0,0,0,0,0,0,0,0,0,0,0,0,0,0,0,0,0,0,0,0,0,0,0,0,0],"sum_hessian":[8.1698E4,2.2383E4,5.9315E4,4.497E3,1.7886E4,5.8352E4,9.63E2,1.608E3,2.889E3,1.1265E4,6.621E3,1.1658E4,4.6694E4,4.27E2,5.36E2,6.38E2,9.7E2,7.7E2,2.119E3,2.586E3,8.679E3,5.737E3,8.84E2,4.54E3,7.118E3,3.8742E4,7.952E3,3E1,3.97E2,4.26E2,1.1E2,3.21E2,3.17E2,8.2E1,8.88E2,3E2,4.7E2,8.2E1,2.037E3,3.96E2,2.19E3,2.746E3,5.933E3,1.767E3,3.97E3,2.68E2,6.16E2,1.702E3,2.838E3,7.76E2,6.342E3,1.2897E4,2.5845E4,6.976E3,9.76E2,2.2E1,8E0,2.6E1,3.71E2,3.22E2,1.04E2,9.1E1,1.9E1,1.87E2,1.3E2,1.4E1,6.8E1,2E0,8.86E2,2.28E2,7.2E1,2.58E2,2.12E2,5.4E1,2.8E1,1.682E3,3.55E2,1.44E2,2.52E2,1.574E3,6.16E2,4.43E2,2.303E3,5.891E3,4.2E1,6.89E2,1.078E3,1.067E3,2.903E3,1.07E2,1.61E2,6.08E2,8E0,9.4E1,1.608E3,2.026E3,8.12E2,2.86E2,4.9E2,2.149E3,4.193E3,5.511E3,7.386E3,1.1709E4,1.4136E4,3.604E3,3.372E3,2.93E2,6.83E2,2.1E1,1E0,2E0,6E0,1.3E1,1.3E1,3.7E1,3.34E2,1.36E2,1.86E2,9.4E1,1E1,9E0,8.2E1,4E0,1.5E1],"tree_param":{"num_deleted":"0","num_feature":"9","num_nodes":"125","size_leaf_vector":"1"}},{"base_weights":[2.7352291E-5,-8.854416E-2,1.1918506E-1,-2.7882427E-1,-4.8592832E-2,7.2658345E-2,2.47236E-1,-4.3948188E-1,-2.3105413E-1,-1.1541874E-1,2.5822949E-2,-4.1465554E-2,1.03291035E-1,2.2660744E-1,9.5640314E-1,-5.4156584E-1,-3.865887E-1,-2.61515E-1,-7.785484E-2,-2.1881515E-1,-9.154483E-2,-1.1848715E-2,4.771945E-2,-4.833006E-2,3.2324862E-1,7.810808E-2,1.5152003E-1,2.1332288E-1,4.8088473E-1,3.030014E-1,1.132556E0,-5.437911E-1,-2.648737E-1,-4.4879055E-1,-3.2446575E-1,-3.4702176E-1,-2.3304051E-1,-1.5585189E-1,-5.7125214E-2,-7.376678E-2,-2.3330711E-1,-1.3578248E-1,-5.1929884E-2,-2.410661E-2,8.7791815E-2,3.988603E-2,1.03104204E-1,-5.5767125E-1,-4.455086E-2,2.0027745E-1,6.841511E-1,1.10907555E-1,5.7928108E-2,9.581473E-1,1.4549851E-1,1.8907395E-1,3.0110034E-1,2.0478998E-1,6.768573E-1,8.4481215E-1,1.2372067E-1,1.2322435E0,-2.2110414E-2,-2.844778E-2,-2.577669E-2,-1.8355753E-2,-4.8206984E-3,-2.370308E-2,-1.5965246E-2,-1.7040536E-3,-1.8499758E-2,-1.852197E-2,-9.936678E-3,-6.764505E-3,-1.2690573E-2,-8.464604E-3,3.4555835E-3,-3.0943672E-3,1.3513468E-2,2.220385E-2,-5.081023E-3,-1.4400752E-2,-1.0359993E-2,-8.747322E-3,-5.3456733E-3,-2.6313176E-3,5.880783E-2,-3.3952754E-3,-2.0395049E-4,-2.656781E-4,5.222907E-3,1.3567285E-4,2.7820491E-3,6.222134E-3,3.096055E-4,-3.1431854E-2,2.5173211E-2,-1.184818E-3,-5.762262E-3,-8.712244E-3,1.476148E-2,7.150408E-3,4.651972E-2,3.6089823E-3,8.269224E-3,5.7734194E-4,5.236937E-3,2.9141506E-2,7.553737E-2,5.907938E-3,9.943926E-3,2.5322078E-2,9.087552E-3,5.964116E-2,1.3836979E-2,3.7585728E-2,7.98038E-3,3.834314E-2,1.5017859E-2,5.429541E-2,9.682889E-3,5.3430755E-2,1.4259138E-3,4.1424237E-2,6.7785025E-2],"categories":[],"categories_nodes":[],"categories_segments":[],"categories_sizes":[],"default_left":[0,0,0,0,0,0,0,0,0,0,0,0,0,0,0,0,0,0,0,0,0,0,0,0,0,0,0,0,0,0,0,0,0,0,0,0,0,0,0,0,0,0,0,0,0,0,0,0,0,0,0,0,0,0,0,0,0,0,0,0,0,0,0,0,0,0,0,0,0,0,0,0,0,0,0,0,0,0,0,0,0,0,0,0,0,0,0,0,0,0,0,0,0,0,0,0,0,0,0,0,0,0,0,0,0,0,0,0,0,0,0,0,0,0,0,0,0,0,0,0,0,0,0,0,0],"id":6,"left_children":[1,3,5,7,9,11,13,15,17,19,21,23,25,27,29,31,33,35,37,39,41,43,45,47,49,51,53,55,57,59,61,63,65,67,69,71,73,75,77,79,81,83,85,87,89,91,93,95,97,99,101,103,105,107,109,111,113,115,117,119,121,123,-1,-1,-1,-1,-1,-1,-1,-1,-1,-1,-1,-1,-1,-1,-1,-1,-1,-1,-1,-1,-1,-1,-1,-1,-1,-1,-1,-1,-1,-1,-1,-1,-1,-1,-1,-1,-1,-1,-1,-1,-1,-1,-1,-1,-1,-1,-1,-1,-1,-1,-1,-1,-1,-1,-1,-1,-1,-1,-1,-1,-1,-1,-1],"loss_changes":[8.619329E2,3.5611472E2,2.0744427E2,6.2285645E1,1.9254877E2,8.930061E1,1.3554132E2,9.844574E0,2.9229767E1,5.0336884E1,1.5112325E1,1.3549998E1,2.4446732E1,3.036325E1,2.9812637E1,2.4571228E-1,4.6072845E0,1.2648071E1,1.6742373E0,8.025192E0,2.9040176E1,8.228132E0,5.0224953E0,1.0190628E1,4.3010406E0,8.7517395E0,3.3408707E1,1.8190765E1,2.404721E1,5.432244E0,3.2883698E1,1.5254211E-1,8.516982E-2,1.8512497E0,8.171219E0,4.45459E0,7.93486E0,6.708331E-1,1.3014202E0,5.079052E0,4.907852E0,8.834076E0,7.5425262E0,5.2610893E0,1.1457272E0,5.9453907E0,2.9667463E0,3.2533655E0,7.765333E0,2.7541313E0,3.198266E0,1.0619232E1,1.778908E1,9.696911E0,9.983582E0,1.55256195E1,3.9944427E1,4.5010433E0,8.614189E0,1.9875755E0,3.9275982E0,8.547089E0,0E0,0E0,0E0,0E0,0E0,0E0,0E0,0E0,0E0,0E0,0E0,0E0,0E0,0E0,0E0,0E0,0E0,0E0,0E0,0E0,0E0,0E0,0E0,0E0,0E0,0E0,0E0,0E0,0E0,0E0,0E0,0E0,0E0,0E0,0E0,0E0,0E0,0E0,0E0,0E0,0E0,0E0,0E0,0E0,0E0,0E0,0E0,0E0,0E0,0E0,0E0,0E0,0E0,0E0,0E0,0E0,0E0,0E0,0E0,0E0,0E0,0E0,0E0],"parents":[2147483647,0,0,1,1,2,2,3,3,4,4,5,5,6,6,7,7,8,8,9,9,10,10,11,11,12,12,13,13,14,14,15,15,16,16,17,17,18,18,19,19,20,20,21,21,22,22,23,23,24,24,25,25,26,26,27,27,28,28,29,29,30,30,31,31,32,32,33,33,34,34,35,35,36,36,37,37,38,38,39,39,40,40,41,41,42,42,43,43,44,44,45,45,46,46,47,47,48,48,49,49,50,50,51,51,52,52,53,53,54,54,55,55,56,56,57,57,58,58,59,59,60,60,61,61],"right_children":[2,4,6,8,10,12,14,16,18,20,22,24,26,28,30,32,34,36,38,40,42,44,46,48,50,52,54,56,58,60,62,64,66,68,70,72,74,76,78,80,82,84,86,88,90,92,94,96,98,100,102,104,106,108,110,112,114,116,118,120,122,124,-1,-1,-1,-1,-1,-1,-1,-1,-1,-1,-1,-1,-1,-1,-1,-1,-1,-1,-1,-1,-1,-1,-1,-1,-1,-1,-1,-1,-1,-1,-1,-1,-1,-1,-1,-1,-1,-1,-1,-1,-1,-1,-1,-1,-1,-1,-1,-1,-1,-1,-1,-1,-1,-1,-1,-1,-1,-1,-1,-1,-1,-1,-1],"split_conditions":[4.8360657E1,-2.5925925E-1,6.4225586E1,-4.7016585E-1,2.8118334E1,8.2225E0,1.3232758E0,-7.6722187E-1,4.14975E1,3.5675E0,-1.0714286E-1,1.1983739E0,1.9159418E0,6.053459E-1,1.255E0,4.617737E1,4.43E0,3.2608333E0,-3.612732E-1,2.2173557E-2,3.882353E1,3.495725E2,2.3774583E2,1.025E-1,4.529148E-1,4.238355E5,1.3886855E1,2.5541127E0,7.385E0,1.4361407E-1,2.6384224E1,-8.901099E-1,2.325E-1,3.9336494E1,5.58339E0,3.9503956E1,2.331175E4,1.3833022E7,4.376658E1,3.085E2,-1.6027875E-1,-1.5326916E-1,4.1297936E-1,1.224165E5,2.1169476E1,1.8531475E5,7.494733E2,5.8954376E1,2.6157365E6,4.8375E0,5.5230938E1,5.5588234E1,2.67125E1,5.7843136E1,5.7419598E1,3.7416574E-2,2.308194E1,5.55E-1,2.97375E1,1.4625E0,1.66675E3,4.25E0,-2.2110414E-2,-2.844778E-2,-2.577669E-2,-1.8355753E-2,-4.8206984E-3,-2.370308E-2,-1.5965246E-2,-1.7040536E-3,-1.8499758E-2,-1.852197E-2,-9.936678E-3,-6.764505E-3,-1.2690573E-2,-8.464604E-3,3.4555835E-3,-3.0943672E-3,1.3513468E-2,2.220385E-2,-5.081023E-3,-1.4400752E-2,-1.0359993E-2,-8.747322E-3,-5.3456733E-3,-2.6313176E-3,5.880783E-2,-3.3952754E-3,-2.0395049E-4,-2.656781E-4,5.222907E-3,1.3567285E-4,2.7820491E-3,6.222134E-3,3.096055E-4,-3.1431854E-2,2.5173211E-2,-1.184818E-3,-5.762262E-3,-8.712244E-3,1.476148E-2,7.150408E-3,4.651972E-2,3.6089823E-3,8.269224E-3,5.7734194E-4,5.236937E-3,2.9141506E-2,7.553737E-2,5.907938E-3,9.943926E-3,2.5322078E-2,9.087552E-3,5.964116E-2,1.3836979E-2,3.7585728E-2,7.98038E-3,3.834314E-2,1.5017859E-2,5.429541E-2,9.682889E-3,5.3430755E-2,1.4259138E-3,4.1424237E-2,6.7785025E-2],"split_indices":[8,5,8,5,1,0,5,5,0,1,5,2,2,5,1,8,1,1,5,2,8,0,1,0,5,6,7,2,0,2,7,5,0,8,7,8,6,6,8,6,5,5,5,6,8,6,7,8,6,0,8,8,0,8,8,2,7,0,0,0,6,0,0,0,0,0,0,0,0,0,0,0,0,0,0,0,0,0,0,0,0,0,0,0,0,0,0,0,0,0,0,0,0,0,0,0,0,0,0,0,0,0,0,0,0,0,0,0,0,0,0,0,0,0,0,0,0,0,0,0,0,0,0,0,0],"split_type":[0,0,0,0,0,0,0,0,0,0,0,0,0,0,0,0,0,0,0,0,0,0,0,0,0,0,0,0,0,0,0,0,0,0,0,0,0,0,0,0,0,0,0,0,0,0,0,0,0,0,0,0,0,0,0,0,0,0,0,0,0,0,0,0,0,0,0,0,0,0,0,0,0,0,0,0,0,0,0,0,0,0,0,0,0,0,0,0,0,0,0,0,0,0,0,0,0,0,0,0,0,0,0,0,0,0,0,0,0,0,0,0,0,0,0,0,0,0,0,0,0,0,0,0,0],"sum_hessian":[8.1667E4,4.6846E4,3.4821E4,8.128E3,3.8718E4,2.5542E4,9.279E3,1.861E3,6.267E3,2.0399E4,1.8319E4,5.405E3,2.0137E4,9.018E3,2.61E2,6.32E2,1.229E3,5.227E3,1.04E3,3.825E3,1.6574E4,6.734E3,1.1585E4,5.306E3,9.9E1,1.3231E4,6.906E3,8.572E3,4.46E2,5.6E1,2.05E2,6.26E2,6E0,6.11E2,6.18E2,1.303E3,3.924E3,2.17E2,8.23E2,3.48E2,3.477E3,7.829E3,8.745E3,5.997E3,7.37E2,1.0151E4,1.434E3,3.8E1,5.268E3,7.5E1,2.4E1,5.038E3,8.193E3,5E1,6.856E3,6.719E3,1.853E3,1.86E2,2.6E2,1.3E1,4.3E1,1.93E2,1.2E1,3.21E2,3.05E2,3E0,3E0,5.09E2,1.02E2,8.4E1,5.34E2,1.124E3,1.79E2,6.89E2,3.235E3,2.05E2,1.2E1,8.12E2,1.1E1,1.7E1,3.31E2,1.12E3,2.357E3,3.32E3,4.509E3,8.741E3,4E0,1.881E3,4.116E3,1.12E2,6.25E2,3.022E3,7.129E3,1.175E3,2.59E2,3.6E1,2E0,4.069E3,1.199E3,1.5E1,6E1,8E0,1.6E1,2.946E3,2.092E3,4.116E3,4.077E3,3.1E1,1.9E1,4.536E3,2.32E3,1.5E2,6.569E3,4.8E1,1.805E3,1.3E1,1.73E2,2.09E2,5.1E1,9E0,4E0,3E0,4E1,4.7E1,1.46E2],"tree_param":{"num_deleted":"0","num_feature":"9","num_nodes":"125","size_leaf_vector":"1"}},{"base_weights":[4.8099333E-4,-7.8918375E-2,1.20277494E-1,-2.6460835E-1,-4.193954E-2,1.0970934E-1,6.583888E-1,-4.329737E-1,-2.2409303E-1,-1.0531938E-1,2.8385108E-2,6.0697597E-2,1.888008E-1,3.4208825E-1,9.676235E-1,-5.176756E-1,-3.7839386E-1,-2.509614E-1,-7.206474E-2,-2.1026506E-1,-8.1296444E-2,-7.56042E-3,5.1606335E-2,-5.004346E-2,9.221049E-2,1.6188681E-1,2.6567352E-1,9.592161E-2,5.083306E-1,1.4263264E0,7.304252E-1,-2.7407339E-2,-4.84608E-1,-4.0228587E-1,-2.3790905E-1,-3.4506926E-1,-2.190824E-1,-1.3958268E-1,-5.2954953E-2,-1.4600725E-1,-2.5498587E-1,-1.2093715E-1,-3.9299637E-2,-1.7640088E-2,7.847225E-2,4.4328585E-2,1.0281251E-1,-5.400565E-2,5.457371E-1,5.545717E-1,8.936064E-2,1.3700187E-1,2.610364E-1,1.1195438E0,2.4491629E-1,-9.8005526E-2,2.3613977E-1,4.0493742E-1,1.1022037E0,8.4368676E-1,1.5194972E0,8.3221114E-1,1.12564385E-1,-2.6638502E-2,-2.1530384E-2,-2.2819642E-2,-1.7238624E-2,-2.0120991E-2,-3.5047003E-3,-1.8102868E-2,-1.23208305E-2,-1.3221176E-2,-9.325788E-3,-8.004735E-3,7.4343183E-3,-2.87568E-3,9.077346E-3,-9.534064E-3,-5.106301E-4,-1.729271E-2,-1.1270003E-2,-8.6748125E-3,-4.8976024E-3,-2.8667625E-3,-1.8517296E-5,-3.1424419E-3,-1.2438031E-4,6.7190775E-3,2.2717775E-3,1.4229593E-3,3.1194454E-3,6.0558873E-3,8.975263E-4,-3.0356472E-2,-2.5140024E-3,6.461605E-2,2.0494407E-2,3.5783302E-2,-1.9751186E-3,3.3593022E-3,6.8033673E-3,6.451654E-3,2.273547E-2,3.8145535E-2,1.1935134E-2,6.728108E-2,1.0089031E-2,2.4900261E-2,1.1767226E-2,-1.9057078E-2,-4.0173624E-4,1.599854E-2,-5.7463506E-3,3.7241075E-2,1.2183678E-2,6.986164E-2,3.0849064E-2,2.5094042E-2,6.933421E-2,-3.7557055E-4,7.682737E-2,2.5509244E-2,5.4987084E-2,-8.610414E-3,2.3533018E-2],"categories":[],"categories_nodes":[],"categories_segments":[],"categories_sizes":[],"default_left":[0,0,0,0,0,0,0,0,0,0,0,0,0,0,0,0,0,0,0,0,0,0,0,0,0,0,0,0,0,0,0,0,0,0,0,0,0,0,0,0,0,0,0,0,0,0,0,0,0,0,0,0,0,0,0,0,0,0,0,0,0,0,0,0,0,0,0,0,0,0,0,0,0,0,0,0,0,0,0,0,0,0,0,0,0,0,0,0,0,0,0,0,0,0,0,0,0,0,0,0,0,0,0,0,0,0,0,0,0,0,0,0,0,0,0,0,0,0,0,0,0,0,0,0,0],"id":7,"left_children":[1,3,5,7,9,11,13,15,17,19,21,23,25,27,29,31,33,35,37,39,41,43,45,47,49,51,53,55,57,59,61,-1,63,65,67,69,71,73,75,77,79,81,83,85,87,89,91,93,95,97,99,101,103,105,107,109,111,113,115,117,119,121,123,-1,-1,-1,-1,-1,-1,-1,-1,-1,-1,-1,-1,-1,-1,-1,-1,-1,-1,-1,-1,-1,-1,-1,-1,-1,-1,-1,-1,-1,-1,-1,-1,-1,-1,-1,-1,-1,-1,-1,-1,-1,-1,-1,-1,-1,-1,-1,-1,-1,-1,-1,-1,-1,-1,-1,-1,-1,-1,-1,-1,-1,-1],"loss_changes":[7.782908E2,3.3788727E2,1.854042E2,5.5647217E1,1.8291612E2,1.2398718E2,6.109433E1,7.1269836E0,2.6896362E1,5.440091E1,1.623863E1,6.893108E1,2.5276794E1,1.2719318E1,3.3448914E1,3.5705566E-1,3.1499786E0,1.672174E1,1.2712498E0,1.1514893E1,2.923883E1,6.623176E0,4.3999786E0,1.0359436E1,2.0210724E1,2.233554E1,5.594632E1,3.47654E0,1.0974525E1,4.5265045E0,1.3176018E1,0E0,5.638199E-1,2.4099426E0,3.9196482E0,2.2822113E0,6.1302795E0,1.3128338E0,8.3785653E-1,1.0019897E1,6.2908936E0,1.089917E1,5.98971E0,4.6826725E0,1.4733882E0,2.9646034E0,2.2813492E0,8.929477E0,2.4115486E0,9.024254E0,1.5819504E1,1.8296478E1,2.019535E1,1.5289917E1,7.3877106E0,1.3725322E0,2.2146149E0,8.58827E0,3.0031166E0,2.4592447E0,2.3808136E0,1.5032417E1,3.2423058E0,0E0,0E0,0E0,0E0,0E0,0E0,0E0,0E0,0E0,0E0,0E0,0E0,0E0,0E0,0E0,0E0,0E0,0E0,0E0,0E0,0E0,0E0,0E0,0E0,0E0,0E0,0E0,0E0,0E0,0E0,0E0,0E0,0E0,0E0,0E0,0E0,0E0,0E0,0E0,0E0,0E0,0E0,0E0,0E0,0E0,0E0,0E0,0E0,0E0,0E0,0E0,0E0,0E0,0E0,0E0,0E0,0E0,0E0,0E0,0E0,0E0,0E0],"parents":[2147483647,0,0,1,1,2,2,3,3,4,4,5,5,6,6,7,7,8,8,9,9,10,10,11,11,12,12,13,13,14,14,15,15,16,16,17,17,18,18,19,19,20,20,21,21,22,22,23,23,24,24,25,25,26,26,27,27,28,28,29,29,30,30,32,32,33,33,34,34,35,35,36,36,37,37,38,38,39,39,40,40,41,41,42,42,43,43,44,44,45,45,46,46,47,47,48,48,49,49,50,50,51,51,52,52,53,53,54,54,55,55,56,56,57,57,58,58,59,59,60,60,61,61,62,62],"right_children":[2,4,6,8,10,12,14,16,18,20,22,24,26,28,30,32,34,36,38,40,42,44,46,48,50,52,54,56,58,60,62,-1,64,66,68,70,72,74,76,78,80,82,84,86,88,90,92,94,96,98,100,102,104,106,108,110,112,114,116,118,120,122,124,-1,-1,-1,-1,-1,-1,-1,-1,-1,-1,-1,-1,-1,-1,-1,-1,-1,-1,-1,-1,-1,-1,-1,-1,-1,-1,-1,-1,-1,-1,-1,-1,-1,-1,-1,-1,-1,-1,-1,-1,-1,-1,-1,-1,-1,-1,-1,-1,-1,-1,-1,-1,-1,-1,-1,-1,-1,-1,-1,-1,-1,-1],"split_conditions":[4.9390244E1,-2.5925925E-1,7.76E-1,-5.0091743E-1,2.8118334E1,6.0997066E1,1.8873085E0,-7.6722187E-1,4.51925E1,3.5675E0,-9.606987E-2,8.598333E0,3.6536067E0,6.948052E1,7.4446096E0,-8.901099E-1,3.799628E1,3.2608333E0,-3.612732E-1,1.3269639E-1,4.030612E1,3.495725E2,2.3774583E2,1.6943007E0,-2.1034482E-1,7.395427E1,3.08725E1,5.9948895E1,6.7525E0,2.081658E0,1.1158535E1,-2.7407339E-2,5.928737E-1,5.1491666E0,7.65E-1,3.9503956E1,-3.39381E-1,3.7808968E1,4.361702E1,1.71E0,2.0175E0,-1.7333333E-1,1.54125E1,-1.9432624E-1,3.948212E1,4.229935E1,7.494733E2,1.025E-1,1.7530931E0,2.6384224E1,7.74875E1,3.4615386E-1,2.0175E0,3.0346668E-1,3.5115738E1,7.90234E-2,4.9725E0,5.4945055E-2,8.955E0,7.765E0,2.7325E0,3.089489E0,-2.0491802E-3,-2.6638502E-2,-2.1530384E-2,-2.2819642E-2,-1.7238624E-2,-2.0120991E-2,-3.5047003E-3,-1.8102868E-2,-1.23208305E-2,-1.3221176E-2,-9.325788E-3,-8.004735E-3,7.4343183E-3,-2.87568E-3,9.077346E-3,-9.534064E-3,-5.106301E-4,-1.729271E-2,-1.1270003E-2,-8.6748125E-3,-4.8976024E-3,-2.8667625E-3,-1.8517296E-5,-3.1424419E-3,-1.2438031E-4,6.7190775E-3,2.2717775E-3,1.4229593E-3,3.1194454E-3,6.0558873E-3,8.975263E-4,-3.0356472E-2,-2.5140024E-3,6.461605E-2,2.0494407E-2,3.5783302E-2,-1.9751186E-3,3.3593022E-3,6.8033673E-3,6.451654E-3,2.273547E-2,3.8145535E-2,1.1935134E-2,6.728108E-2,1.0089031E-2,2.4900261E-2,1.1767226E-2,-1.9057078E-2,-4.0173624E-4,1.599854E-2,-5.7463506E-3,3.7241075E-2,1.2183678E-2,6.986164E-2,3.0849064E-2,2.5094042E-2,6.933421E-2,-3.7557055E-4,7.682737E-2,2.5509244E-2,5.4987084E-2,-8.610414E-3,2.3533018E-2],"split_indices":[8,5,5,5,1,8,3,5,0,1,5,1,3,8,7,5,8,1,5,3,8,0,1,3,4,8,0,8,0,3,3,0,3,1,0,8,5,8,8,0,0,5,0,5,3,8,7,0,3,7,0,4,0,4,7,3,0,4,0,0,0,3,4,0,0,0,0,0,0,0,0,0,0,0,0,0,0,0,0,0,0,0,0,0,0,0,0,0,0,0,0,0,0,0,0,0,0,0,0,0,0,0,0,0,0,0,0,0,0,0,0,0,0,0,0,0,0,0,0,0,0,0,0,0,0],"split_type":[0,0,0,0,0,0,0,0,0,0,0,0,0,0,0,0,0,0,0,0,0,0,0,0,0,0,0,0,0,0,0,0,0,0,0,0,0,0,0,0,0,0,0,0,0,0,0,0,0,0,0,0,0,0,0,0,0,0,0,0,0,0,0,0,0,0,0,0,0,0,0,0,0,0,0,0,0,0,0,0,0,0,0,0,0,0,0,0,0,0,0,0,0,0,0,0,0,0,0,0,0,0,0,0,0,0,0,0,0,0,0,0,0,0,0,0,0,0,0,0,0,0,0,0,0],"sum_hessian":[8.1822E4,4.9208E4,3.2614E4,8.171E3,4.1037E4,3.1987E4,6.27E2,1.583E3,6.588E3,2.1584E4,1.9453E4,1.975E4,1.2237E4,3.11E2,3.16E2,6.17E2,9.66E2,5.598E3,9.9E2,4.019E3,1.7565E4,7.635E3,1.1818E4,4.375E3,1.5375E4,9.066E3,3.171E3,1.26E2,1.85E2,1.06E2,2.1E2,3.13E2,3.04E2,8.24E2,1.42E2,1.414E3,4.184E3,2.17E2,7.73E2,1.651E3,2.368E3,9.035E3,8.53E3,6.835E3,8E2,1.0349E4,1.469E3,4.347E3,2.8E1,9.3E1,1.5282E4,7.249E3,1.817E3,7.4E1,3.097E3,5.3E1,7.3E1,1.59E2,2.6E1,1.6E1,9E1,1.8E2,3E1,1.56E2,1.48E2,4.21E2,4.03E2,7.1E1,7.1E1,1.204E3,2.1E2,1.746E3,2.438E3,2.03E2,1.4E1,7.59E2,1.4E1,1.242E3,4.09E2,5.79E2,1.789E3,2.747E3,6.288E3,5.829E3,2.701E3,1.715E3,5.12E3,2.96E2,5.04E2,5.51E3,4.839E3,1.208E3,2.61E2,2.8E1,4.319E3,3E0,2.5E1,7.3E1,2E1,1.0364E4,4.918E3,7.073E3,1.76E2,7.6E1,1.741E3,5.9E1,1.5E1,1.11E2,2.986E3,1.2E1,4.1E1,5.9E1,1.4E1,5E1,1.09E2,1.5E1,1.1E1,1.1E1,5E0,1E0,8.9E1,8.3E1,9.7E1,1.7E1,1.3E1],"tree_param":{"num_deleted":"0","num_feature":"9","num_nodes":"125","size_leaf_vector":"1"}},{"base_weights":[-1.5768953E-4,-7.617197E-2,1.148253E-1,-2.4544244E-1,-3.934088E-2,1.0280685E-1,5.217984E-1,-3.9833006E-1,-2.0277146E-1,-9.889783E-2,2.6466886E-2,5.6616697E-2,1.6995427E-1,1.9843271E-1,7.902466E-1,-4.9164146E-1,-3.5161844E-1,-2.3068315E-1,-6.481883E-2,-1.9288538E-1,-7.654798E-2,-3.372909E-3,5.1982064E-2,-4.774003E-2,8.598166E-2,1.4505558E-1,2.4208423E-1,8.823726E-3,3.6222282E-1,1.1312407E0,6.619693E-1,-2.6078148E-2,-4.5788938E-1,-2.7314419E-2,-3.3362246E-1,-3.1541225E-1,-2.031379E-1,-1.3064843E-1,-4.4313233E-2,4.312513E-2,-2.0177977E-1,-1.147848E-1,-3.6519226E-2,-5.71898E-2,1.3673738E-2,4.4084694E-2,1.12533525E-1,-5.288118E-1,-4.3485664E-2,1.0010104E0,8.472317E-2,1.2312237E-1,2.3526242E-1,1.3062352E0,2.329262E-1,-4.3881867E-2,4.800976E-1,8.458858E-1,2.789417E-1,6.7197406E-1,1.4657314E0,7.680973E-1,3.7247157E-1,-2.4583176E-2,-1.2993711E-2,-1.7884796E-2,-7.637584E-3,-1.8629141E-2,-1.3933169E-2,-1.2525721E-2,-8.831439E-3,-9.352454E-3,-2.3447643E-3,-2.952824E-3,1.1476678E-3,-3.7068044E-4,4.6739854E-2,-7.79269E-3,-1.1535948E-2,-8.236625E-3,-4.747162E-3,7.5597905E-5,-2.6700206E-3,-5.206214E-3,-1.4741559E-3,3.0843666E-4,3.6054351E-3,6.941776E-4,2.5985818E-3,8.530675E-3,4.3088193E-3,-2.8452871E-2,-1.4039314E-2,-2.3331738E-3,2.5967894E-2,1.9702977E-2,6.864031E-2,3.233704E-3,6.5998244E-3,3.9320067E-2,6.0258554E-3,3.6774274E-2,1.0786643E-2,1.6888557E-2,8.064861E-2,2.6674792E-2,1.1300698E-2,4.563918E-3,-1.637139E-2,7.888719E-2,5.3538545E-3,6.1270542E-2,2.307683E-2,3.3875518E-3,1.9160688E-2,-1.0552249E-2,4.6035185E-2,2.771574E-2,7.4110284E-2,2.6870087E-2,6.9480896E-2,-4.756139E-5,3.0182658E-2],"categories":[],"categories_nodes":[],"categories_segments":[],"categories_sizes":[],"default_left":[0,0,0,0,0,0,0,0,0,0,0,0,0,0,0,0,0,0,0,0,0,0,0,0,0,0,0,0,0,0,0,0,0,0,0,0,0,0,0,0,0,0,0,0,0,0,0,0,0,0,0,0,0,0,0,0,0,0,0,0,0,0,0,0,0,0,0,0,0,0,0,0,0,0,0,0,0,0,0,0,0,0,0,0,0,0,0,0,0,0,0,0,0,0,0,0,0,0,0,0,0,0,0,0,0,0,0,0,0,0,0,0,0,0,0,0,0,0,0,0,0,0,0],"id":8,"left_children":[1,3,5,7,9,11,13,15,17,19,21,23,25,27,29,31,33,35,37,39,41,43,45,47,49,51,53,55,57,59,61,-1,63,-1,65,67,69,71,73,75,77,79,81,83,85,87,89,91,93,95,97,99,101,103,105,107,109,111,113,115,117,119,121,-1,-1,-1,-1,-1,-1,-1,-1,-1,-1,-1,-1,-1,-1,-1,-1,-1,-1,-1,-1,-1,-1,-1,-1,-1,-1,-1,-1,-1,-1,-1,-1,-1,-1,-1,-1,-1,-1,-1,-1,-1,-1,-1,-1,-1,-1,-1,-1,-1,-1,-1,-1,-1,-1,-1,-1,-1,-1,-1,-1],"loss_changes":[7.15284E2,3.0714133E2,1.5925226E2,5.7355347E1,1.5859357E2,9.8114075E1,8.092088E1,8.195923E0,2.6495667E1,4.4604248E1,1.4636705E1,5.7446873E1,2.3119965E1,1.3195637E1,2.1559448E1,4.0550232E-1,4.312454E0,1.3299774E1,1.5600667E0,8.573303E0,2.6263489E1,8.130758E0,4.950598E0,8.403087E0,1.67613E1,1.8939163E1,3.1924164E1,4.939143E0,8.947887E0,2.0214691E1,1.1173889E1,0E0,1.9320679E0,0E0,5.0702515E0,2.843811E0,5.386307E0,1.2902541E0,8.8002646E-1,6.7214622E0,5.189911E0,8.682716E0,5.3839884E0,2.7693796E0,2.951467E0,2.1832867E0,1.8146305E0,1.9956493E-1,7.3253446E0,3.9722652E0,1.3838631E1,1.3235176E1,1.8148697E1,7.772976E0,6.6940002E0,6.8899064E0,8.01995E0,4.2481403E0,4.2902107E0,1.3372288E1,3.64563E-1,3.8253128E1,8.806078E0,0E0,0E0,0E0,0E0,0E0,0E0,0E0,0E0,0E0,0E0,0E0,0E0,0E0,0E0,0E0,0E0,0E0,0E0,0E0,0E0,0E0,0E0,0E0,0E0,0E0,0E0,0E0,0E0,0E0,0E0,0E0,0E0,0E0,0E0,0E0,0E0,0E0,0E0,0E0,0E0,0E0,0E0,0E0,0E0,0E0,0E0,0E0,0E0,0E0,0E0,0E0,0E0,0E0,0E0,0E0,0E0,0E0,0E0,0E0,0E0],"parents":[2147483647,0,0,1,1,2,2,3,3,4,4,5,5,6,6,7,7,8,8,9,9,10,10,11,11,12,12,13,13,14,14,15,15,16,16,17,17,18,18,19,19,20,20,21,21,22,22,23,23,24,24,25,25,26,26,27,27,28,28,29,29,30,30,32,32,34,34,35,35,36,36,37,37,38,38,39,39,40,40,41,41,42,42,43,43,44,44,45,45,46,46,47,47,48,48,49,49,50,50,51,51,52,52,53,53,54,54,55,55,56,56,57,57,58,58,59,59,60,60,61,61,62,62],"right_children":[2,4,6,8,10,12,14,16,18,20,22,24,26,28,30,32,34,36,38,40,42,44,46,48,50,52,54,56,58,60,62,-1,64,-1,66,68,70,72,74,76,78,80,82,84,86,88,90,92,94,96,98,100,102,104,106,108,110,112,114,116,118,120,122,-1,-1,-1,-1,-1,-1,-1,-1,-1,-1,-1,-1,-1,-1,-1,-1,-1,-1,-1,-1,-1,-1,-1,-1,-1,-1,-1,-1,-1,-1,-1,-1,-1,-1,-1,-1,-1,-1,-1,-1,-1,-1,-1,-1,-1,-1,-1,-1,-1,-1,-1,-1,-1,-1,-1,-1,-1,-1,-1,-1],"split_conditions":[4.9390244E1,-2.5E-1,6.053459E-1,-4.7016585E-1,2.8118334E1,6.0215054E1,1.4880483E0,-7.6722187E-1,4.21225E1,3.7141666E0,3.765182E1,8.598333E0,2.1746264E0,6.948052E1,7.4446096E0,2.2700955E-1,1.7833333E-1,3.2608333E0,-3.501144E-1,2.348436E-2,4.030612E1,4.6075E1,2.7433334E2,1.7833333E-1,8.4853735E0,7.395427E1,1.44880705E1,6.5433335E0,9.98332E-2,2.1612349E0,6.2010455E0,-2.6078148E-2,3.4446564E1,-2.7314419E-2,3.799628E1,2.5954826E1,-3.39381E-1,2.6282467E1,3.92175E2,7.65E-1,1.3269639E-1,-1.7333333E-1,5.231432E-1,2.7808989E1,3.8026422E2,-9.4339624E-2,1.1723931E1,5.5046947E1,1.6535279E0,8.2225E0,2.3101876E0,-1.7852685E-1,2.0260181E0,2.0085232E0,2.2746454E1,2.869753E0,7.1641665E0,7.395427E1,4.6552268E-1,4.09E0,7.76E-1,3.6536067E0,3.711307E0,-2.4583176E-2,-1.2993711E-2,-1.7884796E-2,-7.637584E-3,-1.8629141E-2,-1.3933169E-2,-1.2525721E-2,-8.831439E-3,-9.352454E-3,-2.3447643E-3,-2.952824E-3,1.1476678E-3,-3.7068044E-4,4.6739854E-2,-7.79269E-3,-1.1535948E-2,-8.236625E-3,-4.747162E-3,7.5597905E-5,-2.6700206E-3,-5.206214E-3,-1.4741559E-3,3.0843666E-4,3.6054351E-3,6.941776E-4,2.5985818E-3,8.530675E-3,4.3088193E-3,-2.8452871E-2,-1.4039314E-2,-2.3331738E-3,2.5967894E-2,1.9702977E-2,6.864031E-2,3.233704E-3,6.5998244E-3,3.9320067E-2,6.0258554E-3,3.6774274E-2,1.0786643E-2,1.6888557E-2,8.064861E-2,2.6674792E-2,1.1300698E-2,4.563918E-3,-1.637139E-2,7.888719E-2,5.3538545E-3,6.1270542E-2,2.307683E-2,3.3875518E-3,1.9160688E-2,-1.0552249E-2,4.6035185E-2,2.771574E-2,7.4110284E-2,2.6870087E-2,6.9480896E-2,-4.756139E-5,3.0182658E-2],"split_indices":[8,5,5,5,1,8,3,5,0,1,8,1,2,8,7,2,1,1,5,3,8,1,1,1,7,8,7,1,2,3,3,0,8,0,8,8,5,8,0,0,3,5,3,8,7,5,2,8,3,0,2,5,7,3,7,7,1,8,3,0,5,3,2,0,0,0,0,0,0,0,0,0,0,0,0,0,0,0,0,0,0,0,0,0,0,0,0,0,0,0,0,0,0,0,0,0,0,0,0,0,0,0,0,0,0,0,0,0,0,0,0,0,0,0,0,0,0,0,0,0,0,0,0],"split_type":[0,0,0,0,0,0,0,0,0,0,0,0,0,0,0,0,0,0,0,0,0,0,0,0,0,0,0,0,0,0,0,0,0,0,0,0,0,0,0,0,0,0,0,0,0,0,0,0,0,0,0,0,0,0,0,0,0,0,0,0,0,0,0,0,0,0,0,0,0,0,0,0,0,0,0,0,0,0,0,0,0,0,0,0,0,0,0,0,0,0,0,0,0,0,0,0,0,0,0,0,0,0,0,0,0,0,0,0,0,0,0,0,0,0,0,0,0,0,0,0,0,0,0],"sum_hessian":[8.1835E4,4.9266E4,3.2569E4,8.803E3,4.0463E4,3.1636E4,9.33E2,1.919E3,6.884E3,2.124E4,1.9223E4,1.8744E4,1.2892E4,4.24E2,5.09E2,6.37E2,1.282E3,5.725E3,1.159E3,4.079E3,1.7161E4,8.861E3,1.0362E4,4.116E3,1.4628E4,9.586E3,3.306E3,1.97E2,2.27E2,1.37E2,3.72E2,3.3E2,3.07E2,1.06E2,1.176E3,1.402E3,4.323E3,2.74E2,8.85E2,1.48E2,3.931E3,8.776E3,8.385E3,2.131E3,6.73E3,9.168E3,1.194E3,3.5E1,4.081E3,1.9E1,1.4609E4,7.713E3,1.873E3,2.7E1,3.279E3,1.78E2,1.9E1,3.2E1,1.95E2,5.9E1,7.8E1,2.71E2,1.01E2,2.61E2,4.6E1,1.037E3,1.39E2,5.45E2,8.57E2,1.548E3,2.775E3,1.63E2,1.11E2,7.26E2,1.59E2,1.41E2,7E0,1.522E3,2.409E3,2.493E3,6.283E3,2.578E3,5.807E3,7.9E2,1.341E3,5.965E3,7.65E2,1.899E3,7.269E3,3.71E2,8.23E2,2.9E1,6E0,4.059E3,2.2E1,8E0,1.1E1,1.026E4,4.349E3,2.9E1,7.684E3,6.9E1,1.804E3,7E0,2E1,7.2E1,3.207E3,1.21E2,5.7E1,4E0,1.5E1,1.5E1,1.7E1,6.5E1,1.3E2,1.3E1,4.6E1,2E0,7.6E1,1.99E2,7.2E1,3.9E1,6.2E1],"tree_param":{"num_deleted":"0","num_feature":"9","num_nodes":"123","size_leaf_vector":"1"}},{"base_weights":[7.9529645E-4,-5.830354E-2,1.3550805E-1,-2.1101326E-1,-2.115233E-2,1.2407126E-1,5.927379E-1,-3.2712469E-1,-1.5825878E-1,-9.344323E-2,2.491025E-2,9.081963E-2,2.082284E-1,2.6058772E-1,8.3450496E-1,-4.6940053E-1,-2.9487455E-1,-2.3478626E-1,-1.10267505E-1,-1.7055723E-1,-6.9204904E-2,-5.5532376E-3,5.3098224E-2,3.7552167E-2,1.3346049E-1,6.9162124E-1,2.0252673E-1,8.4546417E-1,2.0248285E-1,8.9087856E-1,1.22938946E-1,-2.4844585E-2,-4.3709388E-1,-3.142208E-1,-1.2954234E-1,-2.009205E-1,-2.9581767E-1,-1.4185269E-1,-3.2705717E-2,-1.146319E-1,-2.0653744E-1,-3.227653E-2,-1.02389365E-1,-5.6047413E-2,2.5052885E-2,4.6459205E-2,1.21398546E-1,-3.7690427E-2,6.6443674E-2,1.7396331E-1,1.0479057E-1,1.4129478E-1,1.0750144E0,1.772337E-1,2.9630485E-1,-2.4583241E-2,1.152842E0,-1.6780213E-1,2.7217305E-1,7.1893716E-1,1.1086129E0,-1.9346686E-2,4.9765977E-1,-1.52532235E-2,-2.4075411E-2,-2.0708175E-2,-1.3913182E-2,-2.197757E-2,-2.7353677E-3,-1.0170535E-2,3.0973226E-2,-1.4944598E-2,4.3888077E-2,-7.7639683E-3,-3.3701141E-3,-3.7828067E-3,3.078504E-4,-7.6743625E-3,1.0443929E-3,-1.647043E-2,-9.385313E-3,-2.9462245E-3,1.6454429E-3,-7.700406E-3,-3.7804411E-3,-4.4785747E-3,-1.0431204E-3,-5.848049E-4,2.111383E-3,1.1149895E-3,2.940749E-3,7.872078E-3,3.1165811E-3,5.724371E-3,-3.3430073E-3,4.697455E-2,3.0869825E-3,1.8828241E-2,6.95263E-3,-4.2478484E-4,6.8163015E-3,-2.4177818E-2,9.772955E-3,1.3629669E-2,7.213154E-2,8.038963E-3,1.3791828E-2,5.737496E-3,1.8763056E-2,2.1500241E-2,7.2669104E-2,-1.8598123E-2,6.808299E-3,3.0060137E-2,1.0276271E-2,4.7981594E-2,2.3785768E-2,4.1399337E-2,6.435283E-2,5.6839343E-3,3.0809013E-2],"categories":[],"categories_nodes":[],"categories_segments":[],"categories_sizes":[],"default_left":[0,0,0,0,0,0,0,0,0,0,0,0,0,0,0,0,0,0,0,0,0,0,0,0,0,0,0,0,0,0,0,0,0,0,0,0,0,0,0,0,0,0,0,0,0,0,0,0,0,0,0,0,0,0,0,0,0,0,0,0,0,0,0,0,0,0,0,0,0,0,0,0,0,0,0,0,0,0,0,0,0,0,0,0,0,0,0,0,0,0,0,0,0,0,0,0,0,0,0,0,0,0,0,0,0,0,0,0,0,0,0,0,0,0,0,0,0,0,0,0,0],"id":9,"left_children":[1,3,5,7,9,11,13,15,17,19,21,23,25,27,29,31,33,35,37,39,41,43,45,47,49,51,53,55,57,59,61,-1,63,65,67,69,71,73,75,77,79,81,83,85,87,89,91,93,95,97,99,101,103,105,107,-1,109,111,113,115,117,-1,119,-1,-1,-1,-1,-1,-1,-1,-1,-1,-1,-1,-1,-1,-1,-1,-1,-1,-1,-1,-1,-1,-1,-1,-1,-1,-1,-1,-1,-1,-1,-1,-1,-1,-1,-1,-1,-1,-1,-1,-1,-1,-1,-1,-1,-1,-1,-1,-1,-1,-1,-1,-1,-1,-1,-1,-1,-1,-1],"loss_changes":[6.518607E2,3.2287158E2,1.304848E2,6.8160706E1,1.5243207E2,6.814639E1,4.8687057E1,1.5820099E1,2.8102966E1,3.3288345E1,2.4010517E1,3.965767E1,1.8871796E1,8.59672E0,1.4010422E1,3.5211182E-1,9.036789E0,6.039917E0,1.1531479E1,8.548332E0,1.6610092E1,2.077045E1,6.579769E0,1.6882618E1,1.1243195E1,1.6727413E1,1.6121704E1,1.0019903E1,6.135706E0,1.1407623E1,5.3511786E0,0E0,1.6299057E0,9.01265E0,6.9126105E0,4.0095673E0,4.054268E0,3.334282E0,2.2772136E0,8.796871E0,5.9332504E0,1.1150373E1,9.858543E0,5.9807816E0,5.282003E0,3.9503422E0,2.728016E0,9.573668E0,2.2985453E1,2.8366806E1,2.029673E1,1.2452333E0,1.3470951E1,8.673096E0,2.0699524E1,0E0,3.5026245E0,2.4088612E0,4.2403183E0,1.0373795E1,6.0451355E0,0E0,6.5810704E-1,0E0,0E0,0E0,0E0,0E0,0E0,0E0,0E0,0E0,0E0,0E0,0E0,0E0,0E0,0E0,0E0,0E0,0E0,0E0,0E0,0E0,0E0,0E0,0E0,0E0,0E0,0E0,0E0,0E0,0E0,0E0,0E0,0E0,0E0,0E0,0E0,0E0,0E0,0E0,0E0,0E0,0E0,0E0,0E0,0E0,0E0,0E0,0E0,0E0,0E0,0E0,0E0,0E0,0E0,0E0,0E0,0E0,0E0],"parents":[2147483647,0,0,1,1,2,2,3,3,4,4,5,5,6,6,7,7,8,8,9,9,10,10,11,11,12,12,13,13,14,14,15,15,16,16,17,17,18,18,19,19,20,20,21,21,22,22,23,23,24,24,25,25,26,26,27,27,28,28,29,29,30,30,32,32,33,33,34,34,35,35,36,36,37,37,38,38,39,39,40,40,41,41,42,42,43,43,44,44,45,45,46,46,47,47,48,48,49,49,50,50,51,51,52,52,53,53,54,54,56,56,57,57,58,58,59,59,60,60,62,62],"right_children":[2,4,6,8,10,12,14,16,18,20,22,24,26,28,30,32,34,36,38,40,42,44,46,48,50,52,54,56,58,60,62,-1,64,66,68,70,72,74,76,78,80,82,84,86,88,90,92,94,96,98,100,102,104,106,108,-1,110,112,114,116,118,-1,120,-1,-1,-1,-1,-1,-1,-1,-1,-1,-1,-1,-1,-1,-1,-1,-1,-1,-1,-1,-1,-1,-1,-1,-1,-1,-1,-1,-1,-1,-1,-1,-1,-1,-1,-1,-1,-1,-1,-1,-1,-1,-1,-1,-1,-1,-1,-1,-1,-1,-1,-1,-1,-1,-1,-1,-1,-1,-1],"split_conditions":[5.3148045E1,-2.2137405E-1,7.76E-1,-3.7494618E-1,1.54125E1,6.626929E1,1.472496E0,-7.6722187E-1,7.6275E0,3.5675E0,4.123867E1,7.860025E-1,6.653206E-2,2.456E3,1.1158535E1,2.2700955E-1,3.9336494E1,7.2377275E5,4.91375E1,1.244503E-1,5.3261715E-1,4.6075E1,2.7433334E2,5.795E0,3.7857375E5,7.65E-1,3.1707084E-1,2.325E-1,6.0215054E1,2.9970198E0,3.3700879E0,-2.4844585E-2,8.431666E0,2.3058333E0,3.1E-1,5.265616E1,2.2646592E0,4E1,4.3621425E5,1.8625E0,1.5341667E0,8.5275E0,3.8662315E1,3.4649475E1,1.910165E5,3.4483334E1,4.999125E2,8.9747116E-2,-1.9432624E-1,1.8295E1,2.67125E1,1.025E-1,4.039479E-2,6.661768E0,7.508333E0,-2.4583241E-2,1.3232758E0,2.47E0,7.852813E-2,8.37E0,1.3232758E0,-1.9346686E-2,6.0215054E1,-1.52532235E-2,-2.4075411E-2,-2.0708175E-2,-1.3913182E-2,-2.197757E-2,-2.7353677E-3,-1.0170535E-2,3.0973226E-2,-1.4944598E-2,4.3888077E-2,-7.7639683E-3,-3.3701141E-3,-3.7828067E-3,3.078504E-4,-7.6743625E-3,1.0443929E-3,-1.647043E-2,-9.385313E-3,-2.9462245E-3,1.6454429E-3,-7.700406E-3,-3.7804411E-3,-4.4785747E-3,-1.0431204E-3,-5.848049E-4,2.111383E-3,1.1149895E-3,2.940749E-3,7.872078E-3,3.1165811E-3,5.724371E-3,-3.3430073E-3,4.697455E-2,3.0869825E-3,1.8828241E-2,6.95263E-3,-4.2478484E-4,6.8163015E-3,-2.4177818E-2,9.772955E-3,1.3629669E-2,7.213154E-2,8.038963E-3,1.3791828E-2,5.737496E-3,1.8763056E-2,2.1500241E-2,7.2669104E-2,-1.8598123E-2,6.808299E-3,3.0060137E-2,1.0276271E-2,4.7981594E-2,2.3785768E-2,4.1399337E-2,6.435283E-2,5.6839343E-3,3.0809013E-2],"split_indices":[8,5,5,5,0,8,3,5,0,1,8,2,3,6,3,2,8,6,0,3,3,1,1,1,6,0,5,0,8,3,2,0,1,1,1,8,3,8,6,0,1,0,8,8,6,1,1,3,5,0,0,0,5,3,1,0,5,0,2,0,5,0,8,0,0,0,0,0,0,0,0,0,0,0,0,0,0,0,0,0,0,0,0,0,0,0,0,0,0,0,0,0,0,0,0,0,0,0,0,0,0,0,0,0,0,0,0,0,0,0,0,0,0,0,0,0,0,0,0,0,0],"split_type":[0,0,0,0,0,0,0,0,0,0,0,0,0,0,0,0,0,0,0,0,0,0,0,0,0,0,0,0,0,0,0,0,0,0,0,0,0,0,0,0,0,0,0,0,0,0,0,0,0,0,0,0,0,0,0,0,0,0,0,0,0,0,0,0,0,0,0,0,0,0,0,0,0,0,0,0,0,0,0,0,0,0,0,0,0,0,0,0,0,0,0,0,0,0,0,0,0,0,0,0,0,0,0,0,0,0,0,0,0,0,0,0,0,0,0,0,0,0,0,0,0],"sum_hessian":[8.1876E4,5.691E4,2.4966E4,1.1135E4,4.5775E4,2.4358E4,6.08E2,3.477E3,7.658E3,1.7815E4,2.796E4,1.7461E4,6.897E3,2.57E2,3.51E2,6.4E2,2.837E3,2.95E3,4.708E3,4.259E3,1.3556E4,1.3438E4,1.4522E4,7.764E3,9.697E3,7.9E1,6.818E3,2.2E1,2.35E2,3.25E2,2.6E1,3.38E2,3.02E2,2.539E3,2.98E2,1.9E3,1.05E3,3.345E3,1.363E3,1.669E3,2.59E3,6.417E3,7.139E3,5.071E3,8.367E3,1.3237E4,1.285E3,2.154E3,5.61E3,4.017E3,5.68E3,3.3E1,4.6E1,5.372E3,1.446E3,4E0,1.8E1,3.7E1,1.98E2,1.84E2,1.41E2,1.1E1,1.5E1,7.8E1,2.24E2,6.69E2,1.87E3,5.7E1,2.41E2,1.895E3,5E0,1.048E3,2E0,2.833E3,5.12E2,6.47E2,7.16E2,1.297E3,3.72E2,3.42E2,2.248E3,4.555E3,1.862E3,2.437E3,4.702E3,2.596E3,2.475E3,2.665E3,5.702E3,4.48E3,8.757E3,7.97E2,4.88E2,3.46E2,1.808E3,2.9E1,5.581E3,5.89E2,3.428E3,1.237E3,4.443E3,2E0,3.1E1,1.5E1,3.1E1,4.606E3,7.66E2,4.39E2,1.007E3,6E0,1.2E1,2.2E1,1.5E1,3.2E1,1.66E2,9.1E1,9.3E1,5.7E1,8.4E1,4E0,1.1E1],"tree_param":{"num_deleted":"0","num_feature":"9","num_nodes":"121","size_leaf_vector":"1"}},{"base_weights":[1.8074676E-4,-6.818068E-2,1.0341706E-1,-1.974407E-1,-2.9395401E-2,9.4148815E-2,5.728147E-1,-3.061207E-1,-1.4964664E-1,-9.0043716E-2,2.2202676E-2,6.662323E-2,1.9427434E-1,3.1098822E-1,8.353185E-1,-4.4578788E-1,-2.7479464E-1,-2.2988044E-1,-9.985938E-2,-1.6874303E-1,-6.9080874E-2,-1.2062879E-2,3.7447207E-2,-3.0499114E-2,9.1695994E-2,2.5060055E-1,1.5802595E-1,7.594655E-2,4.7186282E-1,1.2386376E0,6.921383E-1,-2.3603922E-2,-4.1809103E-1,-3.350054E-1,-2.3532517E-1,-2.3188488E-1,8.146687E-1,-1.2837012E-1,-3.1216087E-2,-1.2166214E-1,-1.9971886E-1,-1.0369727E-1,-3.572697E-2,-5.7384383E-2,1.5793692E-2,1.6849099E-2,5.4329123E-2,-3.4929775E-2,4.6071514E-1,5.60073E-1,8.913568E-2,5.4116863E-1,2.4057707E-1,1.2811579E-1,2.3969819E-1,3.42693E-2,8.0337965E-1,3.6817917E-1,1.0056574E0,1.4211704E-1,1.2789893E0,7.7229613E-1,1.6200772E-1,-2.348955E-2,-1.8858043E-2,-1.7932719E-2,-6.56754E-3,7.067745E-3,-1.2406652E-2,-1.0044637E-2,-1.42979445E-2,5.942272E-2,2.2365744E-3,-7.5729275E-3,-3.5655492E-3,-5.458738E-3,-5.54951E-4,-8.179425E-3,-1.6333818E-4,-1.6875118E-2,-8.8446075E-3,-3.650073E-3,-7.0258207E-3,-1.5312337E-3,-9.08306E-3,-4.7012973E-3,-1.471497E-3,-8.6132495E-5,5.55543E-3,-1.8308429E-3,1.3879699E-3,2.2337981E-3,4.6996004E-3,-3.5611056E-3,1.6705902E-6,-1.3357903E-2,2.8828755E-2,4.255995E-2,1.3727084E-2,3.6149533E-3,6.9919527E-3,1.7266356E-3,4.1249502E-2,5.318887E-3,1.3643871E-2,2.0269055E-2,6.122617E-3,5.2327614E-2,1.1205252E-2,-1.4385134E-2,4.9476684E-3,-4.1300855E-3,4.824051E-2,6.182755E-2,1.41194435E-2,5.9258938E-2,2.6404846E-2,3.476992E-2,-1.3705476E-2,3.0621668E-2,6.840029E-2,2.6431192E-2,5.218743E-2,-1.737126E-2,2.226988E-2],"categories":[],"categories_nodes":[],"categories_segments":[],"categories_sizes":[],"default_left":[0,0,0,0,0,0,0,0,0,0,0,0,0,0,0,0,0,0,0,0,0,0,0,0,0,0,0,0,0,0,0,0,0,0,0,0,0,0,0,0,0,0,0,0,0,0,0,0,0,0,0,0,0,0,0,0,0,0,0,0,0,0,0,0,0,0,0,0,0,0,0,0,0,0,0,0,0,0,0,0,0,0,0,0,0,0,0,0,0,0,0,0,0,0,0,0,0,0,0,0,0,0,0,0,0,0,0,0,0,0,0,0,0,0,0,0,0,0,0,0,0,0,0,0,0],"id":10,"left_children":[1,3,5,7,9,11,13,15,17,19,21,23,25,27,29,31,33,35,37,39,41,43,45,47,49,51,53,55,57,59,61,-1,63,65,67,69,71,73,75,77,79,81,83,85,87,89,91,93,95,97,99,101,103,105,107,109,111,113,115,117,119,121,123,-1,-1,-1,-1,-1,-1,-1,-1,-1,-1,-1,-1,-1,-1,-1,-1,-1,-1,-1,-1,-1,-1,-1,-1,-1,-1,-1,-1,-1,-1,-1,-1,-1,-1,-1,-1,-1,-1,-1,-1,-1,-1,-1,-1,-1,-1,-1,-1,-1,-1,-1,-1,-1,-1,-1,-1,-1,-1,-1,-1,-1,-1],"loss_changes":[5.76574E2,2.4640712E2,1.415416E2,5.887784E1,1.1831594E2,8.795352E1,4.3040405E1,1.5033264E1,3.1458664E1,2.8661194E1,1.0671793E1,6.0971024E1,1.4011597E1,1.1950645E1,1.7275345E1,2.6356506E-1,6.6513977E0,6.5057526E0,9.517139E0,5.3060455E0,1.5844223E1,7.943305E0,4.915716E0,1.1198456E1,2.3814072E1,7.7131805E0,1.0204742E1,3.913732E0,1.003474E1,3.402214E0,9.818497E0,0E0,4.936142E-1,5.3422318E0,8.304207E0,4.99028E0,1.673588E0,4.517124E0,2.2398887E0,7.211994E0,6.8690643E0,7.6016006E0,5.200675E0,2.4504175E0,6.5065E0,3.716825E0,2.9707184E0,6.4624877E0,4.0332775E0,8.743874E0,1.6886642E1,1.2769184E1,1.1262833E1,4.769535E0,1.3881783E1,2.6109498E0,1.0808659E0,1.14959755E1,1.9460831E0,1.1117767E0,3.7902832E0,1.2875786E1,4.7745223E0,0E0,0E0,0E0,0E0,0E0,0E0,0E0,0E0,0E0,0E0,0E0,0E0,0E0,0E0,0E0,0E0,0E0,0E0,0E0,0E0,0E0,0E0,0E0,0E0,0E0,0E0,0E0,0E0,0E0,0E0,0E0,0E0,0E0,0E0,0E0,0E0,0E0,0E0,0E0,0E0,0E0,0E0,0E0,0E0,0E0,0E0,0E0,0E0,0E0,0E0,0E0,0E0,0E0,0E0,0E0,0E0,0E0,0E0,0E0,0E0,0E0,0E0],"parents":[2147483647,0,0,1,1,2,2,3,3,4,4,5,5,6,6,7,7,8,8,9,9,10,10,11,11,12,12,13,13,14,14,15,15,16,16,17,17,18,18,19,19,20,20,21,21,22,22,23,23,24,24,25,25,26,26,27,27,28,28,29,29,30,30,32,32,33,33,34,34,35,35,36,36,37,37,38,38,39,39,40,40,41,41,42,42,43,43,44,44,45,45,46,46,47,47,48,48,49,49,50,50,51,51,52,52,53,53,54,54,55,55,56,56,57,57,58,58,59,59,60,60,61,61,62,62],"right_children":[2,4,6,8,10,12,14,16,18,20,22,24,26,28,30,32,34,36,38,40,42,44,46,48,50,52,54,56,58,60,62,-1,64,66,68,70,72,74,76,78,80,82,84,86,88,90,92,94,96,98,100,102,104,106,108,110,112,114,116,118,120,122,124,-1,-1,-1,-1,-1,-1,-1,-1,-1,-1,-1,-1,-1,-1,-1,-1,-1,-1,-1,-1,-1,-1,-1,-1,-1,-1,-1,-1,-1,-1,-1,-1,-1,-1,-1,-1,-1,-1,-1,-1,-1,-1,-1,-1,-1,-1,-1,-1,-1,-1,-1,-1,-1,-1,-1,-1,-1,-1,-1,-1,-1,-1],"split_conditions":[4.9390244E1,-2.1783182E-1,7.76E-1,-3.7494618E-1,2.14925E1,6.626929E1,1.8873085E0,-7.6722187E-1,7.765E0,3.5725E0,4.394E1,8.2225E0,5.07646E5,6.948052E1,8.07E0,-8.901099E-1,3.035E0,2.954136E0,4.91375E1,1.244503E-1,4.030612E1,3.677686E1,3.799628E1,1.4420595E0,-2.1034482E-1,3.7416574E-2,3.5847795E0,1.3485918E0,6.7525E0,5.4505733E1,1.1158535E1,-2.3603922E-2,1.1117E4,4.152047E1,1.9687136E-1,6.6057E5,9.7476065E-1,3.582343E1,5.96325E4,1.71E0,1.5775E0,7.2398937E-1,1.9078948E-1,3.08725E1,3.0548416E7,5.7116E4,2.2222E2,5.5230938E1,4.8375E0,2.6212875E5,2.7955978E0,2.5572E4,6.157497E-1,2.0175E0,3.14575E1,7.90234E-2,5.7419598E1,2.456E3,1.00275E1,4.352394E-1,2.081658E0,3.5847795E0,3.3700879E0,-2.348955E-2,-1.8858043E-2,-1.7932719E-2,-6.56754E-3,7.067745E-3,-1.2406652E-2,-1.0044637E-2,-1.42979445E-2,5.942272E-2,2.2365744E-3,-7.5729275E-3,-3.5655492E-3,-5.458738E-3,-5.54951E-4,-8.179425E-3,-1.6333818E-4,-1.6875118E-2,-8.8446075E-3,-3.650073E-3,-7.0258207E-3,-1.5312337E-3,-9.08306E-3,-4.7012973E-3,-1.471497E-3,-8.6132495E-5,5.55543E-3,-1.8308429E-3,1.3879699E-3,2.2337981E-3,4.6996004E-3,-3.5611056E-3,1.6705902E-6,-1.3357903E-2,2.8828755E-2,4.255995E-2,1.3727084E-2,3.6149533E-3,6.9919527E-3,1.7266356E-3,4.1249502E-2,5.318887E-3,1.3643871E-2,2.0269055E-2,6.122617E-3,5.2327614E-2,1.1205252E-2,-1.4385134E-2,4.9476684E-3,-4.1300855E-3,4.824051E-2,6.182755E-2,1.41194435E-2,5.9258938E-2,2.6404846E-2,3.476992E-2,-1.3705476E-2,3.0621668E-2,6.840029E-2,2.6431192E-2,5.218743E-2,-1.737126E-2,2.226988E-2],"split_indices":[8,5,5,5,0,8,3,5,0,0,0,0,6,8,0,5,0,3,0,3,8,8,8,3,4,2,3,2,0,8,3,0,6,8,2,6,2,8,6,0,0,3,4,0,6,6,0,8,0,6,2,6,3,0,0,3,8,6,0,2,3,3,2,0,0,0,0,0,0,0,0,0,0,0,0,0,0,0,0,0,0,0,0,0,0,0,0,0,0,0,0,0,0,0,0,0,0,0,0,0,0,0,0,0,0,0,0,0,0,0,0,0,0,0,0,0,0,0,0,0,0,0,0,0,0],"split_type":[0,0,0,0,0,0,0,0,0,0,0,0,0,0,0,0,0,0,0,0,0,0,0,0,0,0,0,0,0,0,0,0,0,0,0,0,0,0,0,0,0,0,0,0,0,0,0,0,0,0,0,0,0,0,0,0,0,0,0,0,0,0,0,0,0,0,0,0,0,0,0,0,0,0,0,0,0,0,0,0,0,0,0,0,0,0,0,0,0,0,0,0,0,0,0,0,0,0,0,0,0,0,0,0,0,0,0,0,0,0,0,0,0,0,0,0,0,0,0,0,0,0,0,0,0],"sum_hessian":[8.1696E4,4.915E4,3.2546E4,1.1343E4,3.7807E4,3.1917E4,6.29E2,3.463E3,7.88E3,1.7379E4,2.0428E4,2.5036E4,6.881E3,3.16E2,3.13E2,6.32E2,2.831E3,3.016E3,4.864E3,3.654E3,1.3725E4,6.29E3,1.4138E4,5.137E3,1.9899E4,2.692E3,4.189E3,1.29E2,1.87E2,8E1,2.33E2,3.16E2,3.16E2,1.118E3,1.713E3,3.011E3,5E0,3.436E3,1.428E3,1.452E3,2.202E3,6.734E3,6.991E3,2.394E3,3.896E3,6.369E3,7.769E3,5.092E3,4.5E1,1.07E2,1.9792E4,8.8E1,2.604E3,3.068E3,1.121E3,1.23E2,6E0,1.58E2,2.9E1,3E0,7.7E1,2.02E2,3.1E1,1.35E2,1.81E2,1.001E3,1.17E2,5.6E1,1.657E3,1.917E3,1.094E3,3E0,2E0,2.445E3,9.91E2,2.92E2,1.136E3,1.072E3,3.8E2,3.11E2,1.891E3,3.674E3,3.06E3,6.756E3,2.35E2,1.035E3,1.359E3,3.292E3,6.04E2,1.079E3,5.29E3,6.25E3,1.519E3,2.498E3,2.594E3,6E0,3.9E1,5.2E1,5.5E1,1.486E4,4.932E3,3.2E1,5.6E1,5.06E2,2.098E3,6E1,3.008E3,2E1,1.101E3,2E1,1.03E2,1E0,5E0,1.3E1,1.45E2,2E1,9E0,1E0,2E0,1E1,6.7E1,1.08E2,9.4E1,1.1E1,2E1],"tree_param":{"num_deleted":"0","num_feature":"9","num_nodes":"125","size_leaf_vector":"1"}},{"base_weights":[2.2542464E-4,-1.2006724E-1,5.2213654E-2,-2.712519E-1,-8.6348E-2,4.700961E-2,5.180002E-1,-3.548921E-1,-2.2452691E-1,-1.3107426E-1,-1.29841985E-2,-4.2278305E-2,6.883604E-2,1.9550446E-1,7.4261177E-1,-4.2041096E-1,-3.1284973E-1,-3.32707E-1,-1.9822316E-1,-2.04791E-1,-1.0872083E-1,-2.4650224E-2,6.506084E-2,-3.9134376E-2,-3.7459224E-2,5.093459E-2,1.5255588E-1,-3.3563876E-1,2.4846621E-1,8.0609286E-1,-1.3073725E-1,-2.213797E-2,-3.9635143E-1,-4.6158984E-1,-2.9899642E-1,-1.7450915E-1,-3.5158262E-1,-1.40287E-1,-2.2689572E-1,-1.6467284E-1,-2.3785941E-1,-1.3034323E-1,-7.4245006E-2,-6.584908E-2,1.9509346E-3,1.3430533E-1,3.1324632E-2,-9.3516365E-2,-1.2981971E-2,3.097338E-2,8.802618E-2,1.346822E-1,3.5198548E-1,-2.5331462E-2,-1.2242921E-1,8.898555E-1,1.884834E-1,1.0028548E0,6.449144E-1,2.6272005E-1,-3.202027E-1,-1.40462965E-2,-2.1822803E-2,-1.390246E-2,-2.4607014E-2,3.249445E-2,-1.50912E-2,-1.3400488E-2,2.9921273E-2,7.559626E-3,-1.779623E-2,1.842092E-3,-8.9449985E-3,-1.257778E-2,-4.3760026E-3,-9.130358E-3,2.5549263E-3,-1.172286E-2,-2.6983676E-2,-3.6783107E-3,-7.3864097E-3,-3.818063E-3,9.835754E-3,-3.4113184E-3,2.505884E-2,-1.7557228E-3,8.4629556E-4,1.2251333E-3,1.0463828E-2,1.3305198E-3,1.870393E-2,-6.782384E-3,-3.4915337E-3,5.5617425E-3,-1.4318086E-3,2.571024E-4,2.5967646E-3,3.7316892E-3,6.873446E-3,5.4090437E-3,9.883306E-3,7.546719E-2,1.6586665E-2,3.187948E-2,-1.6909597E-2,1.0383606E-2,6.6366926E-2,3.257007E-2,5.9817126E-3,1.9501062E-3,5.4572206E-2,1.9886436E-2,4.26312E-2,5.051136E-3,1.4724374E-2,-1.850732E-2,1.3221E-2],"categories":[],"categories_nodes":[],"categories_segments":[],"categories_sizes":[],"default_left":[0,0,0,0,0,0,0,0,0,0,0,0,0,0,0,0,0,0,0,0,0,0,0,0,0,0,0,0,0,0,0,0,0,0,0,0,0,0,0,0,0,0,0,0,0,0,0,0,0,0,0,0,0,0,0,0,0,0,0,0,0,0,0,0,0,0,0,0,0,0,0,0,0,0,0,0,0,0,0,0,0,0,0,0,0,0,0,0,0,0,0,0,0,0,0,0,0,0,0,0,0,0,0,0,0,0,0,0,0,0,0,0,0,0,0,0,0],"id":11,"left_children":[1,3,5,7,9,11,13,15,17,19,21,23,25,27,29,31,33,35,37,39,41,43,45,47,-1,49,51,53,55,57,59,-1,61,63,65,67,69,71,73,75,77,79,81,83,85,87,89,91,93,95,97,99,101,-1,103,105,107,109,111,113,115,-1,-1,-1,-1,-1,-1,-1,-1,-1,-1,-1,-1,-1,-1,-1,-1,-1,-1,-1,-1,-1,-1,-1,-1,-1,-1,-1,-1,-1,-1,-1,-1,-1,-1,-1,-1,-1,-1,-1,-1,-1,-1,-1,-1,-1,-1,-1,-1,-1,-1,-1,-1,-1,-1,-1,-1],"loss_changes":[5.1076688E2,1.2561777E2,1.3820761E2,1.7483276E1,6.6126114E1,1.0991338E2,4.5489655E1,4.3005524E0,8.146286E0,2.060846E1,6.952172E0,2.4593346E1,6.791359E1,7.3972654E0,2.0674057E1,1.6111755E-1,1.8895569E0,1.6198082E0,3.828743E0,3.8240204E0,7.1533585E0,7.279344E0,2.315487E0,1.5687296E1,0E0,2.7642067E1,2.840834E1,8.12937E-1,8.950218E0,1.0326218E1,2.0223343E0,0E0,1.3170395E0,3.229561E-1,2.6189575E0,4.6411133E0,1.1496925E0,5.28666E0,5.315628E0,5.1134796E0,1.5102615E0,5.816765E0,2.1401215E0,3.5470371E0,2.2413447E0,2.6702847E0,1.0710313E0,3.5650368E0,1.4489822E1,1.314456E1,8.639488E0,1.221019E1,1.4875336E1,0E0,2.1834323E0,5.693221E0,6.87006E0,1.3107025E1,9.570053E0,1.6480386E-2,6.234418E-1,0E0,0E0,0E0,0E0,0E0,0E0,0E0,0E0,0E0,0E0,0E0,0E0,0E0,0E0,0E0,0E0,0E0,0E0,0E0,0E0,0E0,0E0,0E0,0E0,0E0,0E0,0E0,0E0,0E0,0E0,0E0,0E0,0E0,0E0,0E0,0E0,0E0,0E0,0E0,0E0,0E0,0E0,0E0,0E0,0E0,0E0,0E0,0E0,0E0,0E0,0E0,0E0,0E0,0E0,0E0,0E0],"parents":[2147483647,0,0,1,1,2,2,3,3,4,4,5,5,6,6,7,7,8,8,9,9,10,10,11,11,12,12,13,13,14,14,15,15,16,16,17,17,18,18,19,19,20,20,21,21,22,22,23,23,25,25,26,26,27,27,28,28,29,29,30,30,32,32,33,33,34,34,35,35,36,36,37,37,38,38,39,39,40,40,41,41,42,42,43,43,44,44,45,45,46,46,47,47,48,48,49,49,50,50,51,51,52,52,54,54,55,55,56,56,57,57,58,58,59,59,60,60],"right_children":[2,4,6,8,10,12,14,16,18,20,22,24,26,28,30,32,34,36,38,40,42,44,46,48,-1,50,52,54,56,58,60,-1,62,64,66,68,70,72,74,76,78,80,82,84,86,88,90,92,94,96,98,100,102,-1,104,106,108,110,112,114,116,-1,-1,-1,-1,-1,-1,-1,-1,-1,-1,-1,-1,-1,-1,-1,-1,-1,-1,-1,-1,-1,-1,-1,-1,-1,-1,-1,-1,-1,-1,-1,-1,-1,-1,-1,-1,-1,-1,-1,-1,-1,-1,-1,-1,-1,-1,-1,-1,-1,-1,-1,-1,-1,-1,-1,-1],"split_conditions":[-1.1319282E-1,-3.39381E-1,7.76E-1,-5.0091743E-1,2.8695E1,8.105E0,1.472496E0,-7.6722187E-1,4.2248455E-1,3.7141666E0,3.6032916E2,8.77825E0,1.337386E-1,7.90234E-2,1.226012E1,2.2700955E-1,1.7833333E-1,2.456E3,1.01956E5,5.7116E4,-1.6778524E-1,-1.9432624E-1,3.948212E1,-2.3102967E-2,-3.7459224E-2,7.825833E1,4.1297936E-1,1.2093023E-1,2.456E3,7.8756814E0,1.1187585E6,-2.213797E-2,8.431666E0,2.348436E-2,1.8669751E-1,1.9200695E-1,-6.666667E-1,2.2196096E-1,5.0759167E1,4.6552268E-1,3.8594081E0,4.7569E4,3.2889996E0,1.9078948E-1,1.01956E5,2.1071E5,1.3000092E7,3.2608333E0,8.9747116E-2,-1.6671542E-2,2.7433334E2,2.5541127E0,8.4853735E0,-2.5331462E-2,2.540193E-1,1.3232758E0,9.128709E-2,2.7734377E0,3.2889996E0,1.3635098E1,3.4483334E1,-1.40462965E-2,-2.1822803E-2,-1.390246E-2,-2.4607014E-2,3.249445E-2,-1.50912E-2,-1.3400488E-2,2.9921273E-2,7.559626E-3,-1.779623E-2,1.842092E-3,-8.9449985E-3,-1.257778E-2,-4.3760026E-3,-9.130358E-3,2.5549263E-3,-1.172286E-2,-2.6983676E-2,-3.6783107E-3,-7.3864097E-3,-3.818063E-3,9.835754E-3,-3.4113184E-3,2.505884E-2,-1.7557228E-3,8.4629556E-4,1.2251333E-3,1.0463828E-2,1.3305198E-3,1.870393E-2,-6.782384E-3,-3.4915337E-3,5.5617425E-3,-1.4318086E-3,2.571024E-4,2.5967646E-3,3.7316892E-3,6.873446E-3,5.4090437E-3,9.883306E-3,7.546719E-2,1.6586665E-2,3.187948E-2,-1.6909597E-2,1.0383606E-2,6.6366926E-2,3.257007E-2,5.9817126E-3,1.9501062E-3,5.4572206E-2,1.9886436E-2,4.26312E-2,5.051136E-3,1.4724374E-2,-1.850732E-2,1.3221E-2],"split_indices":[5,5,5,5,1,1,3,5,3,1,1,7,5,3,3,2,1,6,6,6,5,5,3,5,0,1,5,4,6,7,6,0,1,3,7,2,4,2,1,3,7,6,3,4,6,6,6,1,3,5,1,2,7,0,4,5,2,7,3,3,1,0,0,0,0,0,0,0,0,0,0,0,0,0,0,0,0,0,0,0,0,0,0,0,0,0,0,0,0,0,0,0,0,0,0,0,0,0,0,0,0,0,0,0,0,0,0,0,0,0,0,0,0,0,0,0,0],"split_type":[0,0,0,0,0,0,0,0,0,0,0,0,0,0,0,0,0,0,0,0,0,0,0,0,0,0,0,0,0,0,0,0,0,0,0,0,0,0,0,0,0,0,0,0,0,0,0,0,0,0,0,0,0,0,0,0,0,0,0,0,0,0,0,0,0,0,0,0,0,0,0,0,0,0,0,0,0,0,0,0,0,0,0,0,0,0,0,0,0,0,0,0,0,0,0,0,0,0,0,0,0,0,0,0,0,0,0,0,0,0,0,0,0,0,0,0,0],"sum_hessian":[8.1671E4,2.4645E4,5.7026E4,4.493E3,2.0152E4,5.6397E4,6.29E2,1.608E3,2.885E3,1.2519E4,7.633E3,1.1078E4,4.5319E4,2.59E2,3.7E2,6.25E2,9.83E2,5.62E2,2.323E3,2.911E3,9.608E3,6.641E3,9.92E2,1.103E4,4.8E1,3.7337E4,7.982E3,2.3E1,2.36E2,3.45E2,2.5E1,3.15E2,3.1E2,8.1E1,9.02E2,6.1E1,5.01E2,7.71E2,1.552E3,1.318E3,1.593E3,5.903E3,3.705E3,2.605E3,4.036E3,3.24E2,6.68E2,3.581E3,7.449E3,2.4275E4,1.3062E4,7.327E3,6.55E2,1.2E1,1.1E1,1.9E1,2.17E2,1.53E2,1.92E2,8E0,1.7E1,8.2E1,2.28E2,1.3E1,6.8E1,2E0,9E2,5.5E1,6E0,4E0,4.97E2,1.38E2,6.33E2,1.318E3,2.34E2,1.217E3,1.01E2,1.577E3,1.6E1,1.385E3,4.518E3,3.677E3,2.8E1,2.595E3,1E1,1.161E3,2.875E3,1.32E2,1.92E2,6.6E2,8E0,1.287E3,2.294E3,8.33E2,6.616E3,1.0875E4,1.34E4,1.028E4,2.782E3,5.159E3,2.168E3,1E1,6.45E2,2E0,9E0,8E0,1.1E1,2.7E1,1.9E2,1.3E1,1.4E2,8.9E1,1.03E2,2E0,6E0,1.6E1,1E0],"tree_param":{"num_deleted":"0","num_feature":"9","num_nodes":"117","size_leaf_vector":"1"}},{"base_weights":[-5.8594893E-4,-5.0551068E-2,1.1776834E-1,-1.8198073E-1,-1.9017631E-2,1.0515711E-1,4.432727E-1,-2.7128404E-1,-1.3537449E-1,-8.103881E-2,2.0536492E-2,7.7628426E-2,1.7350152E-1,1.6875616E-1,6.6829085E-1,-3.9925942E-1,-2.4554722E-1,-2.0298445E-1,-9.2540726E-2,-1.4495367E-1,-6.0541242E-2,5.577651E-4,5.5826657E-2,3.4936693E-2,1.2244861E-1,4.076757E-1,1.6724083E-1,-3.883913E-3,3.0447274E-1,7.381534E-1,2.5896624E-1,-2.1102702E-2,-3.7257645E-1,-2.8477943E-1,-1.8872659E-1,-2.3805237E-1,-1.7196774E-1,-1.1989447E-1,-3.5452366E-2,5.8775984E-2,-1.5374117E-1,-5.7801083E-2,-6.161762E-1,-3.838606E-2,2.494752E-2,4.2344585E-2,7.774275E-2,-3.1160884E-2,5.593312E-2,3.8711196E-1,1.1399958E-1,6.4266384E-1,1.3412389E-2,4.125214E-2,1.8117072E-1,-6.072882E-2,2.5289714E-1,7.8434855E-1,2.1089827E-1,4.9152943E-1,9.646069E-1,8.869638E-1,2.5895014E-2,-1.1861337E-2,-2.0773264E-2,-1.4949769E-2,-9.301948E-3,-1.1170337E-2,3.088235E-3,-1.4776177E-2,-1.0830903E-2,-3.7586994E-3,-9.622438E-3,3.9792873E-2,-6.0684723E-3,-2.902361E-3,1.8607952E-3,5.240456E-4,4.9297504E-2,-9.218874E-3,-6.0223243E-3,-1.5467346E-3,-4.9786433E-3,-3.182624E-2,1.5050684E-3,-3.9357413E-3,-7.336447E-4,9.572645E-4,3.3074853E-3,5.760367E-3,1.7056698E-3,1.0955128E-2,3.6480706E-3,5.418244E-3,-2.8266578E-3,6.890455E-2,2.7247116E-3,9.236573E-3,4.086956E-2,5.3466506E-2,5.5776797E-3,1.2756008E-2,5.0926138E-2,5.2248444E-2,-9.267077E-4,6.332475E-3,4.083001E-4,7.911629E-3,1.2779238E-2,1.5965011E-3,-1.3779162E-2,5.0451037E-2,5.6905216E-3,-2.4797328E-2,4.168443E-2,3.2009076E-2,7.4526495E-3,3.616869E-2,1.7021282E-2,5.1629495E-2,2.4981393E-2,6.2598296E-2,9.148248E-3,-2.5480151E-2,7.810955E-3],"categories":[],"categories_nodes":[],"categories_segments":[],"categories_sizes":[],"default_left":[0,0,0,0,0,0,0,0,0,0,0,0,0,0,0,0,0,0,0,0,0,0,0,0,0,0,0,0,0,0,0,0,0,0,0,0,0,0,0,0,0,0,0,0,0,0,0,0,0,0,0,0,0,0,0,0,0,0,0,0,0,0,0,0,0,0,0,0,0,0,0,0,0,0,0,0,0,0,0,0,0,0,0,0,0,0,0,0,0,0,0,0,0,0,0,0,0,0,0,0,0,0,0,0,0,0,0,0,0,0,0,0,0,0,0,0,0,0,0,0,0,0,0,0,0],"id":12,"left_children":[1,3,5,7,9,11,13,15,17,19,21,23,25,27,29,31,33,35,37,39,41,43,45,47,49,51,53,55,57,59,61,-1,63,65,67,69,71,73,75,77,79,81,83,85,87,89,91,93,95,97,99,101,103,105,107,109,111,113,115,117,119,121,123,-1,-1,-1,-1,-1,-1,-1,-1,-1,-1,-1,-1,-1,-1,-1,-1,-1,-1,-1,-1,-1,-1,-1,-1,-1,-1,-1,-1,-1,-1,-1,-1,-1,-1,-1,-1,-1,-1,-1,-1,-1,-1,-1,-1,-1,-1,-1,-1,-1,-1,-1,-1,-1,-1,-1,-1,-1,-1,-1,-1,-1,-1],"loss_changes":[4.835303E2,2.3827634E2,9.959024E1,4.626654E1,1.1375623E2,4.3951813E1,5.5790176E1,1.246405E1,2.1156677E1,2.3647697E1,1.9962828E1,3.1873817E1,9.767822E0,9.5841E0,1.4021271E1,2.3019409E-1,7.030655E0,3.0426712E0,6.9885025E0,7.8575897E0,2.0783436E1,1.7173891E1,3.0208874E0,1.1845339E1,1.812902E1,1.6111992E1,1.1463257E1,2.65736E0,1.0117628E1,2.320578E1,1.0808275E1,0E0,1.6545448E0,2.5805054E0,1.1315678E1,1.5718918E0,2.9750404E0,4.185211E0,2.3862414E0,8.139251E0,4.2649536E0,1.5268593E1,9.0026283E-1,6.6577206E0,2.656653E0,3.7978687E0,2.6179562E0,7.2916226E0,1.2246981E1,2.1706112E1,1.8287148E1,1.5617283E1,2.1943753E0,1.8411716E0,1.0004776E1,2.9751155E0,3.3556657E0,2.7507496E0,5.0285625E0,6.935425E0,6.438446E0,4.9101524E0,3.9179661E0,0E0,0E0,0E0,0E0,0E0,0E0,0E0,0E0,0E0,0E0,0E0,0E0,0E0,0E0,0E0,0E0,0E0,0E0,0E0,0E0,0E0,0E0,0E0,0E0,0E0,0E0,0E0,0E0,0E0,0E0,0E0,0E0,0E0,0E0,0E0,0E0,0E0,0E0,0E0,0E0,0E0,0E0,0E0,0E0,0E0,0E0,0E0,0E0,0E0,0E0,0E0,0E0,0E0,0E0,0E0,0E0,0E0,0E0,0E0,0E0,0E0,0E0],"parents":[2147483647,0,0,1,1,2,2,3,3,4,4,5,5,6,6,7,7,8,8,9,9,10,10,11,11,12,12,13,13,14,14,15,15,16,16,17,17,18,18,19,19,20,20,21,21,22,22,23,23,24,24,25,25,26,26,27,27,28,28,29,29,30,30,32,32,33,33,34,34,35,35,36,36,37,37,38,38,39,39,40,40,41,41,42,42,43,43,44,44,45,45,46,46,47,47,48,48,49,49,50,50,51,51,52,52,53,53,54,54,55,55,56,56,57,57,58,58,59,59,60,60,61,61,62,62],"right_children":[2,4,6,8,10,12,14,16,18,20,22,24,26,28,30,32,34,36,38,40,42,44,46,48,50,52,54,56,58,60,62,-1,64,66,68,70,72,74,76,78,80,82,84,86,88,90,92,94,96,98,100,102,104,106,108,110,112,114,116,118,120,122,124,-1,-1,-1,-1,-1,-1,-1,-1,-1,-1,-1,-1,-1,-1,-1,-1,-1,-1,-1,-1,-1,-1,-1,-1,-1,-1,-1,-1,-1,-1,-1,-1,-1,-1,-1,-1,-1,-1,-1,-1,-1,-1,-1,-1,-1,-1,-1,-1,-1,-1,-1,-1,-1,-1,-1,-1,-1,-1,-1,-1,-1,-1],"split_conditions":[5.3479126E1,-2.2137405E-1,6.053459E-1,-3.612732E-1,1.54125E1,6.626929E1,1.4880483E0,-7.6722187E-1,7.6275E0,3.5725E0,4.5263157E1,9.7476065E-1,1.244503E-1,6.948052E1,2.5616442E1,2.4283053E-1,2.3536258E0,4.6552268E-1,4.21225E1,2.348436E-2,1.7233961E1,4.394E1,7.8905E1,6.0125E0,1.1767609E1,2.0175E0,4.491836E-1,1.2318008E0,9.98332E-2,2.7550097E0,7.114026E1,-2.1102702E-2,3.8741002E0,3.9336494E1,3.6012863E1,-3.066202E-1,1.7136705E-1,7.8756814E0,3.325075E2,7.65E-1,4.1666668E1,6.732615E-1,1.5485908E0,3.4649475E1,3.153825E2,1.7820614E1,8.09055E1,8.9747116E-2,-2.9301533E-1,1.2925342E0,-2.423756E-1,1.5775E0,-4.6605878E-2,8.680579E-2,1.0181818E-1,2.869753E0,1.2603354E0,1.025E-1,6.3454295E-3,7.4446096E0,6.2010455E0,4.21225E1,2.9840387E1,-1.1861337E-2,-2.0773264E-2,-1.4949769E-2,-9.301948E-3,-1.1170337E-2,3.088235E-3,-1.4776177E-2,-1.0830903E-2,-3.7586994E-3,-9.622438E-3,3.9792873E-2,-6.0684723E-3,-2.902361E-3,1.8607952E-3,5.240456E-4,4.9297504E-2,-9.218874E-3,-6.0223243E-3,-1.5467346E-3,-4.9786433E-3,-3.182624E-2,1.5050684E-3,-3.9357413E-3,-7.336447E-4,9.572645E-4,3.3074853E-3,5.760367E-3,1.7056698E-3,1.0955128E-2,3.6480706E-3,5.418244E-3,-2.8266578E-3,6.890455E-2,2.7247116E-3,9.236573E-3,4.086956E-2,5.3466506E-2,5.5776797E-3,1.2756008E-2,5.0926138E-2,5.2248444E-2,-9.267077E-4,6.332475E-3,4.083001E-4,7.911629E-3,1.2779238E-2,1.5965011E-3,-1.3779162E-2,5.0451037E-2,5.6905216E-3,-2.4797328E-2,4.168443E-2,3.2009076E-2,7.4526495E-3,3.616869E-2,1.7021282E-2,5.1629495E-2,2.4981393E-2,6.2598296E-2,9.148248E-3,-2.5480151E-2,7.810955E-3],"split_indices":[8,5,5,5,0,8,3,5,0,0,8,2,3,8,7,2,3,3,0,3,7,0,0,0,7,0,3,3,2,3,8,0,3,8,8,5,2,7,0,0,8,3,2,8,0,7,7,3,5,3,4,0,4,5,4,7,3,0,4,7,3,0,7,0,0,0,0,0,0,0,0,0,0,0,0,0,0,0,0,0,0,0,0,0,0,0,0,0,0,0,0,0,0,0,0,0,0,0,0,0,0,0,0,0,0,0,0,0,0,0,0,0,0,0,0,0,0,0,0,0,0,0,0,0,0],"split_type":[0,0,0,0,0,0,0,0,0,0,0,0,0,0,0,0,0,0,0,0,0,0,0,0,0,0,0,0,0,0,0,0,0,0,0,0,0,0,0,0,0,0,0,0,0,0,0,0,0,0,0,0,0,0,0,0,0,0,0,0,0,0,0,0,0,0,0,0,0,0,0,0,0,0,0,0,0,0,0,0,0,0,0,0,0,0,0,0,0,0,0,0,0,0,0,0,0,0,0,0,0,0,0,0,0,0,0,0,0,0,0,0,0,0,0,0,0,0,0,0,0,0,0,0,0],"sum_hessian":[8.1764E4,5.7493E4,2.4271E4,1.1124E4,4.6369E4,2.3367E4,9.04E2,3.813E3,7.311E3,1.8056E4,2.8313E4,1.6659E4,6.708E3,4.08E2,4.96E2,6.36E2,3.177E3,2.834E3,4.477E3,4.383E3,1.3673E4,1.8079E4,1.0234E4,8.533E3,8.126E3,1.73E2,6.535E3,1.8E2,2.28E2,4.23E2,7.3E1,3.35E2,3.01E2,1.877E3,1.3E3,1.327E3,1.507E3,3.026E3,1.451E3,1.81E2,4.202E3,1.3607E4,6.6E1,6.962E3,1.1117E4,6.338E3,3.896E3,2.057E3,6.476E3,2.5E2,7.876E3,1.08E2,6.5E1,6.51E2,5.884E3,1.48E2,3.2E1,3.6E1,1.92E2,2.04E2,2.19E2,1.9E1,5.4E1,7.4E1,2.27E2,1.639E3,2.38E2,1.142E3,1.58E2,3.57E2,9.7E2,2.64E2,1.243E3,4E0,3.022E3,1.107E3,3.44E2,1.73E2,8E0,2.186E3,2.016E3,8.282E3,5.325E3,6.4E1,2E0,2.577E3,4.385E3,9.746E3,1.371E3,6.42E2,5.696E3,1.26E2,3.77E3,3.16E2,1.741E3,6E0,6.47E3,1.71E2,7.9E1,1.9E1,7.857E3,5.4E1,5.4E1,1E0,6.4E1,1.81E2,4.7E2,4.5E3,1.384E3,1.04E2,4.4E1,4E0,2.8E1,1E0,3.5E1,2.3E1,1.69E2,7.9E1,1.25E2,1.9E2,2.9E1,1.2E1,7E0,1E1,4.4E1],"tree_param":{"num_deleted":"0","num_feature":"9","num_nodes":"125","size_leaf_vector":"1"}},{"base_weights":[-7.7399294E-5,-6.7964904E-2,7.930549E-2,-1.6301739E-1,-2.8807094E-2,3.8382694E-2,1.5926467E-1,-2.3775312E-1,-1.3553254E-1,-7.053361E-2,3.0537767E-3,-1.9019658E-2,7.307301E-2,2.0418787E-1,1.2196202E-1,-1.7749697E-1,-2.938835E-1,-1.10783465E-1,-2.2550555E-1,-1.2639295E-1,-3.0189272E-2,6.93956E-3,-2.5362638E-1,-2.4554715E-2,4.5082211E-1,1.5776514E-1,6.796432E-2,1.535406E-1,2.7250838E-1,9.019174E-2,2.0575903E-1,-3.6542368E-1,-1.4508034E-1,-3.1111756E-1,-1.8905075E-1,-8.608865E-2,-1.7097218E-1,-2.3590076E-1,4.722237E-2,-5.0334338E-2,-1.5362436E-1,3.238668E-2,-4.5741014E-2,-4.0251527E-2,1.9933747E-2,-3.822058E-1,-4.3605875E-2,-9.0489775E-2,-2.756193E-3,5.727946E-1,-4.1776225E-1,3.214566E-1,5.311097E-2,5.308257E-3,8.092489E-2,5.2621577E-2,1.8392248E-1,3.497678E-1,1.7461364E-1,5.9896654E-1,8.692277E-2,1.0343261E0,1.7877537E-1,-2.9504285E-3,-2.1083022E-2,3.3449337E-3,-8.155338E-3,-1.790118E-2,-1.4394342E-2,3.6849514E-2,-9.966242E-3,-7.2181537E-3,-2.853867E-3,-2.0117082E-3,-9.101732E-3,-5.543701E-3,-1.2859921E-2,-1.3901566E-2,1.0286726E-2,-2.4883706E-2,-2.2723856E-3,-6.899328E-3,-1.202321E-2,6.6254474E-3,8.89312E-4,-3.978933E-3,-1.1170977E-3,5.4415997E-2,-2.0722619E-3,-1.1281061E-3,1.8146618E-3,-2.0221584E-2,-1.6194338E-2,7.6752566E-3,-3.9885323E-3,-2.1541802E-2,-4.035168E-3,5.417447E-4,-7.776571E-3,-6.969053E-3,3.751682E-2,5.6676576E-3,-2.3366837E-2,6.2841973E-3,2.1727594E-2,3.0606982E-4,1.55315325E-2,2.5738863E-2,1.8887984E-5,3.7916768E-3,8.376592E-3,7.5752535E-3,4.100908E-4,1.341207E-2,6.78617E-3,1.4074412E-2,4.6233557E-2,6.572306E-3,1.4002586E-2,-9.581444E-4,8.153896E-2,3.5691091E-3,8.447144E-3,4.9590166E-3,5.6819726E-2,7.5362E-3,1.33241555E-2],"categories":[],"categories_nodes":[],"categories_segments":[],"categories_sizes":[],"default_left":[0,0,0,0,0,0,0,0,0,0,0,0,0,0,0,0,0,0,0,0,0,0,0,0,0,0,0,0,0,0,0,0,0,0,0,0,0,0,0,0,0,0,0,0,0,0,0,0,0,0,0,0,0,0,0,0,0,0,0,0,0,0,0,0,0,0,0,0,0,0,0,0,0,0,0,0,0,0,0,0,0,0,0,0,0,0,0,0,0,0,0,0,0,0,0,0,0,0,0,0,0,0,0,0,0,0,0,0,0,0,0,0,0,0,0,0,0,0,0,0,0,0,0,0,0,0,0],"id":13,"left_children":[1,3,5,7,9,11,13,15,17,19,21,23,25,27,29,31,33,35,37,39,41,43,45,47,49,51,53,55,57,59,61,63,65,67,69,71,73,75,77,79,81,83,85,87,89,91,93,95,97,99,101,103,105,107,109,111,113,115,117,119,121,123,125,-1,-1,-1,-1,-1,-1,-1,-1,-1,-1,-1,-1,-1,-1,-1,-1,-1,-1,-1,-1,-1,-1,-1,-1,-1,-1,-1,-1,-1,-1,-1,-1,-1,-1,-1,-1,-1,-1,-1,-1,-1,-1,-1,-1,-1,-1,-1,-1,-1,-1,-1,-1,-1,-1,-1,-1,-1,-1,-1,-1,-1,-1,-1,-1],"loss_changes":[4.389643E2,1.6341553E2,1.2285669E2,2.6280792E1,4.1341908E1,4.9461437E1,2.1275635E1,1.1592758E1,2.0835205E1,3.033876E1,1.7589973E1,2.4344887E1,6.687813E0,1.9906479E1,1.8476128E1,1.00779E1,3.1588898E0,1.0908455E1,5.737976E0,1.1686165E1,7.6106596E0,1.0653483E1,7.08547E0,1.3293217E1,1.1787125E1,1.5058203E1,1.1858055E1,1.0148346E1,1.8491669E1,8.32864E0,4.2496086E1,4.1796722E0,5.437046E0,1.5619354E0,2.5635166E0,8.804951E0,3.0833817E0,5.153244E0,3.9239502E0,3.234494E0,5.6119614E0,2.2737112E0,4.9570723E0,5.098415E0,9.470978E0,8.0286026E-2,7.322211E-1,7.619343E0,1.4436688E1,1.2242914E1,4.2159104E-1,7.539734E0,6.508296E0,6.2896914E0,5.3227463E0,3.3721063E0,1.0310783E1,5.35179E1,4.8970184E0,2.0440649E1,6.3713417E0,5.614212E0,4.5114326E0,0E0,0E0,0E0,0E0,0E0,0E0,0E0,0E0,0E0,0E0,0E0,0E0,0E0,0E0,0E0,0E0,0E0,0E0,0E0,0E0,0E0,0E0,0E0,0E0,0E0,0E0,0E0,0E0,0E0,0E0,0E0,0E0,0E0,0E0,0E0,0E0,0E0,0E0,0E0,0E0,0E0,0E0,0E0,0E0,0E0,0E0,0E0,0E0,0E0,0E0,0E0,0E0,0E0,0E0,0E0,0E0,0E0,0E0,0E0,0E0,0E0,0E0,0E0,0E0],"parents":[2147483647,0,0,1,1,2,2,3,3,4,4,5,5,6,6,7,7,8,8,9,9,10,10,11,11,12,12,13,13,14,14,15,15,16,16,17,17,18,18,19,19,20,20,21,21,22,22,23,23,24,24,25,25,26,26,27,27,28,28,29,29,30,30,31,31,32,32,33,33,34,34,35,35,36,36,37,37,38,38,39,39,40,40,41,41,42,42,43,43,44,44,45,45,46,46,47,47,48,48,49,49,50,50,51,51,52,52,53,53,54,54,55,55,56,56,57,57,58,58,59,59,60,60,61,61,62,62],"right_children":[2,4,6,8,10,12,14,16,18,20,22,24,26,28,30,32,34,36,38,40,42,44,46,48,50,52,54,56,58,60,62,64,66,68,70,72,74,76,78,80,82,84,86,88,90,92,94,96,98,100,102,104,106,108,110,112,114,116,118,120,122,124,126,-1,-1,-1,-1,-1,-1,-1,-1,-1,-1,-1,-1,-1,-1,-1,-1,-1,-1,-1,-1,-1,-1,-1,-1,-1,-1,-1,-1,-1,-1,-1,-1,-1,-1,-1,-1,-1,-1,-1,-1,-1,-1,-1,-1,-1,-1,-1,-1,-1,-1,-1,-1,-1,-1,-1,-1,-1,-1,-1,-1,-1,-1,-1,-1],"split_conditions":[4.7058823E1,8.37E0,6.0997066E1,2.0175E0,3.14575E1,1.5515833E1,6.260275E5,1.3269639E-1,7.8558415E-1,3.5041172E1,1.1251202E2,1.9474834E0,1.7820614E1,6.842105E1,3.2384522E0,1.7833333E-1,4.152047E1,1.1933625E6,1.48297E0,1.0147499E0,6.4932775E-1,2.7520279E1,6.290125E2,3.8508334E0,1.5160079E1,3.2681275E5,2.626E1,3.3787325E-1,2.821919E1,6.653206E-2,2.6384224E1,3.085E2,2.348436E-2,9.025E-1,9.574271E-3,3.7141666E0,1.5798926E-1,2.0984E4,3.030303E1,7.272213E0,3.946067E0,8.2965E3,1.5165E1,3.2950058E1,1.14001E5,3.153825E2,3.36854E5,1.7833333E-1,1.4278503E1,7.664E3,5.184E3,7.664E3,1.7530931E0,4.1455618E-1,8.107208E7,9.539392E-2,2.3465086E1,2.7550097E0,1.6287E2,3.352638E6,7.564403E1,7.960335E5,6.6043844E0,-2.9504285E-3,-2.1083022E-2,3.3449337E-3,-8.155338E-3,-1.790118E-2,-1.4394342E-2,3.6849514E-2,-9.966242E-3,-7.2181537E-3,-2.853867E-3,-2.0117082E-3,-9.101732E-3,-5.543701E-3,-1.2859921E-2,-1.3901566E-2,1.0286726E-2,-2.4883706E-2,-2.2723856E-3,-6.899328E-3,-1.202321E-2,6.6254474E-3,8.89312E-4,-3.978933E-3,-1.1170977E-3,5.4415997E-2,-2.0722619E-3,-1.1281061E-3,1.8146618E-3,-2.0221584E-2,-1.6194338E-2,7.6752566E-3,-3.9885323E-3,-2.1541802E-2,-4.035168E-3,5.417447E-4,-7.776571E-3,-6.969053E-3,3.751682E-2,5.6676576E-3,-2.3366837E-2,6.2841973E-3,2.1727594E-2,3.0606982E-4,1.55315325E-2,2.5738863E-2,1.8887984E-5,3.7916768E-3,8.376592E-3,7.5752535E-3,4.100908E-4,1.341207E-2,6.78617E-3,1.4074412E-2,4.6233557E-2,6.572306E-3,1.4002586E-2,-9.581444E-4,8.153896E-2,3.5691091E-3,8.447144E-3,4.9590166E-3,