tree
version=v4
num_class=1
num_tree_per_iteration=1
label_index=0
max_feature_idx=16
objective=regression_l1
feature_names=retorno_1D retorno_5D retorno_21D retorno_63D volatilidade_21D volume_avg_21D volume_spike RSI_14 SMA_50 SMA_200 BB_upper BB_lower dividend_yield dividend_payment sector_encoded sector_avg_retorno_21D sector_avg_volume
feature_infos=[-0.99997668219999769:102.33333333333334] [-0.99997575149999762:107.54545454545455] [-0.99997249059999727:103.54545454545455] [-0.99998979999999893:121.27272727272727] [0:22.333268145579432] [15.238095238095237:41200614.380952381] [0.00026084981966192596:1520629.6875] [0:100] [0.033399999999999999:663.10860000000002] [0.052150000000000002:935.19490000000008] [15.797683174583387:800.0287689501788] [-596.03087671419576:13.827483041054382] none none [0:26] [-0.76656441717791413:9.5110107030193127] [10400:23345150]
tree_sizes=2984 3112 3106 3116 3117 3113 3120 3100 3126 3105 3097 3113 3093 3092 3091 3087 3128 3095 3089 3125 3117 3095 3122 3116 3125 3091 3096 3117 3095 3118 3092 3088 3115 3090 3103 3093 3093 3113 3120 3123 3118 3127 3092 3111 3132 3124 3101 3099 3123 3117 3095 3118 3122 3121 3114 3101 3095 3098 3116 3104 3104 3092 3093 3108 3090 3093 3099 3088 3112 3105 3110 3096 3103 3100 3113 3111 3106 3086 3116 3108 3102 3101 3096 3102 3094 3097 3109 3121 3109 3094 3094 3111 3120 3107 3111 3103 3099 3091 3103 3113 3089 3114 3098 3107 3096 3107 3087 3100 3097 3083 3102 3103 3100 3102 3104 3103 3099 3099 3092 3091 3120 3098 3093 3090 3112 3100 3113 3093 3101 3092 3097 3121 3098 3105 3105 3121 3112 3116 3098 3116 3110 3098 3113 3102 3093 3092 3126 3091 3097 3097 3113 3106 3114 3091 3082 3112 3091 3102 3082 3106 3102 3101 3110 3096 3112 3112 3122 3083 3104 3085 3107 3098 3094 3092 3103 3098 3101 3115 3120 3122 3092 3094 3106 3094 3120 3103 3086 3100 3118 3113 3074 3114 3065 3109 3111 3123 3066 3077 3101 3115 3109 3127 3102 3118 3116 3101 3116 3115 3074 3085 3115

Tree=0
num_leaves=31
num_cat=0
split_feature=11 14 16 10 14 14 15 14 14 14 6 3 15 15 14 16 16 10 11 3 16 3 10 14 8 6 3 16 5 16
split_gain=857.96 765.933 979.055 684.293 552.237 387.305 377.865 370.163 525.927 365.301 363.855 302.851 286.418 256.089 228.769 529.291 452.42 219.871 257.346 190.748 188.416 186.029 184.943 177.089 145.433 130.78 119.215 118.778 115.34 113.146
threshold=-89.014168190705689 18.500000000000004 2017569.4375000002 59.533730788409052 24.500000000000004 5.5000000000000009 0.20729244593819915 1.0000000180025095e-35 5.5000000000000009 20.500000000000004 0.20143932182291679 0.20271619809118238 -0.20139432334965182 0.12826455313484678 24.500000000000004 5823338.5769230779 3451242.7083333335 36.89294690304687 -8.7335516457205902 -0.12443978619468314 1709510.0500000003 0.32837709271604781 204.09553509641174 7.5000000000000009 25.320200000000003 0.020050955611553716 -0.084211951487166356 2294966.6666666674 5582150.0000000009 516119.26666666672
decision_type=2 2 2 2 2 2 2 2 2 2 2 2 2 2 2 2 2 2 2 2 2 2 2 2 2 2 2 2 2 2
left_child=22 3 4 5 9 10 12 27 20 21 25 23 -4 17 15 -14 -16 -7 -19 -12 -9 26 -1 -10 -22 -2 -3 -5 -27 -13
right_child=1 2 6 7 -6 13 -8 8 11 -11 19 29 14 -15 16 -17 -18 18 -20 -21 24 -23 -24 -25 -26 28 -28 -29 -30 -31
leaf_value=0.086344623044133192 0.086152703389525409 0.085072445794939999 0.085312511846423147 0.084458875581622128 0.085703957155346872 0.085220003351569179 0.085598867610096926 0.083599415086209772 0.083937257081270214 0.083134414309170096 0.084250530377030369 0.088394989594817161 0.08253404207527637 0.08558775328099727 0.08384886782616377 0.083796343579888341 0.080781412944197661 0.084656557813286779 0.084010038077831264 0.083269849792122846 0.08207968141883612 0.086486183032393457 0.08475646309554577 0.083199529293924573 0.083244124017655852 0.085432971343398098 0.083855363875627517 0.086217661127448081 0.083879310004413121 0.084439067468047135
leaf_weight=3374 1189 2530 1195 2594 5836 5558 1588 5131 19563 8630 5941 460 15141 4342 2344 9739 6549 18201 24343 12005 7784 729 8420 15361 3569 2429 7237 1157 3196 7615
leaf_count=3374 1189 2530 1195 2594 5836 5558 1588 5131 19563 8630 5941 460 15141 4342 2344 9739 6549 18201 24343 12005 7784 729 8420 15361 3569 2429 7237 1157 3196 7615
internal_value=0.0839051 0.083752 0.0828215 0.0841596 0.0843482 0.0847913 0.0817791 0.0833883 0.0831962 0.0835266 0.0837605 0.0837784 0.0815624 0.085278 0.0813922 0.0818842 0.0800155 0.0850681 0.0848237 0.0830135 0.0816775 0.0847797 0.0865268 0.0833748 0.0809588 0.0857278 0.084416 0.0864351 0.0850909 0.0855237
internal_weight=213750 201956 61518 140438 24962 77204 36556 63234 59483 19126 24760 42999 34968 52444 33773 24880 8893 48102 42544 17946 16484 10496 11794 34924 11353 6814 9767 3751 5625 8075
internal_count=213750 201956 61518 140438 24962 77204 36556 63234 59483 19126 24760 42999 34968 52444 33773 24880 8893 48102 42544 17946 16484 10496 11794 34924 11353 6814 9767 3751 5625 8075
is_linear=0
shrinkage=1


Tree=1
num_leaves=31
num_cat=0
split_feature=11 14 16 10 14 14 14 15 14 3 14 6 15 14 16 16 15 8 14 10 11 16 3 10 3 15 16 16 3 6
split_gain=842.371 753.075 962.918 676.613 539.568 393.123 646.543 373.026 360.548 328.307 309.118 308.029 282.49 257.846 532.682 440.202 215.517 209.385 209.341 198.902 244.348 186.153 184.084 183.842 167.302 157.968 128.194 124.673 119.215 109.802
threshold=-89.014168190705689 18.500000000000004 2017569.4375000002 56.390925535552597 24.500000000000004 1.0000000180025095e-35 5.5000000000000009 0.20729244593819915 20.500000000000004 0.24064705112736054 5.5000000000000009 0.20143932182291679 -0.36036305307588795 24.500000000000004 5823338.5769230779 3451242.7083333335 0.13414917134673091 27.759200000000003 7.5000000000000009 36.89294690304687 -8.9638833668698101 1709510.0500000003 0.32837709271604781 204.09553509641174 -0.12443978619468314 0.067514326553779744 2294966.6666666674 684554.60000000009 -0.084211951487166356 0.020050955611553716
decision_type=2 2 2 2 2 2 2 2 2 2 2 2 2 2 2 2 2 2 2 2 2 2 2 2 2 2 2 2 2 2
left_child=23 3 4 10 8 26 17 12 22 18 11 29 -4 14 -14 -15 19 21 -8 -12 -21 -7 28 -1 -13 -19 -5 -11 -3 -2
right_child=1 2 7 5 -6 6 9 -9 -10 27 16 24 13 15 -16 -17 -18 25 -20 20 -22 -23 -24 -25 -26 -27 -28 -29 -30 -31
leaf_value=0.0024151196233928203 0.0023283266939222815 0.0011556641466915606 0.010549612379819155 0.00054568749740719789 0.0017808603934943677 -0.00044635625965893267 0.00010118082612752918 0.001676821743696928 -0.00076298702422063799 0.003996562162786722 0.0013052706994116307 0.00039971371963620192 -0.0013231378689408302 -5.567804239690305e-05 -5.3011465817689866e-05 -0.0030644867353141307 0.0016999586082994938 -0.00086429060259833937 -0.00059165656883269555 0.00088865810260176667 0.00014982078671455388 -0.0017667771177366377 0.0025552640117704867 0.00084284127429127696 -0.00056817670725286011 0.0014371116790920496 0.0022878811247646806 0.00065342412963509562 -4.9246953427791594e-05 0.00075725307241082185
leaf_weight=3374 1021 2530 276 3057 5836 4352 24042 1588 8630 607 5590 5282 15428 2364 10062 6838 3350 3539 18901 13207 23077 9770 729 8420 10236 1555 1348 6669 7237 4835
leaf_count=3374 1021 2530 276 3057 5836 4352 24042 1588 8630 607 5590 5282 15428 2364 10062 6838 3350 3539 18901 13207 23077 9770 729 8420 10236 1555 1348 6669 7237 4835
internal_value=1.87135e-07 -0.000151518 -0.00107416 0.000252638 0.000439869 -0.000406555 -0.000590336 -0.002108 -0.000372268 6.57122e-06 0.000983513 -7.48573e-06 -0.00232327 -0.00240344 -0.00188545 -0.0038383 0.00145188 -0.00215029 -0.000326246 0.00125663 0.00098611 -0.00277723 0.000872713 0.00259793 -0.000744941 -0.00041225 0.00249035 0.00197086 0.000510904 0.00194672
internal_weight=213750 201956 61518 140438 24962 73840 69435 36556 19126 50219 66598 21374 34968 34692 25490 9202 45224 19216 42943 41874 36284 14122 10496 11794 15518 5094 4405 7276 9767 5856
internal_count=213750 201956 61518 140438 24962 73840 69435 36556 19126 50219 66598 21374 34968 34692 25490 9202 45224 19216 42943 41874 36284 14122 10496 11794 15518 5094 4405 7276 9767 5856
is_linear=0
shrinkage=0.01


Tree=2
num_leaves=31
num_cat=0
split_feature=11 14 16 10 14 14 15 14 14 6 14 3 15 15 14 16 16 10 11 16 3 3 10 14 8 3 6 16 5 16
split_gain=823.351 743.622 951.623 666.061 530.852 372.235 365.141 357.008 509.514 354.415 353.743 292.307 276.442 245.767 221.053 518.479 437.964 215.538 248.427 185 184.408 181.424 178.521 170.359 142.3 134.022 127.944 115.382 114.526 110.473
threshold=-89.014168190705689 18.500000000000004 2017569.4375000002 59.533730788409052 24.500000000000004 5.5000000000000009 0.20729244593819915 1.0000000180025095e-35 5.5000000000000009 0.20143932182291679 20.500000000000004 0.20271619809118238 -0.20139432334965182 0.12826455313484678 24.500000000000004 5823338.5769230779 3451242.7083333335 36.89294690304687 -8.7335516457205902 1709510.0500000003 -0.12443978619468314 0.26104280873926805 204.09553509641174 7.5000000000000009 25.320200000000003 -0.084211951487166356 0.020050955611553716 2196387.1875000005 5582150.0000000009 516119.26666666672
decision_type=2 2 2 2 2 2 2 2 2 2 2 2 2 2 2 2 2 2 2 2 2 2 2 2 2 2 2 2 2 2
left_child=22 3 4 5 10 9 12 27 19 26 21 23 -4 17 15 -14 -16 -7 -19 -9 -11 25 -1 -10 -21 -3 -2 -5 -28 -13
right_child=1 2 6 7 -6 13 -8 8 11 20 -12 29 14 -15 16 -17 -18 18 -20 24 -22 -23 -24 -25 -26 -27 28 -29 -30 -31
leaf_value=0.0023909684271588923 0.0022152835736460987 0.001144107505224645 0.0013958538747206332 0.00050903608455508942 0.001763051789559424 0.0012886934207603335 0.0016600535262599587 -0.00029817269235476855 3.08155118972063e-05 0.00033797074576467272 -0.00075535715397843169 0.0044279579806001858 -0.0013441241570860147 0.0016514327844902874 -5.5121261972933963e-05 -0.00010714693155139677 -0.0030618135081902148 0.00073961760688573137 0.00010215207594633111 -0.0017895048144739123 -0.00062067837739363321 0.0018954474687501788 0.0008344128615483641 -0.0006926066236253828 -0.00064725088506843904 -0.00011918977691233152 0.0015050119089409708 0.0022147030534967783 -3.3112816654145699e-05 0.00052637800197303294
leaf_weight=3374 1189 2530 1195 2515 5836 5558 1588 5131 19563 5941 8630 460 15141 4342 2344 9739 6549 18201 24343 7784 12005 1172 8420 15361 3569 6794 2429 1236 3196 7615
leaf_count=3374 1189 2530 1195 2515 5836 5558 1588 5131 19563 5941 8630 460 15141 4342 2344 9739 6549 18201 24343 7784 12005 1172 8420 15361 3569 6794 2429 1236 3196 7615
internal_value=-8.42105e-07 -0.000150825 -0.00106765 0.000250787 0.000437465 0.000874048 -0.00209542 -0.000510169 -0.000698855 -0.000136511 -0.000368085 -0.000125817 -0.0023084 0.00135116 -0.00247565 -0.00199196 -0.00382885 0.00114548 0.000903535 -0.00219364 -0.000873732 0.000865091 0.00256741 -0.000522277 -0.00290584 0.00039897 0.00180511 0.002482 0.00117511 0.00158885
internal_weight=213750 201956 61518 140438 24962 77204 36556 63234 59483 24760 19126 42999 34968 52444 33773 24880 8893 48102 42544 16484 17946 10496 11794 34924 11353 9324 6814 3751 5625 8075
internal_count=213750 201956 61518 140438 24962 77204 36556 63234 59483 24760 19126 42999 34968 52444 33773 24880 8893 48102 42544 16484 17946 10496 11794 34924 11353 9324 6814 3751 5625 8075
is_linear=0
shrinkage=0.01


Tree=3
num_leaves=31
num_cat=0
split_feature=11 14 16 10 14 14 14 15 14 3 14 6 15 14 16 16 8 15 14 10 11 16 10 3 15 3 3 16 16 16
split_gain=805.378 726.251 933.897 654.109 514.672 378.674 627.633 358.185 342.476 314.291 297.633 302.055 271.961 220.517 507.932 432.142 209.681 205.865 199.491 195.411 235.021 179.772 178.684 177.555 156.459 152.173 130.607 119.987 119.677 95.5275
threshold=-89.014168190705689 18.500000000000004 2017569.4375000002 56.390925535552597 24.500000000000004 1.0000000180025095e-35 5.5000000000000009 0.20729244593819915 20.500000000000004 0.24064705112736054 5.5000000000000009 0.13642301637674323 -0.20139432334965182 24.500000000000004 5823338.5769230779 3451242.7083333335 27.759200000000003 0.13414917134673091 7.5000000000000009 36.89294690304687 -8.9638833668698101 1709510.0500000003 204.09553509641174 0.26104280873926805 0.052385231005899154 -0.12443978619468314 -0.084211951487166356 2294966.6666666674 684554.60000000009 547119.83333333337
decision_type=2 2 2 2 2 2 2 2 2 2 2 2 2 2 2 2 2 2 2 2 2 2 2 2 2 2 2 2 2 2
left_child=22 3 4 10 8 27 16 12 23 18 11 -2 -4 14 -14 -15 21 19 -8 -12 -21 -7 -1 26 -18 -13 -3 -5 -11 -10
right_child=1 2 7 5 -6 6 9 -9 29 28 17 25 13 15 -16 -17 24 -19 -20 20 -22 -23 -24 -25 -26 -27 -28 -29 -30 -31
leaf_value=0.0023670587428873029 0.0013162160384706406 0.0011326664301723986 0.0013818953359734268 0.00053514026158757498 0.0017454212716638295 -0.00044035161440301687 9.9448170187398801e-05 0.0016434529909973592 -0.001250458359812766 0.003915335638587503 0.0012793310582099109 0.00040564119048960498 -0.0013306829155151545 -5.4570049353204616e-05 -0.00010607546223588282 -0.0030311953731083125 -0.00092520107747176669 0.001666444694371596 -0.00057990811054812747 0.00087237534550689165 0.00014730105808794512 -0.0017386036570318974 0.00082606873293288041 0.001876492994062677 0.0012527473125969013 -0.00051583957833182083 -0.0001179978791432082 0.002256924233458843 0.00063834084931060691 -0.00035925492653754318
leaf_weight=3374 4559 2530 1195 3057 5836 4352 24042 1588 3738 607 5590 5686 15141 2344 9739 6549 3306 3350 18901 13207 23077 9770 8420 1172 1788 11129 6794 1348 6669 4892
leaf_count=3374 4559 2530 1195 3057 5836 4352 24042 1588 3738 607 5590 5686 15141 2344 9739 6549 3306 3350 18901 13207 23077 9770 8420 1172 1788 11129 6794 1348 6669 4892
internal_value=-3.18129e-06 -0.000151518 -0.00105758 0.000245375 0.000433459 -0.000402763 -0.000583135 -0.00207572 -0.00035972 4.9782e-06 0.000963993 -8.42145e-06 -0.00228666 -0.00245255 -0.00196945 -0.00380412 -0.00212011 0.00142358 -0.000320658 0.00123275 0.000964613 -0.00274749 0.00253688 0.000853659 -0.00038084 -0.000627416 0.000392535 0.00244041 0.00192688 -0.00183546
internal_weight=213750 201956 61518 140438 24962 73840 69435 36556 19126 50219 66598 21374 34968 33773 24880 8893 19216 45224 42943 41874 36284 14122 11794 10496 5094 16815 9324 4405 7276 8630
internal_count=213750 201956 61518 140438 24962 73840 69435 36556 19126 50219 66598 21374 34968 33773 24880 8893 19216 45224 42943 41874 36284 14122 11794 10496 5094 16815 9324 4405 7276 8630
is_linear=0
shrinkage=0.01


Tree=4
num_leaves=31
num_cat=0
split_feature=11 14 16 10 14 14 15 6 14 14 14 3 15 15 14 16 16 10 11 16 10 3 3 14 11 6 3 16 16 15
split_gain=789.439 708.527 913.544 645.312 503.385 359.063 354.818 348.631 344.102 497.084 337.496 281.381 269.313 241.111 217.979 496.084 424.788 203.573 238.941 180.53 177.137 175.646 165.807 164.201 140.221 127.367 113.31 108.059 107.024 94.6167
threshold=-89.014168190705689 18.500000000000004 2017569.4375000002 59.533730788409052 24.500000000000004 5.5000000000000009 0.20729244593819915 0.053813496084734271 1.0000000180025095e-35 5.5000000000000009 20.500000000000004 0.20271619809118238 -0.20139432334965182 0.12826455313484678 24.500000000000004 5823338.5769230779 3451242.7083333335 36.89294690304687 -8.8886509139606193 1709510.0500000003 204.09553509641174 0.32837709271604781 -0.24263693244896281 7.5000000000000009 -15.584172199992574 0.45221821249197497 -0.084211951487166356 516119.26666666672 2196387.1875000005 -0.36036305307588795
decision_type=2 2 2 2 2 2 2 2 2 2 2 2 2 2 2 2 2 2 2 2 2 2 2 2 2 2 2 2 2 2
left_child=20 3 4 5 10 7 12 -2 28 19 21 23 29 17 15 -14 -16 -7 -19 -10 -1 26 -9 -11 -21 -24 -3 -13 -5 -4
right_child=1 2 6 8 -6 13 -8 22 9 11 -12 27 14 -15 16 -17 -18 18 -20 24 -22 -23 25 -25 -26 -27 -28 -29 -30 -31
leaf_value=0.0023433881554584301 0.0016944904326556855 0.0011213397658706747 0.010416338763914025 0.00049859432109366272 0.0017279670589471913 0.001263013175970631 0.0016270184610873855 0.00093754460350440954 -0.00028960135410906337 2.9512875076360273e-05 -0.00074236092828250822 0.0043666420819681688 -0.0013173760863600032 0.0016211625673550956 -5.4024348859672558e-05 -0.00010501470761352396 -0.0030008834193772293 0.00073730941243605841 0.00010314729442370621 -0.0010069573086643174 0.0008178080456035517 0.0024919919670246533 9.3596443131467179e-05 -0.00067988147628364763 -0.0019945859045678331 -0.00062838058249669205 -4.8461840860141717e-05 0.00051545748039498495 0.0021699867806272218 0.0005782814136957267
leaf_weight=3374 2698 2530 276 2515 5836 5558 1588 3223 5131 19563 8630 460 15141 4342 2344 9739 6549 17690 24854 6890 8420 729 6627 15361 4463 12212 7237 7615 1236 919
leaf_count=3374 2698 2530 276 2515 5836 5558 1588 3223 5131 19563 8630 460 15141 4342 2344 9739 6549 17690 24854 6890 8420 729 6627 15361 4463 12212 7237 7615 1236 919
internal_value=-5.05263e-06 -0.000151914 -0.00104685 0.000240106 0.00042785 0.000853583 -0.00205384 -0.000138934 -0.000508903 -0.000694148 -0.000356583 -0.000128143 -0.00226378 0.00132217 -0.00242886 -0.00194855 -0.00377263 0.00111846 0.000883321 -0.00217059 0.00250975 0.000847942 -0.000553894 -0.000517123 -0.00287413 -0.000912469 0.000494522 0.00155418 0.00242869 0.00240167
internal_weight=213750 201956 61518 140438 24962 77204 36556 24760 63234 59483 19126 42999 34968 52444 33773 24880 8893 48102 42544 16484 11794 10496 22062 34924 11353 18839 9767 8075 3751 1195
internal_count=213750 201956 61518 140438 24962 77204 36556 24760 63234 59483 19126 42999 34968 52444 33773 24880 8893 48102 42544 16484 11794 10496 22062 34924 11353 18839 9767 8075 3751 1195
is_linear=0
shrinkage=0.01


Tree=5
num_leaves=31
num_cat=0
split_feature=11 14 16 10 14 14 15 6 14 14 14 3 15 15 14 16 16 10 11 10 16 3 3 15 8 6 3 16 3 14
split_gain=778.77 692.328 899.5 630.786 495.364 354.502 344.226 338.867 335.476 483.37 332.928 277.739 257.216 238.068 216.222 485.803 417.497 195.795 233.891 175.904 175.896 173.757 165.52 153.593 140.128 124.829 112.329 105.139 93.0518 91.1905
threshold=-89.014168190705689 18.500000000000004 2017569.4375000002 59.533730788409052 24.500000000000004 5.5000000000000009 0.20729244593819915 0.053813496084734271 1.0000000180025095e-35 5.5000000000000009 20.500000000000004 0.32837709271604781 -0.20139432334965182 0.12826455313484678 24.500000000000004 5135947.4523809534 3451242.7083333335 36.89294690304687 -8.8886509139606193 204.09553509641174 1709510.0500000003 0.32837709271604781 -0.24263693244896281 0.11999885884014462 25.320200000000003 0.45221821249197497 -0.084211951487166356 2324839.4230769235 -0.31745318031289244 23.500000000000004
decision_type=2 2 2 2 2 2 2 2 2 2 2 2 2 2 2 2 2 2 2 2 2 2 2 2 2 2 2 2 2 2
left_child=19 3 4 5 10 7 12 -2 27 20 21 23 -4 17 15 -14 -16 -7 -19 -1 -10 26 -9 -11 -22 -24 -3 -5 -12 -30
right_child=1 2 6 8 -6 13 -8 22 9 11 28 -13 14 -15 16 -17 -18 18 -20 -21 24 -23 25 -25 -26 -27 -28 -29 29 -31
leaf_value=0.0023199542739038462 0.0016775455283291286 0.001110126368211968 0.0013602993460741625 0.00052002105862785101 0.0017106873883577195 0.0012503830442109245 0.001610748276476512 0.00092816915746936541 -0.00028670534056797275 -0.00021780307798241957 0.0010854631793420859 0.0013667159133805438 -0.0013616474381122267 0.001604950941681545 -5.3484105371075788e-05 -0.0001990200736213235 -0.0029708745851834573 0.00072993631831169779 0.00010211582147946916 0.00080962996514751613 -0.0017371275786984726 0.0024670720473544071 9.266047870015254e-05 0.00083282687307739873 -0.0006211487670133314 -0.00062209677667172524 -4.7977222451540266e-05 0.0022154942790490535 -0.00067037104622310923 -0.0017788683715540821
leaf_weight=3374 2698 2530 1195 2608 5836 5558 1588 3223 5131 36276 145 3771 13182 4342 2344 11698 6549 17690 24854 8420 7784 729 6627 2952 3569 12212 7237 1143 7863 622
leaf_count=3374 2698 2530 1195 2608 5836 5558 1588 3223 5131 36276 145 3771 13182 4342 2344 11698 6549 17690 24854 8420 7784 729 6627 2952 3569 12212 7237 1143 7863 622
internal_value=-4.95906e-06 -0.000150825 -0.00103547 0.000236688 0.00042785 0.000843221 -0.00203469 -0.000142973 -0.000503843 -0.000686751 -0.000350308 -0.000128608 -0.00224148 0.00130882 -0.00240281 -0.00192444 -0.00374114 0.0011064 0.000875799 0.00249279 -0.00214268 0.000846037 -0.000552081 -0.000377791 -0.00283714 -0.000910346 0.000494522 0.00239669 -0.00180533 -0.00194107
internal_weight=213750 201956 61518 140438 24962 77204 36556 24760 63234 59483 19126 42999 34968 52444 33773 24880 8893 48102 42544 11794 16484 10496 22062 39228 11353 18839 9767 3751 8630 8485
internal_count=213750 201956 61518 140438 24962 77204 36556 24760 63234 59483 19126 42999 34968 52444 33773 24880 8893 48102 42544 11794 16484 10496 22062 39228 11353 18839 9767 3751 8630 8485
is_linear=0
shrinkage=0.01


Tree=6
num_leaves=31
num_cat=0
split_feature=11 14 16 10 14 14 14 15 14 3 14 6 15 14 16 16 8 15 14 10 11 10 16 3 3 15 3 16 16 6
split_gain=766.718 676.536 878.921 623.031 483.985 360.803 594.342 340.679 324.293 299.727 281.538 283.58 254.448 212.836 475.006 409.242 204.964 199.616 194.275 177.89 220.601 176.062 170.561 169.58 157.673 144.577 125.427 114.439 113.426 105.775
threshold=-89.014168190705689 18.500000000000004 2017569.4375000002 56.390925535552597 24.500000000000004 1.0000000180025095e-35 5.5000000000000009 0.20729244593819915 20.500000000000004 0.24064705112736054 5.5000000000000009 0.20143932182291679 -0.20139432334965182 24.500000000000004 5135947.4523809534 3451242.7083333335 27.042900000000003 0.13414917134673091 7.5000000000000009 36.89294690304687 -8.9638833668698101 204.09553509641174 1709510.0500000003 0.26104280873926805 -0.12443978619468314 0.052385231005899154 -0.084211951487166356 2324839.4230769235 684554.60000000009 0.020050955611553716
decision_type=2 2 2 2 2 2 2 2 2 2 2 2 2 2 2 2 2 2 2 2 2 2 2 2 2 2 2 2 2 2
left_child=21 3 4 10 8 27 16 12 23 18 11 29 -4 14 -14 -15 22 19 -8 -12 -21 -1 -7 26 -13 -18 -3 -5 -11 -2
right_child=1 2 7 5 -6 6 9 -9 -10 28 17 24 13 15 -16 -17 25 -19 -20 20 -22 -23 -24 -25 -26 -27 -28 -29 -30 -31
leaf_value=0.0022967547311648073 0.0022360080712520432 0.0010990251045298483 0.001346696352613421 0.00050960074775794977 0.0016935805144741422 -0.00043658282624434332 9.6623450909903924e-05 0.0015946407937117465 -0.00072651392652569875 0.0038573494568279157 0.0012414037854259962 0.00039140390918297047 -0.0013480309637311047 -5.294926431736499e-05 -0.00019702987288511026 -0.0029411658393316228 -0.00091868470950169591 0.0016175191123375138 -0.00057028339969072191 0.00084897913474434516 0.000143775416348034 0.00080153366549604109 -0.0016927386722747958 0.001822359399605975 -0.00054119889254408346 0.0011371219841599808 -0.00011585350971865929 0.0022064994457785211 0.00062086338034370665 0.00071960569299428143
leaf_weight=3374 1021 2530 1195 3072 5836 4293 24042 1588 8630 607 5590 5282 13182 2344 11698 6549 3437 3350 18901 13207 23077 8420 9618 1172 10236 1868 6794 1333 6669 4835
leaf_count=3374 1021 2530 1195 3072 5836 4293 24042 1588 8630 607 5590 5282 13182 2344 11698 6549 3437 3350 18901 13207 23077 8420 9618 1172 10236 1868 6794 1333 6669 4835
internal_value=-4.21053e-06 -0.000148943 -0.00102344 0.000234125 0.000423043 -0.000398429 -0.000574494 -0.00201116 -0.000346126 -2.19041e-06 0.000935464 -1.02929e-05 -0.00221688 -0.00237734 -0.00190273 -0.00370516 -0.00207015 0.00138245 -0.000320192 0.00119454 0.000938706 0.00247414 -0.00270793 0.000834604 -0.000717876 -0.000397738 0.000383955 0.00237684 0.00187466 0.00186475
internal_weight=213750 201956 61518 140438 24962 73840 69435 36556 19126 50219 66598 21374 34968 33773 24880 8893 19216 45224 42943 41874 36284 11794 13911 10496 15518 5305 9324 4405 7276 5856
internal_count=213750 201956 61518 140438 24962 73840 69435 36556 19126 50219 66598 21374 34968 33773 24880 8893 19216 45224 42943 41874 36284 11794 13911 10496 15518 5305 9324 4405 7276 5856
is_linear=0
shrinkage=0.01


Tree=7
num_leaves=31
num_cat=0
split_feature=11 15 14 10 16 14 14 8 14 14 16 3 11 10 16 14 16 10 10 15 5 6 14 16 15 14 15 11 14 16
split_gain=752.443 676.044 682.353 585.825 397.851 604.275 374.087 364.791 347.578 452.678 296.022 295.345 263.326 294.328 224.857 187.041 186.941 176.068 161.555 145.382 129.663 110.436 109.892 156.041 106.832 103.323 115.842 97.5946 96.5392 93.0691
threshold=-89.014168190705689 0.11777850626499495 20.500000000000004 56.390925535552597 2269804.3181818188 24.500000000000004 24.500000000000004 27.759200000000003 1.0000000180025095e-35 5.5000000000000009 5329510.6176470602 0.24064705112736054 -8.6570455281448044 38.979137228931314 3118029.6149732624 21.500000000000004 1709510.0500000003 204.09553509641174 45.68632624467616 -0.20139432334965182 8533771.428571431 0.11721019907472056 23.500000000000004 633968.25000000012 -0.36036305307588795 5.5000000000000009 0.21934797205297568 -4.9295041943975759 7.5000000000000009 1318799.0625000002
decision_type=2 2 2 2 2 2 2 2 2 2 2 2 2 2 2 2 2 2 2 2 2 2 2 2 2 2 2 2 2 2
left_child=17 2 3 12 5 22 10 21 -5 16 15 -11 18 27 -8 -6 -10 -1 -2 -15 -12 -3 23 -4 -16 -23 28 -14 -27 -7
right_child=1 7 4 8 6 29 14 -9 9 11 20 -13 13 19 24 -17 -18 -19 -20 -21 -22 25 -24 -25 -26 26 -28 -29 -30 -31
leaf_value=0.0022737871838531595 0.0013557253038804528 0.0012471385462727678 -0.0011594959048021722 0.00099548071627066559 -0.002193058313380054 0.0020457779135511262 -0.00011714642983964616 0.0017356004389169984 -0.00033036029954152161 -0.00025646052083851746 0.00022109677741005557 0.00069708523223763902 0.001267388921509261 0.0026810428580384483 0.0069904759646752749 -0.0007060204304727381 -0.0015137985650493285 0.00079351832884108067 0.000454592919745245 -0.00017218740039337001 -0.00098673617135136647 -0.00051563900631553818 -0.0017364599111888697 -1.7102390288202679e-05 -0.0028698351139870167 0.00088001953700164476 0.00149234937766174 0.00033342672711880793 -0.00027536517698232676 0.0006579344984100206
leaf_weight=3374 6013 2510 4151 4147 2745 2395 1239 7115 5428 46886 7016 6581 4532 652 77 5214 11511 8420 17842 31096 1496 2907 739 3901 6546 1371 1971 7631 5002 3242
leaf_count=3374 6013 2510 4151 4147 2745 2395 1239 7115 5428 46886 7016 6581 4532 652 77 5214 11511 8420 17842 31096 1496 2907 739 3901 6546 1371 1971 7631 5002 3242
internal_value=-4.77193e-06 -0.000148151 -0.000344599 -2.42413e-05 -0.00152086 -0.000205157 -0.00230099 0.00155585 -0.000635923 -0.000801636 -0.00144436 -0.00035031 0.000648703 0.000189246 -0.00409565 -0.00283076 -0.00222622 0.0024504 0.00149445 -0.0003175 -0.000148026 0.000605334 -0.00184393 -0.00150522 -0.00482712 0.000182206 0.000747843 0.00151196 9.25781e-05 0.00235054
internal_weight=213750 201956 181080 142319 38761 14428 24333 20876 74553 70406 16471 53467 67766 43911 7862 7959 16939 11794 23855 31748 8512 13761 8791 8052 6623 11251 8344 12163 6373 5637
internal_count=213750 201956 181080 142319 38761 14428 24333 20876 74553 70406 16471 53467 67766 43911 7862 7959 16939 11794 23855 31748 8512 13761 8791 8052 6623 11251 8344 12163 6373 5637
is_linear=0
shrinkage=0.01


Tree=8
num_leaves=31
num_cat=0
split_feature=11 14 16 10 14 14 15 6 14 14 14 3 15 15 14 16 16 10 11 10 16 3 3 14 11 3 6 9 16 16
split_gain=743.866 665.713 860.17 607.693 466.861 337.702 335.839 331.105 318.553 458.87 314.074 263.449 250.213 227.078 204.276 469.638 399.95 187.028 223.266 174.222 169.367 167.439 161.434 159.089 138.227 122.405 119.447 103.521 103.193 93.4942
threshold=-89.014168190705689 18.500000000000004 2017569.4375000002 59.533730788409052 24.500000000000004 5.5000000000000009 0.20729244593819915 0.053813496084734271 1.0000000180025095e-35 5.5000000000000009 20.500000000000004 0.20271619809118238 -0.20139432334965182 0.12826455313484678 24.500000000000004 5744078.2523809532 3451242.7083333335 36.89294690304687 -8.8886509139606193 204.09553509641174 1709510.0500000003 0.26104280873926805 -0.24263693244896281 7.5000000000000009 -15.584172199992574 -0.084211951487166356 0.45221821249197497 26.837799500000006 2324839.4230769235 547119.83333333337
decision_type=2 2 2 2 2 2 2 2 2 2 2 2 2 2 2 2 2 2 2 2 2 2 2 2 2 2 2 2 2 2
left_child=19 3 4 5 10 7 12 -2 28 20 21 23 -4 17 15 -14 -16 -7 -19 -1 -10 25 -9 -11 -22 -3 -24 -13 -5 -12
right_child=1 2 6 8 -6 13 -8 22 9 11 29 27 14 -15 16 -17 -18 18 -20 -21 24 -23 26 -25 -26 -27 -28 -29 -30 -31
leaf_value=0.0022510493120146279 0.0016451282559608981 0.0010901780930907092 0.0013310184213131862 0.00049977003340128637 0.0016593149819517023 0.0012196800295847909 0.0015625546366917354 0.00091521045828277128 -0.00027728992906453657 3.2605674532383281e-05 -0.0012058195241404571 0.00030719126421233377 -0.0012750720765661772 0.0015672315793495862 -4.9718143645420544e-05 -0.00011296651467100987 -0.0028832249579779866 0.00071048353456268473 0.00010105545553529674 0.00078558314555266981 -0.000957446311677788 0.0017983130511947266 9.0962155052070617e-05 -0.00066422223736511011 -0.0019291593576356717 -0.00011488701989649548 -0.00061285430855295535 0.0015453860388586083 0.0021588029563380496 -0.00033551798923442741
leaf_weight=3374 2698 2530 1195 2608 5836 5558 1588 3223 5131 19563 3738 5568 14923 4342 2344 9957 6549 17690 24854 8420 6890 1172 6627 15361 4463 6794 12212 2507 1143 4892
leaf_count=3374 2698 2530 1195 2608 5836 5558 1588 3223 5131 19563 3738 5568 14923 4342 2344 9957 6549 17690 24854 8420 6890 1172 6627 15361 4463 6794 12212 2507 1143 4892
internal_value=-4.30409e-06 -0.000146864 -0.00101434 0.000233128 0.000416633 0.000828454 -0.00199147 -0.000134087 -0.000493722 -0.000671957 -0.000338806 -0.000128143 -0.00219572 0.00128289 -0.00235484 -0.00188987 -0.00365568 0.00108519 0.000859816 0.00243683 -0.00209051 0.000823171 -0.000538482 -0.000504524 -0.00277195 0.000375375 -0.000892298 0.00149969 0.00233271 -0.00175203
internal_weight=213750 201956 61518 140438 24962 77204 36556 24760 63234 59483 19126 42999 34968 52444 33773 24880 8893 48102 42544 11794 16484 10496 22062 34924 11353 9324 18839 8075 3751 8630
internal_count=213750 201956 61518 140438 24962 77204 36556 24760 63234 59483 19126 42999 34968 52444 33773 24880 8893 48102 42544 11794 16484 10496 22062 34924 11353 9324 18839 8075 3751 8630
is_linear=0
shrinkage=0.01


Tree=9
num_leaves=31
num_cat=0
split_feature=11 15 14 10 16 14 14 8 14 14 16 3 11 10 16 16 10 10 14 15 14 16 6 5 15 14 15 11 14 16
split_gain=726.633 660.592 660.164 571.888 379.94 579.653 359.517 355.319 333.683 437.135 285.199 285.161 256.633 287.456 215.878 181.635 169.497 161.095 158.654 145.069 111.661 154.598 107.089 106.042 105.131 99.4341 111.129 95.9167 92.4732 91.7765
threshold=-89.014168190705689 0.11777850626499495 20.500000000000004 56.390925535552597 2269804.3181818188 24.500000000000004 24.500000000000004 27.759200000000003 1.0000000180025095e-35 5.5000000000000009 6040193.7142857155 0.24064705112736054 -8.6570455281448044 38.979137228931314 3118029.6149732624 1709510.0500000003 204.09553509641174 46.232885784954696 21.500000000000004 -0.20139432334965182 23.500000000000004 633968.25000000012 0.11721019907472056 8533771.428571431 -0.36036305307588795 5.5000000000000009 0.21934797205297568 -4.9295041943975759 7.5000000000000009 633968.25000000012
decision_type=2 2 2 2 2 2 2 2 2 2 2 2 2 2 2 2 2 2 2 2 2 2 2 2 2 2 2 2 2 2
left_child=16 2 3 12 5 20 10 22 -5 15 18 -11 17 27 -8 -10 -1 -2 -6 -15 21 -4 -3 -12 -16 -24 28 -14 -27 -18
right_child=1 7 4 8 6 -7 14 -9 9 11 23 -13 13 19 24 -17 29 -19 -20 -21 -22 -23 25 -25 -26 26 -28 -29 -30 -31
leaf_value=0.0022285388188944817 0.0013048499675560805 0.0012273935984007853 -0.0011358427505127459 0.00098052820877394609 -0.0019666407881671157 0.0012794368866442091 -0.00011547778410479548 0.0017102085598076466 -0.00032689768288394512 -0.00025367572242936646 0.00036322621367998866 0.00068478702618832881 0.0012485976401338333 0.0026512620532721512 0.0069072610208153898 -0.0014865493332291274 0.002766391285521246 0.00042674834984920751 -0.00067828574658078703 -0.00017111795431982749 -0.0017146433322149635 -1.3576186492976344e-05 -0.00050994245564938193 -0.00090882486222659364 -0.0028123657713903026 0.00085554702583813243 0.0014617535680916266 0.00033109151166198464 -0.00027022626751475485 0.00057036171184227547
leaf_weight=3374 6708 2510 4151 4147 3243 5637 1239 7115 5428 46886 5990 6581 4532 652 77 11511 886 17147 6001 31096 739 3901 2907 1237 6546 1371 1971 7631 5002 7534
leaf_count=3374 6708 2510 4151 4147 3243 5637 1239 7115 5428 46886 5990 6581 4532 652 77 11511 886 17147 6001 31096 739 3901 2907 1237 6546 1371 1971 7631 5002 7534
internal_value=-2.99415e-06 -0.000143893 -0.000338083 -2.29766e-05 -0.00149506 -0.000209315 -0.00225743 0.00154053 -0.000627339 -0.000789705 -0.00141764 -0.000346195 0.000641915 0.000188335 -0.00401679 -0.00218962 0.0024097 0.00147684 -0.00258113 -0.000312461 -0.00181436 -0.00147293 0.000602427 7.05687e-05 -0.0047335 0.000185761 0.000740652 0.00149552 9.88545e-05 0.00165083
internal_weight=213750 201956 181080 142319 38761 14428 24333 20876 74553 70406 16471 53467 67766 43911 7862 16939 11794 23855 9244 31748 8791 8052 13761 7227 6623 11251 8344 12163 6373 8420
internal_count=213750 201956 181080 142319 38761 14428 24333 20876 74553 70406 16471 53467 67766 43911 7862 16939 11794 23855 9244 31748 8791 8052 13761 7227 6623 11251 8344 12163 6373 8420
is_linear=0
shrinkage=0.01


Tree=10
num_leaves=31
num_cat=0
split_feature=11 15 14 10 16 14 14 8 14 14 16 3 11 10 16 14 16 10 10 15 5 14 16 6 15 14 15 11 14 16
split_gain=707.96 643.37 645.066 564.13 374.394 568.919 356.485 347.85 327.355 432.816 280.558 280.298 253.419 280.423 212.736 183.238 179.967 169.201 159.865 141.127 124.149 112.893 149.8 104.944 99.8949 95.7814 106.707 94.0679 89.4844 88.8777
threshold=-89.014168190705689 0.11777850626499495 20.500000000000004 56.390925535552597 2269804.3181818188 24.500000000000004 24.500000000000004 27.759200000000003 1.0000000180025095e-35 5.5000000000000009 5329510.6176470602 0.24064705112736054 -8.6570455281448044 38.979137228931314 3118029.6149732624 21.500000000000004 1709510.0500000003 204.09553509641174 44.221774280407011 -0.20139432334965182 8533771.428571431 23.500000000000004 633968.25000000012 0.11721019907472056 -0.36036305307588795 5.5000000000000009 0.21934797205297568 -4.9295041943975759 7.5000000000000009 1318799.0625000002
decision_type=2 2 2 2 2 2 2 2 2 2 2 2 2 2 2 2 2 2 2 2 2 2 2 2 2 2 2 2 2 2
left_child=17 2 3 12 5 21 10 23 -5 16 15 -11 18 27 -8 -6 -10 -1 -2 -15 -12 22 -4 -3 -16 -25 28 -14 -27 -7
right_child=1 7 4 8 6 29 14 -9 9 11 20 -13 13 19 24 -17 -18 -19 -20 -21 -22 -23 -24 25 -26 26 -28 -29 -30 -31
leaf_value=0.0022062534307055368 0.0014668140675126605 0.0012151196624167776 -0.0011244843230076183 0.00097072292668620665 -0.0021387106015989207 0.0019959326157296558 -0.00011432300626374751 0.0016931064742095703 -0.00032362870605510562 -0.00025113896520507286 0.00021926040471411903 0.00067793915592644538 0.0012361116637324948 0.0026247494327394294 0.006838188410607236 -0.00067942664793654113 -0.001471683839896836 0.00077124391921344626 0.00046940683568316542 -0.00016940677477662918 -0.00096213164051165247 -0.0016974968988928136 -1.3440424628046594e-05 -0.00050484303109288808 -0.0027842421136763996 0.0008469915555797511 0.0014471360324107105 0.00032778059654536482 -0.00026752400483960728 0.0006219676347399614
leaf_weight=3374 4527 2510 4151 4147 2745 2395 1239 7115 5428 46886 7016 6581 4532 652 77 5214 11511 8420 19328 31096 1496 739 3901 2907 6546 1371 1971 7631 5002 3242
leaf_count=3374 4527 2510 4151 4147 2745 2395 1239 7115 5428 46886 7016 6581 4532 652 77 5214 11511 8420 19328 31096 1496 739 3901 2907 6546 1371 1971 7631 5002 3242
internal_value=-5.7076e-06 -0.000144784 -0.000336426 -2.4944e-05 -0.0014801 -0.00020377 -0.00223688 0.00151753 -0.000625193 -0.000786013 -0.00140064 -0.000344699 0.000635422 0.000184692 -0.00398881 -0.00275035 -0.002179 0.00237578 0.0014651 -0.000309941 -0.000138628 -0.00179388 -0.00145057 0.000589347 -0.00470029 0.000176873 0.000721477 0.00147579 9.25781e-05 0.00227603
internal_weight=213750 201956 181080 142319 38761 14428 24333 20876 74553 70406 16471 53467 67766 43911 7862 7959 16939 11794 23855 31748 8512 8791 8052 13761 6623 11251 8344 12163 6373 5637
internal_count=213750 201956 181080 142319 38761 14428 24333 20876 74553 70406 16471 53467 67766 43911 7862 7959 16939 11794 23855 31748 8512 8791 8052 13761 6623 11251 8344 12163 6373 5637
is_linear=0
shrinkage=0.01


Tree=11
num_leaves=31
num_cat=0
split_feature=11 14 16 10 14 14 14 15 14 15 14 6 15 8 14 16 16 15 3 10 11 3 10 16 3 15 3 16 6 5
split_gain=695.41 635.923 826.228 578.356 442.463 326.796 550.134 316.744 300.69 278.649 267.249 273.816 246.665 193.545 185.835 448.423 385.815 182.164 168.628 167.329 204.474 163.723 163.649 159.904 154.27 144.343 120.162 115.66 104.493 102.901
threshold=-89.014168190705689 18.500000000000004 2017569.4375000002 56.390925535552597 24.500000000000004 1.0000000180025095e-35 5.5000000000000009 0.20729244593819915 20.500000000000004 0.11999885884014462 5.5000000000000009 0.20143932182291679 -0.18713032711745445 27.042900000000003 24.500000000000004 5823338.5769230779 3451242.7083333335 0.13414917134673091 0.20271619809118238 36.89294690304687 -7.8932736024464214 0.26104280873926805 204.09553509641174 1709510.0500000003 -0.12443978619468314 0.052385231005899154 -0.084211951487166356 2324839.4230769235 0.020050955611553716 7078107.1428571437
decision_type=2 2 2 2 2 2 2 2 2 2 2 2 2 2 2 2 2 2 2 2 2 2 2 2 2 2 2 2 2 2
left_child=22 3 4 10 8 27 13 12 21 18 11 28 -4 23 15 -14 -16 19 -8 -12 -21 26 -1 -7 -13 -15 -3 -5 -2 -30
right_child=1 2 7 5 -6 6 9 -9 -10 -11 17 24 14 25 16 -17 -18 -19 -20 20 -22 -23 -24 -25 -26 -27 -28 -29 29 -31
leaf_value=0.0021841908963984814 0.002202323829274812 0.001075910628143316 0.0010135109438665563 0.00047003972142904915 0.0016138988569977728 -0.00041740151049058803 -0.00020304884117679895 0.0015153680671522202 -0.00069057925690531156 0.001167697572620169 0.0012012502094957849 0.00036491983224502014 -0.0012581508611527108 -0.00086355923428599226 -2.5450456271033375e-05 -0.00010480961319015922 -0.0028172211749060644 0.0015550448396488121 0.00048144232923629394 0.00073212066146085522 0.00010298918084937672 0.0017659800304237266 0.00076353148002131178 -0.0016219772386688108 -0.00053995828045563679 0.0011124315675223634 -0.00011263667695373375 0.0021333791032400475 0.0014548800296737263 -0.0001526555451785841
leaf_weight=3374 1021 2530 1532 3072 5836 4293 38214 1588 8630 4673 5590 5282 14986 3437 2341 9655 6454 3350 7332 16543 19741 1172 8420 9618 10236 1868 6794 1333 2544 2291
leaf_count=3374 1021 2530 1532 3072 5836 4293 38214 1588 8630 4673 5590 5282 14986 3437 2341 9655 6454 3350 7332 16543 19741 1172 8420 9618 10236 1868 6794 1333 2544 2291
internal_value=-6.54971e-06 -0.000144388 -0.00099223 0.000227004 0.000410224 -0.000382449 -0.000550011 -0.00194989 -0.000325212 5.97383e-07 0.00090273 -1.87143e-05 -0.00214825 -0.00198897 -0.00232803 -0.00188263 -0.0035759 0.00133823 -0.000238001 0.00115871 0.000910594 0.000811738 0.00235374 -0.00260873 -0.00071401 -0.000363808 0.00036894 0.0022588 0.00182377 0.00120993
internal_weight=213750 201956 61518 140438 24962 73840 69435 36556 19126 50219 66598 21374 34968 19216 33436 24641 8795 45224 45546 41874 36284 10496 11794 13911 15518 5305 9324 4405 5856 4835
internal_count=213750 201956 61518 140438 24962 73840 69435 36556 19126 50219 66598 21374 34968 19216 33436 24641 8795 45224 45546 41874 36284 10496 11794 13911 15518 5305 9324 4405 5856 4835
is_linear=0
shrinkage=0.01


Tree=12
num_leaves=31
num_cat=0
split_feature=11 15 14 10 8 16 14 14 14 14 3 11 10 16 16 14 10 10 16 15 5 16 14 16 16 15 16 16 11 14
split_gain=687.61 628.426 648.756 546.299 380.328 339.351 551.076 398.485 321.331 420.289 257.15 243.229 278.656 234.145 168.29 167.784 162.611 152.544 147.798 147.02 129.473 118.249 117.886 135.34 93.3712 92.5456 89.4976 82.2742 81.762 81.3299
threshold=-89.014168190705689 0.10855400794151555 20.500000000000004 56.390925535552597 28.262835000000006 2459371.3333333335 24.500000000000004 24.500000000000004 1.0000000180025095e-35 5.5000000000000009 0.2504355413916079 -8.6570455281448044 36.89294690304687 5329510.6176470602 1709510.0500000003 21.500000000000004 204.09553509641174 46.232885784954696 5611416.6666666679 -0.20139432334965182 8533771.428571431 401909.00000000006 23.500000000000004 547119.83333333337 1431251.5000000002 -0.36036305307588795 633968.25000000012 2324839.4230769235 -13.248491474801625 5.5000000000000009
decision_type=2 2 2 2 2 2 2 2 2 2 2 2 2 2 2 2 2 2 2 2 2 2 2 2 2 2 2 2 2 2
left_child=16 2 3 11 21 6 22 13 27 14 -11 17 -13 15 -10 -7 -1 -2 -9 -14 -15 -3 23 -4 -8 -20 -18 -5 -19 -23
right_child=1 4 5 8 -6 7 24 18 9 10 -12 12 19 20 -16 -17 26 28 25 -21 -22 29 -24 -25 -26 -27 -28 -29 -30 -31
leaf_value=0.0021623489874344963 0.0012676142998528234 0.0053806425433268155 -0.0011807374947293554 0.0004753412816312931 0.0016213378732135287 -0.0020969630586092423 0.0018984169299677595 -0.0016687479908680514 -0.00032952132183272192 -0.00024455461423249128 0.00070051907653037007 0.00083062613844816905 0.0025847881673139064 0.00019729215597068833 -0.0014589214748465162 -0.00064781265742339101 0.0027233796186736858 0.00083917197648511693 0.0056347422273804919 -0.00012934175041643818 -0.0010385049396498013 -0.00030138984528813424 -0.0016700632534713833 -0.00014604452278990112 0.00043482310646925543 -0.0029580793823217946 0.0005493103407315052 0.002059858885789832 0.00018485464015569969 0.00037052478586589862
leaf_weight=3374 6605 498 3601 2919 7796 2630 2866 3149 5286 46621 5878 8550 725 6833 11316 4704 886 6339 66 33965 1445 4042 849 4752 2932 4208 7534 1161 10541 11679
leaf_count=3374 6605 498 3601 2919 7796 2630 2866 3149 5286 46621 5878 8550 725 6833 11316 4704 886 6339 66 33965 1445 4042 849 4752 2932 4208 7534 1161 10541 11679
internal_value=-5.1462e-06 -0.000142209 -0.000347138 -3.23074e-05 0.00137622 -0.00150519 -0.000334667 -0.00226742 -0.000628988 -0.000790003 -0.000351435 0.000622106 0.000177151 -0.00136049 -0.00217685 -0.00266158 0.00234187 0.00144135 -0.00417486 -0.000221389 -0.00020778 0.00050373 -0.00185612 -0.00149527 0.00208003 -0.00538606 0.00159857 0.00209804 0.000937204 0.000351759
internal_weight=213750 201956 177941 139906 24015 38035 15000 23035 73181 69101 52499 66725 43240 15612 16602 7334 11794 23485 7423 34690 8278 16219 9202 8353 5798 4274 8420 4080 16880 15721
internal_count=213750 201956 177941 139906 24015 38035 15000 23035 73181 69101 52499 66725 43240 15612 16602 7334 11794 23485 7423 34690 8278 16219 9202 8353 5798 4274 8420 4080 16880 15721
is_linear=0
shrinkage=0.01


Tree=13
num_leaves=31
num_cat=0
split_feature=15 14 10 11 16 14 14 8 14 14 3 16 6 11 16 10 16 14 5 16 14 14 16 14 14 15 3 5 16 10
split_gain=673.934 606.903 417.429 432.814 378.8 620.438 456.507 363.482 300.845 541.324 283.544 256.403 252.868 190.954 135.899 135.854 129.236 118.127 117.524 104.272 102.061 101.261 121.044 99.2454 109.404 101.111 105.092 99.1009 98.3681 96.7787
threshold=0.10855400794151555 20.500000000000004 44.221774280407011 -89.014168190705689 2606750.8125000005 24.500000000000004 24.500000000000004 28.000600000000002 1.0000000180025095e-35 5.5000000000000009 0.2504355413916079 6040193.7142857155 0.20143932182291679 -8.3507759547520166 5611416.6666666679 34.592162005199434 401909.00000000006 21.500000000000004 8533771.428571431 1431251.5000000002 21.500000000000004 23.500000000000004 547119.83333333337 5.5000000000000009 7.5000000000000009 0.19572702800285582 0.24064705112736054 615283.33333333349 488829.36250000005 204.09553509641174
decision_type=2 2 2 2 2 2 2 2 2 2 2 2 2 2 2 2 2 2 2 2 2 2 2 2 2 2 2 2 2 2
left_child=1 2 13 28 5 21 11 16 -5 12 -11 17 -10 -1 -8 -15 -2 -6 20 -7 -13 22 -3 -18 27 26 -26 -25 -4 -30
right_child=7 4 3 8 6 19 14 -9 9 10 -12 18 -14 15 -16 -17 23 -19 -20 -21 -22 -23 -24 24 25 -27 -28 -29 29 -31
leaf_value=0.0013803436435976437 0.0053806801576523648 -0.0011215822575086072 0.0039874485630608317 0.00074012276002381056 -0.0017713425781074382 0.0020274881650927494 -0.0017295369379184086 0.0016323238308151794 -0.00011195424167715192 -0.00010608685253316916 0.00074581008132916851 0.0010215686550538344 -0.0011908808492171602 0.0010084402232522327 -0.002866711221631511 0.00014829576171148051 -0.00028406595770029522 -0.00061660638805406426 -0.00095425328821992673 0.00050214156313153739 -0.00068239946754767482 -0.0015763559530842677 -0.00015264769407548202 -0.0011256415814620939 -0.00045291015376342598 0.0012305243262382239 0.00089599394377985341 0.0010100462490111382 0.0016728059392734848 0.00047263856262631413
leaf_weight=5045 544 3900 421 6500 3180 3151 2965 8444 7290 72767 8208 4495 17889 5406 4283 16801 4337 5271 1225 3420 1647 1023 5440 292 4644 2749 2069 2676 2133 5535
leaf_count=5045 544 3900 421 6500 3180 3151 2965 8444 7290 72767 8208 4495 17889 5406 4283 16801 4337 5271 1225 3420 1647 1023 5440 292 4644 2749 2069 2676 2133 5535
internal_value=-6.26901e-06 -0.000214101 8.12865e-05 -0.000171024 -0.001307 -0.000171253 -0.00214081 0.00151077 -0.000331457 -0.000459333 -6.113e-05 -0.00118852 -0.00173994 0.00119918 -0.00421909 0.000800198 0.00068107 -0.00237723 0.000175105 0.00223254 0.000739173 -0.00169545 -0.00136831 0.000525437 0.000979887 0.000454449 -0.000207061 0.00265499 0.0020633 0.0018049
internal_weight=213750 187995 147995 120743 40000 16934 23066 25755 112654 106154 80975 15818 25179 27252 7248 22207 17311 8451 7367 6571 6142 10363 9340 16767 12430 9462 6713 2968 8089 7668
internal_count=213750 187995 147995 120743 40000 16934 23066 25755 112654 106154 80975 15818 25179 27252 7248 22207 17311 8451 7367 6571 6142 10363 9340 16767 12430 9462 6713 2968 8089 7668
is_linear=0
shrinkage=0.01


Tree=14
num_leaves=31
num_cat=0
split_feature=15 14 10 11 16 14 14 8 14 14 3 16 6 11 16 6 10 5 14 14 15 14 16 14 16 16 14 16 5 14
split_gain=662.751 597.136 411.236 424.93 373.723 611.396 448.849 357.006 293.189 535.126 276.834 250.536 249.298 187.992 131.579 126.852 125.999 117.165 116.78 116.138 110.287 104.478 102.662 100.852 119.667 99.1967 95.0644 113.742 96.5351 94.509
threshold=0.10855400794151555 20.500000000000004 44.221774280407011 -89.014168190705689 2606750.8125000005 24.500000000000004 24.500000000000004 28.000600000000002 1.0000000180025095e-35 5.5000000000000009 0.2504355413916079 6114492.7187500009 0.20143932182291679 -6.3921015172122155 5611416.6666666679 0.12075766713466235 34.592162005199434 8533771.428571431 21.500000000000004 5.5000000000000009 0.25669857136165358 21.500000000000004 1431251.5000000002 23.500000000000004 547119.83333333337 488829.36250000005 7.5000000000000009 1994920.0000000002 615283.33333333349 21.500000000000004
decision_type=2 2 2 2 2 2 2 2 2 2 2 2 2 2 2 2 2 2 2 2 2 2 2 2 2 2 2 2 2 2
left_child=1 2 13 25 5 23 11 15 -5 12 -11 18 -10 -1 -8 -2 -15 21 -6 -17 26 -13 -7 24 -3 -4 28 -28 -21 -26
right_child=7 4 3 8 6 22 14 -9 9 10 -12 17 -14 16 -16 19 -18 -19 -20 20 -22 -23 -24 -25 29 -27 27 -29 -30 -31
leaf_value=0.0010411900454495992 0.0011866687322229365 -0.0011103664349335211 0.0039475740774302234 0.00073272153242357244 -0.0017461367367193881 0.002007213283441822 -0.0017122415685392246 0.0016160005925070276 -0.00011083469926038044 -0.00010502598400783742 0.00073835198051587687 0.0010334476286198353 -0.0011789720407249886 0.0008873495113424089 -0.0028380441094151962 -0.00047778956439757284 1.5317922001742911e-05 -0.0009529317818477278 -0.00060246630643509883 -0.0012301862916902142 0.00162940062254543 -0.0006889402964072827 0.00049712014750022209 -0.0015605923935534251 -0.002495534502539116 0.00078584663048744717 0.00083769910896797659 -0.00049576222134115804 0.0010305931841554461 -1.9293374916140027e-05
leaf_weight=9975 3308 3900 421 6500 3239 3151 2965 8444 7290 72767 8208 4440 17889 4659 4283 3600 12618 1216 5313 279 1541 1610 3420 1023 347 7668 1981 4860 1742 5093
leaf_count=9975 3308 3900 421 6500 3239 3151 2965 8444 7290 72767 8208 4440 17889 4659 4283 3600 12618 1216 5313 279 1541 1610 3420 1023 347 7668 1981 4860 1742 5093
internal_value=-6.83041e-06 -0.000212931 8.00703e-05 -0.000170362 -0.001297 -0.000168891 -0.00212521 0.00149757 -0.000329327 -0.000455565 -5.9648e-05 -0.00118093 -0.00172882 0.00118964 -0.00418598 0.000675293 0.000558546 0.000184421 -0.00234097 0.00025923 0.000794963 0.000753719 0.00221732 -0.00168195 -0.00135546 0.00204352 0.000365606 -0.00019734 0.00227115 -0.000397059
internal_weight=213750 187995 147995 120743 40000 16934 23066 25755 112654 106154 80975 15818 25179 27252 7248 17311 17277 7266 8552 14003 10403 6050 6571 10363 9340 8089 8862 6841 2021 5440
internal_count=213750 187995 147995 120743 40000 16934 23066 25755 112654 106154 80975 15818 25179 27252 7248 17311 17277 7266 8552 14003 10403 6050 6571 10363 9340 8089 8862 6841 2021 5440
is_linear=0
shrinkage=0.01


Tree=15
num_leaves=31
num_cat=0
split_feature=15 14 10 11 16 14 14 8 14 14 3 6 16 11 16 10 6 14 5 14 15 14 16 14 16 14 16 10 11 15
split_gain=651.309 589.286 404.449 414.177 365.34 595.209 444.395 351.909 287.111 524.137 271.358 245.478 243.919 183.28 132.578 124.877 122.824 116.342 115.356 114.264 107.822 102.35 101.846 99.257 116.481 94.509 94.4147 93.252 92.7833 90.6058
threshold=0.10855400794151555 20.500000000000004 44.221774280407011 -89.014168190705689 2606750.8125000005 24.500000000000004 24.500000000000004 28.000600000000002 1.0000000180025095e-35 5.5000000000000009 0.2504355413916079 0.20143932182291679 6114492.7187500009 -6.3921015172122155 5611416.6666666679 34.592162005199434 0.12075766713466235 21.500000000000004 8533771.428571431 5.5000000000000009 0.21934797205297568 21.500000000000004 1318799.0625000002 23.500000000000004 547119.83333333337 21.500000000000004 488829.36250000005 204.09553509641174 -27.702811758355455 -0.36036305307588795
decision_type=2 2 2 2 2 2 2 2 2 2 2 2 2 2 2 2 2 2 2 2 2 2 2 2 2 2 2 2 2 2
left_child=1 2 13 26 5 23 12 16 -5 11 -11 -10 17 -1 -8 -15 -2 -6 21 -18 28 -14 -7 24 -3 -26 -4 -28 -21 -16
right_child=7 4 3 8 6 22 14 -9 9 10 -12 -13 18 15 29 -17 19 -19 -20 20 -22 -23 -24 -25 25 -27 27 -29 -30 -31
leaf_value=0.0010307781449951032 0.001174802044900707 -0.001099262770584186 0.0039080983366559215 0.00072539431709933667 -0.0017286753693521943 0.0020341328565018739 -0.0016951191528538324 0.0015998405865819576 -0.00010972635226777668 -0.000103975724167759 0.00073096846071071808 -0.0011671823203177386 0.001023113152333637 0.00087847601622898484 0.0056354423584171537 1.5164742781725513e-05 -0.00047301166875359706 -0.00059644164337074781 -0.00094340246402925044 0.0013782689914666312 0.0014701492725472329 -0.00068205089344320984 0.00060449684571221938 -0.0015449864696178909 -0.0024705791575137248 -1.9100441166978593e-05 0.0016482194135758754 0.00046005371069517646 -8.50064042606051e-05 -0.0028573281736804469
leaf_weight=9975 3308 3900 421 6500 3239 2551 2965 8444 7290 72767 8208 17889 4440 4659 70 12618 3600 5313 1216 1266 2127 1610 4020 1023 347 5093 2133 5535 7010 4213
leaf_count=9975 3308 3900 421 6500 3239 2551 2965 8444 7290 72767 8208 17889 4440 4659 70 12618 3600 5313 1216 1266 2127 1610 4020 1023 347 5093 2133 5535 7010 4213
internal_value=-7.76608e-06 -0.00021208 7.89892e-05 -0.000169368 -0.001289 -0.000173615 -0.00210786 0.0014836 -0.000326309 -0.000451231 -5.9401e-05 -0.00171135 -0.00116829 0.00117936 -0.00415839 0.000556231 0.000667206 -0.00231291 0.000178915 0.000257802 0.000789195 0.000743802 0.00218079 -0.00166651 -0.00134261 -0.000397059 0.00201632 0.00176317 0.000273079 -0.00528368
internal_weight=213750 187995 147995 120743 40000 16934 23066 25755 112654 106154 80975 25179 15818 27252 7248 17277 17311 8552 7266 14003 10403 6050 6571 10363 9340 5440 8089 7668 8276 4283
internal_count=213750 187995 147995 120743 40000 16934 23066 25755 112654 106154 80975 25179 15818 27252 7248 17277 17311 8552 7266 14003 10403 6050 6571 10363 9340 5440 8089 7668 8276 4283
is_linear=0
shrinkage=0.01


Tree=16
num_leaves=31
num_cat=0
split_feature=11 14 16 10 14 14 6 15 14 14 14 15 3 15 10 11 14 16 16 3 16 10 3 14 11 3 6 16 15 3
split_gain=646.923 600.678 785.708 550.167 397.814 320.604 305.645 295.287 284.422 283.614 407.412 242.514 238.331 203.757 175.783 208.959 172.458 422.218 374.306 157.613 155.479 154.998 154.192 151.173 133.334 117.305 113.676 103.082 100.919 95.6782
threshold=-89.014168190705689 18.500000000000004 2017569.4375000002 59.533730788409052 24.500000000000004 5.5000000000000009 0.053813496084734271 0.20729244593819915 20.500000000000004 1.0000000180025095e-35 5.5000000000000009 -0.17613252426538153 0.32837709271604781 0.12826455313484678 36.89294690304687 -8.8886509139606193 24.500000000000004 4765835.0000000009 3451242.7083333335 0.26104280873926805 1746619.4000000001 204.09553509641174 -0.24263693244896281 7.5000000000000009 -15.584172199992574 -0.084211951487166356 0.45221821249197497 2324839.4230769235 -0.36036305307588795 -0.31745318031289244
decision_type=2 2 2 2 2 2 2 2 2 2 2 2 2 2 2 2 2 2 2 2 2 2 2 2 2 2 2 2 2 2
left_child=21 3 4 5 8 6 -2 11 19 27 20 28 23 14 -7 -16 17 -13 -18 25 -11 -1 -8 -12 -22 -3 -24 -5 -4 -10
right_child=1 2 7 9 -6 13 22 -9 29 10 12 16 -14 -15 15 -17 18 -19 -20 -21 24 -23 26 -25 -26 -27 -28 -29 -30 -31
leaf_value=0.0020996567777267837 0.0015879626669888219 0.0010707479536112955 0.010255031171493668 0.00044382362558660128 0.0015437940027217061 0.0011525860365378181 0.00090204542720380019 0.0014428962813526616 0.0011330789004834986 -0.00025491160339553983 6.1836686725480066e-05 -0.0013313957862445009 0.0012634907364015102 0.0014673990994218558 0.00067766501235900004 9.8745464348867711e-05 -4.5076090288810879e-05 -0.00026263335395175605 -0.0027048932988194998 0.0017134634209111288 -0.00089304703409962601 0.00072950646407456046 8.8376824370508945e-05 -0.00055577559873711533 -0.0018430853783452147 -0.00011667047463284939 -0.00059968628249023053 0.002073695853392741 0.00025501539569868203 -0.00071203917797555566
leaf_weight=3374 2698 2530 276 2608 5836 5558 3223 1588 145 5291 21787 11934 3771 4342 17690 24854 2327 12516 6367 1172 6778 8420 6627 17441 4415 6794 12212 1143 1548 8485
leaf_count=3374 2698 2530 276 2608 5836 5558 3223 1588 145 5291 21787 11934 3771 4342 17690 24854 2327 12516 6367 1172 6778 8420 6627 17441 4415 6794 12212 1143 1548 8485
internal_value=-9.26316e-06 -0.000142209 -0.000966221 0.000218744 0.00040141 0.000785192 -0.000152666 -0.0019001 -0.000295932 -0.000472847 -0.000641023 -0.00209163 -0.000128608 0.00122798 0.00104071 0.000822208 -0.00228699 -0.00185685 -0.00349666 0.000809832 -0.00197768 0.00226725 -0.000541202 -0.000359437 -0.0026454 0.000375375 -0.00088699 0.00219408 0.00145833 -0.00164079
internal_weight=213750 201956 61518 140438 24962 77204 24760 36556 19126 63234 59483 34968 42999 52444 48102 42544 33144 24450 8694 10496 16484 11794 22062 39228 11193 9324 18839 3751 1824 8630
internal_count=213750 201956 61518 140438 24962 77204 24760 36556 19126 63234 59483 34968 42999 52444 48102 42544 33144 24450 8694 10496 16484 11794 22062 39228 11193 9324 18839 3751 1824 8630
is_linear=0
shrinkage=0.01


Tree=17
num_leaves=31
num_cat=0
split_feature=15 14 10 11 16 14 14 8 14 14 3 6 16 11 16 16 10 5 14 16 14 16 14 14 14 15 3 16 5 14
split_gain=638.842 570.29 392.372 397.851 359.316 571.269 440.574 343.873 277.926 505.94 263.071 240.665 237.632 180.982 132.678 122.522 120.356 115.582 115.077 102.65 100.54 116.42 100.318 96.7168 104.481 97.9059 103.797 96.2462 94.5278 91.7286
threshold=0.10855400794151555 20.500000000000004 44.221774280407011 -89.014168190705689 2606750.8125000005 24.500000000000004 24.500000000000004 28.000600000000002 1.0000000180025095e-35 5.5000000000000009 0.2504355413916079 0.20143932182291679 6114492.7187500009 -6.3921015172122155 5611416.6666666679 401909.00000000006 34.592162005199434 8533771.428571431 21.500000000000004 1431251.5000000002 23.500000000000004 547119.83333333337 21.500000000000004 5.5000000000000009 7.5000000000000009 0.19572702800285582 0.20271619809118238 488829.36250000005 615283.33333333349 21.500000000000004
decision_type=2 2 2 2 2 2 2 2 2 2 2 2 2 2 2 2 2 2 2 2 2 2 2 2 2 2 2 2 2 2
left_child=1 2 13 27 5 20 12 15 -5 11 -11 -10 18 -1 -8 -2 -15 22 -6 -7 21 -3 -14 -17 28 26 -26 -4 -25 -23
right_child=7 4 3 8 6 19 14 -9 9 10 -12 -13 17 16 -16 23 -18 -19 -20 -21 -22 29 -24 24 25 -27 -28 -29 -30 -31
leaf_value=0.0010182242984428098 0.0052906237409405896 -0.0010811497510985885 0.0038617222886486169 0.00071523009280856364 -0.0017058009015190811 0.0019513618820151679 -0.0016576040955840899 0.0015757295325542198 -0.0001055405923717389 -0.00010260178714194851 0.00071601359104577487 -0.0011442961595688678 0.001014129288524966 0.00086880748782298999 -0.0027550974988898524 -0.00027355430699407699 1.248243045095701e-05 -0.00093134210584944037 -0.00058579765379611294 0.00048406458553191118 -0.0015210580468049432 -0.0024325594080761427 -0.00067260405096926021 -0.0011059053639000188 -0.00048970310459196765 0.0011880115691953867 0.00074939059984979403 0.00076249683773299396 0.00097331053018446666 -1.1789044975553248e-05
leaf_weight=9975 544 3900 421 6500 3239 3151 2965 8444 7290 72767 8208 17889 4440 4659 4283 4337 12618 1216 5313 3420 1023 347 1610 292 4272 2749 2441 7668 2676 5093
leaf_count=9975 544 3900 421 6500 3239 3151 2965 8444 7290 72767 8208 17889 4440 4659 4283 4337 12618 1216 5313 3420 1023 347 1610 292 4272 2749 2441 7668 2676 5093
internal_value=-9.73099e-06 -0.00021208 7.42593e-05 -0.000170362 -0.0012715 -0.000165348 -0.00208359 0.00146729 -0.000324178 -0.000447086 -6.21179e-05 -0.00168513 -0.00114806 0.00115808 -0.00412528 0.000660274 0.000538867 0.000181668 -0.00227783 0.00214123 -0.00162791 -0.00130193 0.000747107 0.000508737 0.000957361 0.000443881 -0.000207061 0.00197181 0.00259434 -0.000356618
internal_weight=213750 187995 147995 120743 40000 16934 23066 25755 112654 106154 80975 25179 15818 27252 7248 17311 17277 7266 8552 6571 10363 9340 6050 16767 12430 9462 6713 8089 2968 5440
internal_count=213750 187995 147995 120743 40000 16934 23066 25755 112654 106154 80975 25179 15818 27252 7248 17311 17277 7266 8552 6571 10363 9340 6050 16767 12430 9462 6713 8089 2968 5440
is_linear=0
shrinkage=0.01


Tree=18
num_leaves=31
num_cat=0
split_feature=15 14 10 11 16 14 14 8 14 14 3 6 16 11 16 10 16 14 5 16 14 16 15 14 14 15 3 5 16 14
split_gain=626.543 563.302 387.271 390.05 351.097 561.589 437.346 335.291 273.747 493.516 253.643 235.564 234.409 179.603 128.657 127.038 120.841 114.19 111.719 101.489 98.4308 115.368 98.2748 95.4886 104.443 97.7909 100.44 94.2922 93.1605 91.7286
threshold=0.10855400794151555 20.500000000000004 44.221774280407011 -89.014168190705689 2606750.8125000005 24.500000000000004 24.500000000000004 28.000600000000002 1.0000000180025095e-35 5.5000000000000009 0.2504355413916079 0.20143932182291679 6040193.7142857155 -8.4283549318891247 5611416.6666666679 34.592162005199434 401909.00000000006 21.500000000000004 8533771.428571431 1431251.5000000002 23.500000000000004 547119.83333333337 -0.17613252426538153 5.5000000000000009 7.5000000000000009 0.19572702800285582 0.20271619809118238 615283.33333333349 488829.36250000005 21.500000000000004
decision_type=2 2 2 2 2 2 2 2 2 2 2 2 2 2 2 2 2 2 2 2 2 2 2 2 2 2 2 2 2 2
left_child=1 2 13 28 5 20 12 16 -5 11 -11 -10 17 -1 -8 -15 -2 -6 22 -7 21 -3 -14 -18 27 26 -26 -25 -4 -23
right_child=7 4 3 8 6 19 14 -9 9 10 -12 -13 18 15 -16 -17 23 -19 -20 -21 -22 29 -24 24 25 -27 -28 -29 -30 -31
leaf_value=0.0013536757096413753 0.005237717503531184 -0.0010703382535876026 0.0038231050657621304 0.00070807779188047785 -0.0016982729707415039 0.0019318482631950162 -0.0016410280546282491 0.0015599722372286776 -0.00010448518644802153 -0.00010157576927052909 0.0007088534551353173 -0.0011328531979731792 0.0042285572389289807 0.00096071199065158154 -0.0027275465239009538 0.00014069537659606917 -0.00027081876392413622 -0.0005846133147078932 -0.00091380765828094569 0.0004792239396765921 -0.0015058474663368938 -0.0024082338139953812 0.00018315676038996296 -0.0010948463102610185 -0.000484806073546048 0.0011761314535034329 0.00074189669385129611 0.00096357742488262211 0.00075487186935566401 -1.1671154525797755e-05
leaf_weight=4892 544 3900 421 6500 3180 3151 2965 8444 7290 72767 8208 17889 525 5427 4283 16933 4337 5271 1225 3420 1023 347 5617 292 4272 2749 2441 2676 7668 5093
leaf_count=4892 544 3900 421 6500 3180 3151 2965 8444 7290 72767 8208 17889 525 5427 4283 16933 4337 5271 1225 3420 1023 347 5617 292 4272 2749 2441 2676 7668 5093
internal_value=-1.01988e-05 -0.000210591 7.3989e-05 -0.000169037 -0.0012635 -0.000170072 -0.00206624 0.00145253 -0.000321338 -0.000443318 -6.31059e-05 -0.00166607 -0.00113415 0.00115074 -0.00410044 0.00077102 0.000655652 -0.00227074 0.000169676 0.00211688 -0.00162019 -0.00129764 0.000719635 0.000505159 0.000950925 0.00043754 -0.00021302 0.0025876 0.00195203 -0.000356618
internal_weight=213750 187995 147995 120743 40000 16934 23066 25755 112654 106154 80975 25179 15818 27252 7248 22360 17311 8451 7367 6571 10363 9340 6142 16767 12430 9462 6713 2968 8089 5440
internal_count=213750 187995 147995 120743 40000 16934 23066 25755 112654 106154 80975 25179 15818 27252 7248 22360 17311 8451 7367 6571 10363 9340 6142 16767 12430 9462 6713 2968 8089 5440
is_linear=0
shrinkage=0.01


Tree=19
num_leaves=31
num_cat=0
split_feature=11 14 16 10 14 14 6 15 14 14 14 15 15 15 14 16 16 10 11 3 10 3 16 14 11 3 6 16 3 14
split_gain=617.8 578.062 763.507 534.771 375.394 307.141 298.89 282.474 272.773 386.636 271.074 237.041 220.663 194.043 169.48 418.698 356.869 165.584 205.689 153.836 153.131 152.674 151.417 133.945 132.482 116.844 111.172 102.711 94.5255 90.5513
threshold=-89.014168190705689 18.500000000000004 2017569.4375000002 59.533730788409052 24.500000000000004 5.5000000000000009 0.053813496084734271 0.20729244593819915 1.0000000180025095e-35 5.5000000000000009 20.500000000000004 -0.18713032711745445 0.11999885884014462 0.12826455313484678 24.500000000000004 5080671.9090909101 3451242.7083333335 36.89294690304687 -8.8886509139606193 0.26104280873926805 204.09553509641174 -0.24263693244896281 1746619.4000000001 17.500000000000004 -15.584172199992574 -0.084211951487166356 0.45221821249197497 2324839.4230769235 -0.31745318031289244 23.500000000000004
decision_type=2 2 2 2 2 2 2 2 2 2 2 2 2 2 2 2 2 2 2 2 2 2 2 2 2 2 2 2 2 2
left_child=20 3 4 5 10 6 -2 11 27 22 19 -4 23 17 15 -13 -16 -7 -19 25 -1 -8 -10 -11 -24 -3 -23 -5 -12 -30
right_child=1 2 7 8 -6 13 21 -9 9 12 28 14 -14 -15 16 -17 -18 18 -20 -21 -22 26 24 -25 -26 -27 -28 -29 29 -31
leaf_value=0.0020634865228786291 0.0015582677669752254 0.0010615482665279256 0.0010260784317314903 0.00042515231048384478 0.0014941175272745913 0.0011254629111276465 0.0008978437123384242 0.0014009680945767267 -0.00024261285873899266 -8.9052674610755469e-05 0.0011432629915255255 -0.0012630048123376855 0.0010709415218286024 0.0014369416693000765 -2.0301200536197441e-05 -0.00020253826887545886 -0.0026165321543501368 0.00066611240951851367 9.8275007511135353e-05 0.0016809337516067702 0.00070892486992232319 8.920828243774049e-05 -0.00087038356753813744 -0.0011237941591563016 -0.0018092604928818517 -0.00011473012039289563 -0.00059149011567805911 0.0020485568237153212 -0.00058434587831680406 -0.0016025574236350612
leaf_weight=3374 2698 2530 1532 2608 5836 5558 3223 1588 5291 36898 145 12834 3935 4342 2341 11807 6454 17690 24854 1172 8420 6627 6778 2166 4415 6794 12212 1143 7863 622
leaf_count=3374 2698 2530 1532 2608 5836 5558 3223 1588 5291 36898 145 12834 3935 4342 2341 11807 6454 17690 24854 1172 8420 6627 6778 2166 4415 6794 12212 1143 7863 622
internal_value=-1.16959e-05 -0.000141615 -0.000949966 0.000212478 0.000398205 0.000770945 -0.000147011 -0.00187055 -0.000469368 -0.000634299 -0.000279201 -0.00205788 -0.000135119 0.00120433 -0.00223412 -0.00180877 -0.00342581 0.00102158 0.000809515 0.000800305 0.00221299 -0.00053123 -0.00193642 -0.000362482 -0.00259537 0.000371085 -0.000875312 0.00214609 -0.00159212 -0.00172893
internal_weight=213750 201956 61518 140438 24962 77204 24760 36556 63234 59483 19126 34968 42999 52444 33436 24641 8795 48102 42544 10496 11794 22062 16484 39064 11193 9324 18839 3751 8630 8485
internal_count=213750 201956 61518 140438 24962 77204 24760 36556 63234 59483 19126 34968 42999 52444 33436 24641 8795 48102 42544 10496 11794 22062 16484 39064 11193 9324 18839 3751 8630 8485
is_linear=0
shrinkage=0.01


Tree=20
num_leaves=31
num_cat=0
split_feature=11 14 16 10 14 14 6 15 14 14 14 15 3 15 14 16 16 10 11 14 3 16 10 3 11 3 16 6 16 3
split_gain=604.633 565.377 748.171 527.525 369.546 300.316 289.73 276.36 268.117 264.589 381.522 234.571 219.92 190.004 177.133 408.96 350.042 160.877 203.104 160.546 151.116 151.075 150.126 149.295 127.557 115.84 109.289 108.249 98.6299 94.3067
threshold=-89.014168190705689 18.500000000000004 2017569.4375000002 59.533730788409052 24.500000000000004 5.5000000000000009 0.053813496084734271 0.20729244593819915 20.500000000000004 1.0000000180025095e-35 5.5000000000000009 -0.20139432334965182 0.20271619809118238 0.12826455313484678 24.500000000000004 4765835.0000000009 3451242.7083333335 36.89294690304687 -8.8886509139606193 7.5000000000000009 0.26104280873926805 2132280.083333334 204.09553509641174 -0.24263693244896281 -15.584172199992574 -0.084211951487166356 516119.26666666672 0.45221821249197497 2324839.4230769235 -0.31745318031289244
decision_type=2 2 2 2 2 2 2 2 2 2 2 2 2 2 2 2 2 2 2 2 2 2 2 2 2 2 2 2 2 2
left_child=22 3 4 5 8 6 -2 11 20 28 21 -4 19 17 15 -13 -16 -7 -19 -12 25 -11 -1 -8 -23 -3 -14 -25 -5 -10
right_child=1 2 7 9 -6 13 23 -9 29 10 12 14 26 -15 16 -17 -18 18 -20 -21 -22 24 -24 27 -26 -27 -28 -29 -30 -31
leaf_value=0.002042851657649843 0.0015426850893054734 0.0010509327838626465 0.0013405113124588478 0.00042090078737900633 0.0014791763520018452 0.0011142082820163699 0.00088886527521503996 0.0013869584136309593 0.0011318303616102703 -0.00036245157635514239 3.9016431704215067e-05 -0.0012792303621923626 0.0041883291916630329 0.0014225722526070757 -2.2182149106268757e-05 -0.00023504063634477754 -0.0025843146180197798 0.00065945128542332866 9.7292257436023958e-05 -0.00063974450755896722 0.0016641244140907024 -0.00087236951948528574 0.00070183562122309992 8.8316199613363016e-05 -0.0018118516371175867 -0.00011358281918896665 0.00043056792757090889 -0.00058557521452127852 0.0020280712554781679 -0.00068686700949890348
leaf_weight=3374 2698 2530 1195 2608 5836 5558 3223 1588 145 6801 19563 12108 460 4342 2344 12772 6549 17690 24854 15361 1172 5715 8420 6627 3968 6794 7615 12212 1143 8485
leaf_count=3374 2698 2530 1195 2608 5836 5558 3223 1588 145 6801 19563 12108 460 4342 2344 12772 6549 17690 24854 15361 1172 5715 8420 6627 3968 6794 7615 12212 1143 8485
internal_value=-1.16023e-05 -0.00014013 -0.000939562 0.000210057 0.000395 0.000764727 -0.000142973 -0.00185086 -0.00027711 -0.000467154 -0.000629592 -0.00203615 -0.000133724 0.00119327 -0.00219021 -0.00175723 -0.00340155 0.00101243 0.000803404 -0.000477609 0.000796494 -0.00192308 0.00218925 -0.000521258 -0.0027254 0.000371085 0.00135356 -0.000861511 0.00210877 -0.00158285
internal_weight=213750 201956 61518 140438 24962 77204 24760 36556 19126 63234 59483 34968 42999 52444 33773 24880 8893 48102 42544 34924 10496 16484 11794 22062 9683 9324 8075 18839 3751 8630
internal_count=213750 201956 61518 140438 24962 77204 24760 36556 19126 63234 59483 34968 42999 52444 33773 24880 8893 48102 42544 34924 10496 16484 11794 22062 9683 9324 8075 18839 3751 8630
is_linear=0
shrinkage=0.01


Tree=21
num_leaves=31
num_cat=0
split_feature=15 14 10 11 16 14 14 8 14 14 3 6 16 11 14 5 16 6 10 14 15 15 16 14 16 16 11 14 10 15
split_gain=597.434 531.814 369.705 364.415 334.026 535.985 421.454 324.447 256.938 466.506 248.477 225.26 219.322 178.914 139.385 129.062 122.764 119.878 116.291 106.033 100.383 99.0339 97.7753 97.2231 113.14 96.087 94.7737 92.8165 90.2686 79.007
threshold=0.10855400794151555 20.500000000000004 44.221774280407011 -89.014168190705689 2606750.8125000005 24.500000000000004 24.500000000000004 28.000600000000002 1.0000000180025095e-35 5.5000000000000009 0.2504355413916079 0.20143932182291679 5329510.6176470602 -6.3921015172122155 21.500000000000004 8533771.428571431 5611416.6666666679 0.12075766713466235 34.592162005199434 5.5000000000000009 -0.18713032711745445 0.21934797205297568 1318799.0625000002 23.500000000000004 547119.83333333337 516119.26666666672 -27.702811758355455 21.500000000000004 204.09553509641174 -0.16766329370056668
decision_type=2 2 2 2 2 2 2 2 2 2 2 2 2 2 2 2 2 2 2 2 2 2 2 2 2 2 2 2 2 2
left_child=1 2 13 25 5 23 12 17 -5 11 -11 -10 14 -1 -6 20 -8 -2 -15 -19 -14 26 -7 24 -3 -4 -21 -26 -27 -16
right_child=7 4 3 8 6 22 16 -9 9 10 -12 -13 15 18 29 -17 -18 19 -20 21 -22 -23 -24 -25 27 28 -28 -29 -30 -31
leaf_value=0.00099468928074463434 0.0011320912126737018 -0.0010573520631230471 0.0036194744666689094 0.00069014829898842486 -0.0018836924249142678 0.0019306322514115676 -0.0015756349052432497 0.0015272544719852827 -9.6255210613203777e-05 -0.00010085189392268559 0.00069255514678495396 -0.0011101044440675575 0.0036063250445236852 0.00083211600102268317 0.0023804927215459607 -0.00097416039467931057 -0.0026582317658001529 -0.00044871105035632688 3.8017623782635872e-06 0.0013319962772900312 0.00010336255532768873 0.0013998084581804482 0.00055810108224831848 -0.0014692529136791986 -0.0023587291241101271 0.0015574629533997759 -0.00010016818683556139 4.9614312376526636e-06 0.0004047745070228928 -0.00065599318651210449
leaf_weight=9975 3308 3900 448 6500 2654 2551 2965 8444 7290 72767 8208 17889 506 4659 238 1503 4283 3600 12618 1266 6673 2127 4020 1023 347 2129 7010 5093 5512 4244
leaf_count=9975 3308 3900 448 6500 2654 2551 2965 8444 7290 72767 8208 17889 506 4659 238 1503 4283 3600 12618 1266 6673 2127 4020 1023 347 2129 7010 5093 5512 4244
internal_value=-1.07602e-05 -0.000206442 7.00699e-05 -0.00016738 -0.0012295 -0.000162986 -0.00201249 0.00141759 -0.000314592 -0.000432767 -6.31059e-05 -0.00162159 -0.00109748 0.00112212 -0.0023963 -2.9947e-05 -0.00400938 0.000633701 0.000506454 0.000229237 0.000527929 0.000741132 0.00207122 -0.00157966 -0.0012591 0.0018828 0.000246496 -0.000327206 0.0016189 -0.00132084
internal_weight=213750 187995 147995 120743 40000 16934 23066 25755 112654 106154 80975 25179 15818 27252 7136 8682 7248 17311 17277 14003 7179 10403 6571 10363 9340 8089 8276 5440 7641 4482
internal_count=213750 187995 147995 120743 40000 16934 23066 25755 112654 106154 80975 25179 15818 27252 7136 8682 7248 17311 17277 14003 7179 10403 6571 10363 9340 8089 8276 5440 7641 4482
is_linear=0
shrinkage=0.01


Tree=22
num_leaves=31
num_cat=0
split_feature=11 14 16 10 14 14 6 15 14 14 14 15 3 15 14 16 16 10 11 8 10 3 3 14 15 16 3 6 16 16
split_gain=589.664 546.133 730.777 509.907 359.27 289.891 281.011 262.738 262.495 256.584 365.964 229.468 213.785 179.396 170.929 398.852 342.293 154.967 198.512 149.288 147.716 146.223 145.249 145.128 138.026 120.458 115.025 105.806 98.3881 90.6949
threshold=-89.014168190705689 18.500000000000004 2017569.4375000002 59.533730788409052 24.500000000000004 5.5000000000000009 0.053813496084734271 0.20729244593819915 20.500000000000004 1.0000000180025095e-35 5.5000000000000009 -0.20139432334965182 0.32837709271604781 0.13121620203530984 24.500000000000004 4765835.0000000009 3451242.7083333335 36.89294690304687 -8.8886509139606193 27.042900000000003 204.09553509641174 -0.24263693244896281 0.26104280873926805 7.5000000000000009 0.052385231005899154 1729463.1538461542 -0.084211951487166356 0.45221821249197497 2324839.4230769235 684554.60000000009
decision_type=2 2 2 2 2 2 2 2 2 2 2 2 2 2 2 2 2 2 2 2 2 2 2 2 2 2 2 2 2 2
left_child=20 3 4 5 8 6 -2 11 22 28 19 -4 23 17 15 -13 -16 -7 -19 25 -1 -8 26 -12 -21 -11 -3 -23 -5 -14
right_child=1 2 7 9 -6 13 21 -9 -10 10 12 14 29 -15 16 -17 -18 18 -20 24 -22 27 -24 -25 -26 -27 -28 -29 -30 -31
leaf_value=0.0020067172310552169 0.0015185638889215125 0.0010414319749632469 0.0013184625610220702 0.00040979029651533203 0.0014519289209646094 0.0010983606569380544 0.00089107766690356524 0.0013584535148438211 -0.00062373146819547207 -0.00039873004795355229 6.085346183197532e-05 -0.0012625625640209351 0.0051019903570110482 0.001408494945655866 -2.4804947316432595e-05 -0.000231148460965825 -0.0025318891541815801 0.00065383537898859481 9.7577382621696633e-05 -0.0009023210019975281 0.00068954583658340114 8.0645609271622897e-05 0.0016405576184819459 -0.00054425038502607475 0.0012271022333345486 -0.0015379027209407076 -0.00011232877246050779 -0.00057578768438009515 0.0020008890599335022 0.00084977791131556556
leaf_weight=3374 2698 2530 1195 2608 5836 5579 3223 1588 8630 3826 21787 12108 344 4138 2344 12772 6549 17773 24954 2961 8420 6627 1172 17441 1609 8088 6794 12212 1143 3427
leaf_count=3374 2698 2530 1195 2608 5836 5579 3223 1588 8630 3826 21787 12108 344 4138 2344 12772 6549 17773 24954 2961 8420 6627 1172 17441 1609 8088 6794 12212 1143 3427
internal_value=-1.13216e-05 -0.000138248 -0.000923957 0.000205927 0.000395 0.000751256 -0.000140549 -0.0018246 -0.000267698 -0.000459879 -0.000619841 -0.00200526 -0.000134189 0.0011723 -0.00215764 -0.00173232 -0.00334758 0.00100112 0.000796452 -0.00188668 0.00216212 -0.000513099 0.000794588 -0.000352809 -0.000350109 -0.00247608 0.00037752 -0.000849833 0.00207678 0.00214002
internal_weight=213750 201956 61518 140438 24962 77204 24760 36556 19126 63234 59483 34968 42999 52444 33773 24880 8893 48306 42727 16484 11794 22062 10496 39228 4570 11914 9324 18839 3751 3771
internal_count=213750 201956 61518 140438 24962 77204 24760 36556 19126 63234 59483 34968 42999 52444 33773 24880 8893 48306 42727 16484 11794 22062 10496 39228 4570 11914 9324 18839 3751 3771
is_linear=0
shrinkage=0.01


Tree=23
num_leaves=31
num_cat=0
split_feature=11 14 16 10 14 14 14 15 14 14 6 15 15 8 14 16 16 11 10 10 3 16 3 3 15 3 16 6 5 3
split_gain=578.373 534.661 719.651 502.065 350.257 278.072 454.75 258.849 257.443 231.707 237.208 229.987 225.749 182.222 170.728 389.464 339.853 152.38 220.113 145.184 143.925 141.277 140.909 135.778 126.827 114.028 109.271 91.9377 101.854 90.0636
threshold=-89.014168190705689 18.500000000000004 2017569.4375000002 56.390925535552597 24.500000000000004 1.0000000180025095e-35 5.5000000000000009 0.20729244593819915 20.500000000000004 5.5000000000000009 0.20143932182291679 0.11999885884014462 -0.20139432334965182 26.372700000000005 24.500000000000004 4765835.0000000009 3451242.7083333335 -9.2798160959842679 36.89294690304687 204.09553509641174 0.26104280873926805 1729463.1538461542 -0.12443978619468314 0.20271619809118238 0.069842784466877458 -0.084211951487166356 2324839.4230769235 0.020050955611553716 7078107.1428571437 -0.31745318031289244
decision_type=2 2 2 2 2 2 2 2 2 2 2 2 2 2 2 2 2 2 2 2 2 2 2 2 2 2 2 2 2 2
left_child=19 3 4 9 8 26 13 12 20 10 27 23 -4 21 15 -14 -16 -11 -19 -1 25 -7 -12 -8 -15 -3 -5 -2 -29 -10
right_child=1 2 7 5 -6 6 11 -9 29 17 22 -13 14 24 16 -17 -18 18 -20 -21 -22 -23 -24 -25 -26 -27 -28 28 -30 -31
leaf_value=0.0019866500587446645 0.0020764022664320762 0.0010310176552136144 0.0013052779354118494 0.0004056923935501787 0.0014374096317549634 -0.00038632620109491008 -0.00019021999212641554 0.0013448689796953831 0.0011377032830762321 0.00091698674237659906 0.00034697430864128929 0.0010585200775780361 -0.0012499369383807261 -0.00065537333538117834 -2.4556897843268228e-05 -0.00022883697635616679 -0.0025065702626397646 0.0010872860042737795 0.00019643596859060628 0.00068265037821756721 0.0016241520422971261 -0.001520953798527966 -0.0005149891552522699 0.00043020865593179576 0.0012201126356677818 -0.00011120548473590272 0.0020237594527623593 0.0013802356063821292 -0.00019774851253306246 -0.00067346461220155478
leaf_weight=3374 1021 2530 1195 3072 5836 4296 38214 1588 145 13754 5282 4673 12108 3903 2344 12772 6549 5796 25674 8420 1172 9375 10236 7332 1642 6794 1333 2544 2291 8485
leaf_count=3374 1021 2530 1195 3072 5836 4296 38214 1588 145 13754 5282 4673 12108 3903 2344 12772 6549 5796 25674 8420 1172 9375 10236 7332 1642 6794 1333 2544 2291 8485
internal_value=-1.07602e-05 -0.000136465 -0.000913879 0.000204076 0.000395 -0.000363759 -0.000518326 -0.00180764 -0.000259333 0.000833659 -2.43286e-05 -1.77224e-05 -0.00198696 -0.0018266 -0.0021381 -0.00171302 -0.00332734 0.00123917 0.000855418 0.00214177 0.000792683 -0.00244679 -0.000671478 -0.000234488 -0.000297565 0.00037752 0.00207264 0.00169057 0.00111479 -0.00153882
internal_weight=213750 201956 61518 140438 24962 73840 69435 36556 19126 66598 21374 50219 34968 19216 33773 24880 8893 45224 31470 11794 10496 13671 15518 45546 5545 9324 4405 5856 4835 8630
internal_count=213750 201956 61518 140438 24962 73840 69435 36556 19126 66598 21374 50219 34968 19216 33773 24880 8893 45224 31470 11794 10496 13671 15518 45546 5545 9324 4405 5856 4835 8630
is_linear=0
shrinkage=0.01


Tree=24
num_leaves=31
num_cat=0
split_feature=11 14 16 10 14 14 6 15 14 14 14 15 3 14 16 16 15 15 16 14 10 3 3 11 14 3 6 11 16 3
split_gain=566.929 523.827 706.041 495.352 342.062 278.125 273.479 256.844 253.636 248.459 358.093 221.721 204.82 194.576 387.467 335.846 170.044 153.288 146.46 143.393 142.258 142.139 138.525 130.867 116.504 112.767 102.955 100.635 95.778 89.7967
threshold=-89.014168190705689 18.500000000000004 2017569.4375000002 59.533730788409052 24.500000000000004 5.5000000000000009 0.053813496084734271 0.20729244593819915 20.500000000000004 1.0000000180025095e-35 5.5000000000000009 -0.36036305307588795 0.32837709271604781 24.500000000000004 6422582.0758928582 5611416.6666666679 0.12826455313484678 -0.086901701159898412 2132280.083333334 7.5000000000000009 204.09553509641174 -0.24263693244896281 0.26104280873926805 -15.584172199992574 7.5000000000000009 -0.084211951487166356 0.45221821249197497 -8.8886509139606193 2324839.4230769235 -0.31745318031289244
decision_type=2 2 2 2 2 2 2 2 2 2 2 2 2 2 2 2 2 2 2 2 2 2 2 2 2 2 2 2 2 2
left_child=20 3 4 5 8 6 -2 11 22 28 18 -4 19 14 -13 -15 17 24 -11 -12 -1 -8 25 -20 -7 -3 -23 -19 -5 -10
right_child=1 2 7 9 -6 16 21 -9 29 10 12 13 -14 15 -16 -17 -18 27 23 -21 -22 26 -24 -25 -26 -27 -28 -29 -30 -31
leaf_value=0.0019667835581572181 0.0014870275714948167 0.0010207074786614783 0.010090476739842069 0.00040163546961467691 0.0014230355354374136 0.0016795992845361958 0.00087869714714811672 0.0013314202898984293 0.0011263262502454697 -0.00034251091426649424 6.0970066400233423e-05 -0.0010688639614702062 0.0012134153460297229 -0.00084004029281214076 7.1155915420449139e-05 -0.0026699412172036898 0.0013746724867333881 0.00055005215563549937 -0.00082646241893234761 -0.00053910371428935139 0.00067582387443539159 7.6659535001000613e-05 0.0016079105218741552 -0.0017617139833608895 0.00079718009046826968 -0.00011009342988854364 -0.00056540596834107502 0.00014630513440282324 0.0019606425748065434 -0.00066672996607953919
leaf_weight=3374 2698 2530 276 2608 5836 2882 3223 1588 145 6801 21787 16866 3771 4466 8624 4736 4342 15338 5715 17441 8420 6627 1172 3968 3604 6794 12212 26278 1143 8485
leaf_count=3374 2698 2530 276 2608 5836 2882 3223 1588 145 6801 21787 16866 3771 4466 8624 4736 4342 15338 5715 17441 8420 6627 1172 3968 3604 6794 12212 26278 1143 8485
internal_value=-1.30994e-05 -0.000137555 -0.000907052 0.000199519 0.000389392 0.000737008 -0.000136511 -0.00179232 -0.000257241 -0.000456716 -0.000614125 -0.00197094 -0.000133724 -0.00204197 -0.001592 -0.00328842 0.00114942 0.000978338 -0.00186727 -0.000347711 0.00211803 -0.000504034 0.000786966 -0.00265723 0.00240826 0.000379665 -0.000836032 0.000755479 0.00203946 -0.00152723
internal_weight=213750 201956 61518 140438 24962 77204 24760 36556 19126 63234 59483 34968 42999 34692 25490 9202 52444 48102 16484 39228 11794 22062 10496 9683 6486 9324 18839 41616 3751 8630
internal_count=213750 201956 61518 140438 24962 77204 24760 36556 19126 63234 59483 34968 42999 34692 25490 9202 52444 48102 16484 39228 11794 22062 10496 9683 6486 9324 18839 41616 3751 8630
is_linear=0
shrinkage=0.01


Tree=25
num_leaves=31
num_cat=0
split_feature=15 14 10 11 8 16 14 14 14 14 3 6 16 11 16 16 14 10 5 14 16 16 16 14 14 14 14 15 3 5
split_gain=562.407 493.499 358.71 338.758 316.84 314.639 498.226 403.377 240.112 435.56 235.21 214.608 208.908 173.867 123.866 118.239 112.829 111.01 106.92 101.108 113.61 96.2851 95.6535 93.9141 88.8994 84.9892 93.087 92.9275 91.8204 90.5995
threshold=0.10855400794151555 20.500000000000004 44.221774280407011 -89.014168190705689 28.000600000000002 2606750.8125000005 24.500000000000004 24.500000000000004 1.0000000180025095e-35 5.5000000000000009 0.21855562640149598 0.20143932182291679 6040193.7142857155 -6.3921015172122155 5393375.8333333349 401909.00000000006 21.500000000000004 34.592162005199434 8533771.428571431 23.500000000000004 547119.83333333337 1431251.5000000002 516119.26666666672 21.500000000000004 21.500000000000004 5.5000000000000009 7.5000000000000009 0.33563985031376148 0.20271619809118238 615283.33333333349
decision_type=2 2 2 2 2 2 2 2 2 2 2 2 2 2 2 2 2 2 2 2 2 2 2 2 2 2 2 2 2 2
left_child=1 2 13 22 15 6 19 12 -5 11 -11 -10 16 -1 -9 -2 -7 -15 23 20 -3 -8 -4 -14 -22 -17 29 28 -28 -27
right_child=4 5 3 8 -6 7 21 14 9 10 -12 -13 18 17 -16 25 -18 -19 -20 -21 24 -23 -24 -25 -26 26 27 -29 -30 -31
leaf_value=0.00097451027865596304 0.0051142310065906459 -0.0010353833512276435 0.0035466104594421995 0.00066824447794981061 0.0014934512189264568 -0.0016320717170347817 0.0018206373834618963 -0.0014686975405893859 -7.7499927521687965e-05 -0.00011011298364672052 0.00056615181775709162 -0.0010769578826898061 0.00098331298390837477 0.00081713690743359852 -0.0025463130297211367 -0.00024311971788455692 -0.00052513389705379095 3.3888145155697854e-06 -0.00090310594650012586 -0.0014335629577406275 -0.0022995302983306312 0.00042438938280354738 0.000685202848205915 -0.0006557114183157487 2.5980968683919081e-05 -0.0011085222589179542 -0.00036933622084448197 0.0020127479069807354 0.00066886930071041349 0.00091493281553794851
leaf_weight=9975 544 3900 448 6500 8444 3180 3151 2803 7290 70580 10395 17889 4495 4659 4445 4337 5271 12618 1225 1023 347 3420 7641 1647 5093 292 5324 819 3319 2676
leaf_count=9975 544 3900 448 6500 8444 3180 3151 2803 7290 70580 10395 17889 4495 4659 4445 4337 5271 12618 1225 1023 347 3420 7641 1647 5093 292 5324 819 3319 2676
internal_value=-1.56257e-05 -0.000205484 6.08804e-05 -0.000173012 0.00137022 -0.001191 -0.000155899 -0.00195092 -0.000314947 -0.000429188 -7.19975e-05 -0.0015779 -0.00105576 0.00109717 -0.00390453 0.000595575 -0.00212874 0.000490247 0.000175105 -0.00152176 -0.00119486 0.00199817 0.00180368 0.000713123 -0.000261029 0.000446711 0.000867257 0.000382583 7.75194e-05 0.0024124
internal_weight=213750 187995 147995 120743 25755 40000 16934 23066 112654 106154 80975 25179 15818 27252 7248 17311 8451 17277 7367 10363 9340 6571 8089 6142 5440 16767 12430 9462 8643 2968
internal_count=213750 187995 147995 120743 25755 40000 16934 23066 112654 106154 80975 25179 15818 27252 7248 17311 8451 17277 7367 10363 9340 6571 8089 6142 5440 16767 12430 9462 8643 2968
is_linear=0
shrinkage=0.01


Tree=26
num_leaves=31
num_cat=0
split_feature=15 14 10 11 16 14 14 8 3 14 14 16 11 16 16 10 14 5 14 16 16 16 14 14 14 14 15 3 5 10
split_gain=553.219 486.291 353.103 332.458 309.493 489.814 399.219 305.524 236.37 235.533 444.837 203.664 172.283 123.585 116.233 114.565 111.652 105.202 96.6444 111.682 96.3922 95.4332 93.0181 88.7659 82.9054 91.6625 91.402 91.1705 90.1384 82.0375
threshold=0.10855400794151555 20.500000000000004 44.221774280407011 -89.014168190705689 2606750.8125000005 24.500000000000004 24.500000000000004 28.000600000000002 -0.64663951811393072 1.0000000180025095e-35 5.5000000000000009 6040193.7142857155 -8.4283549318891247 5611416.6666666679 401909.00000000006 34.592162005199434 21.500000000000004 8533771.428571431 23.500000000000004 547119.83333333337 516119.26666666672 1318799.0625000002 21.500000000000004 21.500000000000004 5.5000000000000009 7.5000000000000009 0.33563985031376148 0.20271619809118238 615283.33333333349 204.09553509641174
decision_type=2 2 2 2 2 2 2 2 2 2 2 2 2 2 2 2 2 2 2 2 2 2 2 2 2 2 2 2 2 2
left_child=1 2 12 20 5 18 11 14 -5 -10 -11 16 -1 -8 -2 -14 -6 22 19 -3 -4 -7 -13 -21 -16 28 27 -27 -26 -22
right_child=7 4 3 8 6 21 13 -9 9 10 -12 17 15 -15 24 -17 -18 -19 -20 23 29 -23 -24 -25 25 26 -28 -29 -30 -31
leaf_value=0.0013120422762549122 0.0050630886965247401 -0.0010250295177153671 0.0035111443548477774 -0.0018282573658472002 -0.0016157509998644341 0.0018499958141812631 -0.0015136766027430014 0.0014785167067371922 0.00067780974482127836 -0.00076358877538360936 -8.6023449397085171e-06 0.00097347985406929117 0.00090479515380765543 -0.0025334894591158151 -0.00024068852070571135 0.00012354300656269412 -0.00051988255808325305 -0.00089407488703512452 -0.0014192273281632211 -0.0022765349953473247 0.0014754347869041478 0.00052026076078033699 -0.00064915430413259117 2.5721158997079886e-05 -0.0010974370363287746 -0.00036564285863603717 0.0019926204279109281 0.00066218060770330939 0.00090578348738256905 0.0003733945325782412
leaf_weight=4892 544 3900 448 988 3180 2551 2965 8444 6472 25052 80142 4495 5427 4283 4337 16933 5271 1225 1023 347 2129 4020 1647 5093 292 5324 819 3319 2676 5512
leaf_count=4892 544 3900 448 988 3180 2551 2965 8444 6472 25052 80142 4495 5427 4283 4337 16933 5271 1225 1023 347 2129 4020 1647 5093 292 5324 819 3319 2676 5512
internal_value=-1.59064e-05 -0.000204208 6.02047e-05 -0.000171853 -0.0011825 -0.000155899 -0.00193618 0.00135857 -0.000312461 -0.000269375 -0.000383292 -0.00104564 0.00108836 -0.00387969 0.000597886 0.000716458 -0.00210508 0.000169676 -0.00151018 -0.00119058 0.00178638 0.00197991 0.000703354 -0.000264706 0.000450289 0.000865648 0.000384697 8.21474e-05 0.00239892 0.00152205
internal_weight=213750 187995 147995 120743 40000 16934 23066 25755 112654 111666 105194 15818 27252 7248 17311 22360 8451 7367 10363 9340 8089 6571 6142 5440 16767 12430 9462 8643 2968 7641
internal_count=213750 187995 147995 120743 40000 16934 23066 25755 112654 111666 105194 15818 27252 7248 17311 22360 8451 7367 10363 9340 8089 6571 6142 5440 16767 12430 9462 8643 2968 7641
is_linear=0
shrinkage=0.01


Tree=27
num_leaves=31
num_cat=0
split_feature=11 14 16 10 14 15 14 14 6 14 14 15 3 8 14 14 14 15 15 3 3 10 15 16 3 14 16 10 16 3
split_gain=542.374 503.851 677.847 482.524 316.813 249.534 243.523 243.404 247.635 243.304 380.923 219.293 206.443 166.186 159.478 265.109 153.571 150.818 160.923 146.399 136.43 136.088 126.156 123.284 110.614 105.232 100.409 96.727 95.8627 88.9453
threshold=-89.014168190705689 18.500000000000004 2017569.4375000002 58.144638917936845 24.500000000000004 0.20729244593819915 20.500000000000004 5.5000000000000009 0.20143932182291679 1.0000000180025095e-35 5.5000000000000009 -0.18713032711745445 0.32837709271604781 26.372700000000005 19.500000000000004 24.500000000000004 7.5000000000000009 0.12826455313484678 -0.086901701159898412 -0.12443978619468314 0.26104280873926805 204.09553509641174 0.069842784466877458 1729463.1538461542 -0.084211951487166356 7.5000000000000009 2324839.4230769235 36.89294690304687 684554.60000000009 -0.31745318031289244
decision_type=2 2 2 2 2 2 2 2 2 2 2 2 2 2 2 2 2 2 2 2 2 2 2 2 2 2 2 2 2 2
left_child=21 3 4 7 6 11 20 8 -2 26 13 -4 16 23 -13 -16 -12 18 25 -10 24 -1 -15 -11 -3 -9 -5 -20 -14 -8
right_child=1 2 5 9 -6 -7 29 17 19 10 12 14 28 22 15 -17 -18 -19 27 -21 -22 -23 -24 -25 -26 -27 -28 -29 -30 -31
leaf_value=0.0019228789909921094 0.0009117124527345538 0.0010106541176532597 0.00099076894624915081 0.00036655256304902616 0.0013859828281752595 0.0012930337558958956 0.0011435908906020534 0.0017191125742355823 0.00032412890941872801 -0.00038161576698174284 8.2257647258570372e-05 -0.0015669293591691153 0.0050322141869471445 -0.00072780063092570081 -0.00051934957548489835 -0.0018698252300811038 -0.00049738693169477152 0.0013572975763400325 0.00080955477393888377 -0.00051907079296339422 0.0015862559219272398 0.00066152739638217369 0.0013228349855430965 -0.0014967925783825886 -0.00010884103131430851 0.00090430637362483941 0.0019292081780511649 0.00023616914274769433 0.0008602820439333669 -0.00065230317848254994
leaf_weight=3374 6386 2530 1532 2818 5836 1588 145 2723 5637 3993 23455 5457 374 3622 19184 8795 18766 4047 4484 11253 1172 8420 1520 8535 6794 3435 1231 34507 3652 8485
leaf_count=3374 6386 2530 1532 2818 5836 1588 145 2723 5637 3993 23455 5457 374 3622 19184 8795 18766 4047 4484 11253 1172 8420 1520 8535 6794 3435 1231 34507 3652 8485
internal_value=-1.73099e-05 -0.00013904 -0.000893722 0.000191544 0.000376572 -0.00176113 -0.000245739 0.00075919 -8.33477e-05 -0.000413736 -0.000564326 -0.0019372 -8.71408e-05 -0.00181324 -0.00210671 -0.00180171 -0.000293456 0.00115782 0.000992049 -0.000717584 0.000777439 0.00206715 -0.000299494 -0.00243455 0.00037323 0.00249432 0.00196345 0.00075479 0.0020765 -0.00149015
internal_weight=213750 201956 61518 140438 24962 36556 19126 72472 23276 67966 63917 34968 46247 17670 33436 27979 42221 49196 45149 16890 10496 11794 5142 12528 9324 6158 4049 38991 4026 8630
internal_count=213750 201956 61518 140438 24962 36556 19126 72472 23276 67966 63917 34968 46247 17670 33436 27979 42221 49196 45149 16890 10496 11794 5142 12528 9324 6158 4049 38991 4026 8630
is_linear=0
shrinkage=0.01


Tree=28
num_leaves=31
num_cat=0
split_feature=15 14 10 11 8 16 14 14 3 14 14 16 11 16 6 14 10 5 14 16 16 16 14 15 15 11 14 14 3 10
split_gain=536.914 471.233 343.38 320.367 297.081 296.238 471.22 389.367 234.786 230.67 429.817 197.002 168.239 125.371 113.345 110.135 106.367 102.861 96.7556 109.191 95.9946 94.4237 94.1355 92.0655 91.9843 95.6638 87.0832 85.4181 80.3069 79.4596
threshold=0.10855400794151555 20.500000000000004 44.221774280407011 -89.014168190705689 28.262835000000006 2606750.8125000005 24.500000000000004 24.500000000000004 -0.64663951811393072 1.0000000180025095e-35 5.5000000000000009 6040193.7142857155 -6.3921015172122155 5393375.8333333349 0.11721019907472056 21.500000000000004 34.592162005199434 8533771.428571431 23.500000000000004 547119.83333333337 547119.83333333337 1431251.5000000002 5.5000000000000009 -0.17613252426538153 0.25669857136165358 -27.08971818286949 21.500000000000004 21.500000000000004 0.077852498874693934 204.09553509641174
decision_type=2 2 2 2 2 2 2 2 2 2 2 2 2 2 2 2 2 2 2 2 2 2 2 2 2 2 2 2 2 2
left_child=1 2 12 20 14 6 18 11 -5 28 -11 15 -1 -9 -2 -7 -14 23 19 -3 -4 -8 -16 -13 25 -24 -21 -27 -10 -22
right_child=4 5 3 8 -6 7 21 13 9 10 -12 17 16 -15 22 -17 -18 -19 -20 26 29 -23 24 -25 -26 27 -28 -29 -30 -31
leaf_value=0.00095972117812533899 0.0010983656036610179 -0.001008256190753388 0.0033034168675930798 -0.0018011416332062386 0.0014683236833448287 -0.0015943999941109405 0.0017700712232037123 -0.0014201755468552511 0.00093070784431870601 -0.00074824908910631584 -9.366547156328329e-06 0.0040865662493399756 0.00079768966932509846 -0.0024817912596015678 -0.00041915508939856586 -0.00050949023674757145 -3.7159288001298308e-07 -0.00087994064240992436 -0.0013985120230967634 -0.0022485761496390021 0.001445322970803347 0.00042190623466791791 0.001336959956493195 0.0001918475398784561 0.0014598071833167292 0.00018664680919874623 3.1391826813852306e-05 -0.0011207824868269382 4.8523579567871996e-05 0.00035867539875692925
leaf_weight=9975 3248 3900 474 988 8352 3180 3151 2803 4102 25052 80142 525 4659 4445 3633 5271 12618 1225 1023 347 2123 3420 1418 5617 1556 5884 5093 1664 2370 5492
leaf_count=9975 3248 3900 474 988 8352 3180 3151 2803 4102 25052 80142 525 4659 4445 3633 5271 12618 1225 1023 347 2123 3420 1418 5617 1556 5884 5093 1664 2370 5492
internal_value=-1.64678e-05 -0.000201973 5.83128e-05 -0.000170527 0.0013376 -0.001165 -0.000160624 -0.00190237 -0.000308555 -0.000265614 -0.000378349 -0.00102289 0.00107221 -0.00382174 0.000593576 -0.00206484 0.000475198 0.00017239 -0.00148895 -0.00116916 0.00175176 0.00193426 0.000206994 0.000700098 0.000686181 0.000296676 -0.000253676 -0.000151033 0.00156675 0.00147997
internal_weight=213750 187995 147995 120743 25755 40000 16934 23066 112654 111666 105194 15818 27252 7248 17403 8451 17277 7367 10363 9340 8089 6571 14155 6142 10522 8966 5440 7548 6472 7615
internal_count=213750 187995 147995 120743 25755 40000 16934 23066 112654 111666 105194 15818 27252 7248 17403 8451 17277 7367 10363 9340 8089 6571 14155 6142 10522 8966 5440 7548 6472 7615
is_linear=0
shrinkage=0.01


Tree=29
num_leaves=31
num_cat=0
split_feature=11 14 16 10 14 15 14 14 14 14 6 15 3 8 14 14 14 11 10 3 3 10 16 15 3 16 16 10 15 3
split_gain=528.058 492.07 659.338 469.565 306.12 244.976 238.965 365.148 238.833 236.542 242.28 210.282 202.138 162.171 160.729 255.048 152.118 149.804 215.261 144.298 136.915 130.981 119.661 119.141 108.483 98.9245 96.8529 95.655 90.6929 88.5741
threshold=-89.014168190705689 18.500000000000004 2017569.4375000002 58.144638917936845 24.500000000000004 0.20729244593819915 1.0000000180025095e-35 5.5000000000000009 20.500000000000004 5.5000000000000009 0.20143932182291679 -0.18713032711745445 0.32837709271604781 26.372700000000005 19.500000000000004 24.500000000000004 7.5000000000000009 -9.2798160959842679 36.89294690304687 -0.12443978619468314 0.26104280873926805 204.09553509641174 1729463.1538461542 0.069842784466877458 -0.084211951487166356 2324839.4230769235 684554.60000000009 46.232885784954696 -0.20139432334965182 -0.31745318031289244
decision_type=2 2 2 2 2 2 2 2 2 2 2 2 2 2 2 2 2 2 2 2 2 2 2 2 2 2 2 2 2 2
left_child=21 3 4 9 8 11 25 13 20 10 -2 -4 16 22 -13 -16 -9 27 -19 -12 24 -1 -8 -15 -3 -5 -14 -11 -20 -10
right_child=1 2 5 6 -6 -7 7 12 29 17 19 14 26 23 15 -17 -18 18 28 -21 -22 -23 -24 -25 -26 -27 -28 -29 -30 -31
leaf_value=0.0018903259185041649 0.00090033734217436954 0.0010006412419482904 0.00097288408627341173 0.00035473370997954578 0.001358054283344276 0.0012685386453530089 -0.00037031711842086231 8.0158080076508101e-05 0.0011461401019270006 0.0017073472678162641 0.00032120130100689261 -0.001548925265462306 0.0049788930967754061 -0.00071304013372538067 -0.00051049251954430859 -0.0018358169000956236 -0.00049253668940591638 0.0010403648290045128 0.0027148469487309535 -0.00051201061581191993 0.0015704870281795307 0.00064934406931202655 -0.0014758209178860288 0.0013060062627164731 -0.0001099731672517374 0.0019094308604749746 0.00084920496501495791 0.00062745172896810995 0.00012718002787087167 -0.00064262083070878529
leaf_weight=3374 6386 2530 1532 2818 5836 1588 3993 23455 145 3396 5637 5457 374 3622 19184 8795 18766 5796 444 11253 1172 8420 8535 1520 6794 1231 3652 12833 26727 8485
leaf_count=3374 6386 2530 1532 2818 5836 1588 3993 23455 145 3396 5637 5457 374 3622 19184 8795 18766 5796 444 11253 1172 8420 8535 1520 6794 1231 3652 12833 26727 8485
internal_value=-1.67485e-05 -0.000136861 -0.000882668 0.000189835 0.000370163 -0.00173816 -0.000407262 -0.000556503 -0.000241556 0.000749807 -8.07699e-05 -0.00191261 -8.93031e-05 -0.00177929 -0.0020786 -0.0017724 -0.000293456 0.00114278 0.000755604 -0.000708111 0.000771723 0.00204002 -0.00239304 -0.000283936 0.000366795 0.00194863 0.00205166 0.00192926 0.000382393 -0.00147393
internal_weight=213750 201956 61518 140438 24962 36556 67966 63917 19126 72472 23276 34968 46247 17670 33436 27979 42221 49196 32967 16890 10496 11794 12528 5142 9324 4049 4026 16229 27171 8630
internal_count=213750 201956 61518 140438 24962 36556 67966 63917 19126 72472 23276 34968 46247 17670 33436 27979 42221 49196 32967 16890 10496 11794 12528 5142 9324 4049 4026 16229 27171 8630
is_linear=0
shrinkage=0.01


Tree=30
num_leaves=31
num_cat=0
split_feature=15 14 10 11 16 14 14 8 3 3 6 16 15 11 16 16 14 5 16 14 16 14 16 14 10 5 14 14 5 15
split_gain=526.864 461.765 333.331 297.748 287.721 457.848 373.693 286.632 250.303 220.111 196.798 192.202 141.199 137.948 125.904 111.69 106.986 100.758 97.3036 96.4833 108.248 94.5703 88.0793 85.4166 79.7747 79.3354 77.5846 84.8768 89.7144 88.9686
threshold=0.10855400794151555 20.500000000000004 42.036795188773048 -89.014168190705689 2606750.8125000005 24.500000000000004 24.500000000000004 28.262835000000006 -0.64663951811393072 -0.13644264515576762 0.27504438507345891 6040193.7142857155 -0.26852726530468901 -4.9295041943975759 5393375.8333333349 401909.00000000006 21.500000000000004 8533771.428571431 547119.83333333337 23.500000000000004 547119.83333333337 21.500000000000004 1431251.5000000002 21.500000000000004 204.09553509641174 632202.38095238106 5.5000000000000009 7.5000000000000009 615283.33333333349 0.33563985031376148
decision_type=2 2 2 2 2 2 2 2 2 2 2 2 2 2 2 2 2 2 2 2 2 2 2 2 2 2 2 2 2 2
left_child=1 2 13 18 5 19 11 15 -5 12 -11 16 -10 -1 -8 -2 25 21 -4 20 -3 -13 -7 -22 -20 -6 -17 28 -28 -29
right_child=7 4 3 8 6 22 14 -9 9 10 -12 17 -14 -15 -16 26 -18 -19 24 -21 23 -23 -24 -25 -26 -27 27 29 -30 -31
leaf_value=0.00093815683042398944 0.004965063952424487 -0.00099706005703340266 0.0032576843489780685 -0.0018277706064782806 -1.4504423917186677e-05 0.0017387899681382325 -0.0013876156223857421 0.0014532487030409957 0.0032021694049017926 8.3158170539876511e-05 -0.00029733630364311043 0.00097187823785073566 0.00028617201122386581 0.00015456496607382117 -0.0024395702900088518 -0.00024228411709150731 -0.00049929040918465274 -0.00086603631079038197 0.0014119664819102718 -0.0013790316824703194 -0.0022209854629471693 -0.00065588698094000875 0.00042015031001473637 3.0635352094691565e-05 0.00034859520407623968 -0.0019051088826664809 -0.001114101202364996 4.1810637151009634e-05 0.00088762784061454227 0.0019223673978387551
leaf_weight=10151 548 3900 474 1036 553 3151 2803 8352 688 32615 62246 4495 22604 10566 4445 4353 5271 1225 2123 1023 347 1647 3420 5093 5492 2627 296 8695 2691 820
leaf_count=10151 548 3900 474 1036 553 3151 2803 8352 688 32615 62246 4495 22604 10566 4445 4353 5271 1225 2123 1023 347 1647 3420 5093 5492 2627 296 8695 2691 820
internal_value=-1.69357e-05 -0.000200697 5.69614e-05 -0.000134509 -0.001154 -0.000164167 -0.00188069 0.0013244 -0.000260511 -0.000217599 -0.000431473 -0.00101909 0.000653443 0.00123329 -0.00376104 0.000593576 -0.00204828 0.000161531 0.00172209 -0.00147351 -0.00115418 0.000683816 0.00190078 -0.000242647 0.00144846 -0.00349686 0.000449125 0.000849464 0.00232005 0.000387809
internal_weight=213750 187995 147995 127278 40000 16934 23066 25755 119189 118153 94861 15818 23292 20717 7248 17403 8451 7367 8089 10363 9340 6142 6571 5440 7615 3180 16855 12502 2987 9515
internal_count=213750 187995 147995 127278 40000 16934 23066 25755 119189 118153 94861 15818 23292 20717 7248 17403 8451 7367 8089 10363 9340 6142 6571 5440 7615 3180 16855 12502 2987 9515
is_linear=0
shrinkage=0.01


Tree=31
num_leaves=31
num_cat=0
split_feature=15 14 10 11 16 14 14 8 3 14 14 16 11 16 16 14 5 16 14 16 14 3 16 14 10 5 11 15 15 14
split_gain=515.867 452.149 326.094 294.133 280.109 446.298 363.731 279.321 250.527 219.98 431.764 190.679 135.905 121 110.092 104.453 99.9213 95.8788 94.9237 106.947 90.4352 86.975 85.6086 81.6193 78.7158 77.8926 76.4662 73.5402 72.2927 67.1432
threshold=0.10855400794151555 20.500000000000004 42.036795188773048 -89.014168190705689 2606750.8125000005 24.500000000000004 24.500000000000004 28.262835000000006 -0.64663951811393072 1.0000000180025095e-35 5.5000000000000009 6040193.7142857155 -4.9295041943975759 5393375.8333333349 401909.00000000006 21.500000000000004 8533771.428571431 547119.83333333337 23.500000000000004 547119.83333333337 21.500000000000004 0.077852498874693934 1431251.5000000002 21.500000000000004 204.09553509641174 632202.38095238106 -2.9127082844323797 -0.36036305307588795 -0.15329485673297419 1.5000000000000002
decision_type=2 2 2 2 2 2 2 2 2 2 2 2 2 2 2 2 2 2 2 2 2 2 2 2 2 2 2 2 2 2
left_child=1 2 12 17 5 18 11 14 -5 21 -11 15 29 -8 -2 25 20 -4 19 -3 -13 -10 -7 -21 -19 -6 -16 -15 -17 -1
right_child=7 4 3 8 6 22 13 -9 9 10 -12 16 -14 27 26 28 -18 24 -20 23 -22 -23 -24 -25 -26 -27 -28 -29 -30 -31
